0.12132768,-0.0960282,-0.01834802,0.09730804,-0.012869971,-0.003471711,0.02657548,-0.15118681,-0.19373687,0.029849125,0.19100407,-0.030062035,0.023496846,-0.29213563,-0.03263611,0.22633943
0.1521174,-0.07172939,0.0027529583,-0.097706676,0.008806966,0.05204749,-0.13057217,0.20792423,-0.018631574,0.04864516,0.042687804,0.01344985,0.1404433,0.1779182,-0.00961215,0.061157297
-0.048209313,0.029731218,0.0953544,-0.08111227,0.06174015,0.07158935,-0.07533479,0.23222288,0.035427045,0.022336818,0.20747261,0.10455198,0.033488818,0.11209486,-0.122314356,0.06848888
0.090305105,-0.09843318,0.0058179772,0.120631896,0.05515592,-0.07037019,0.080504306,-0.09405388,0.086134024,0.058728624,-0.077650085,-0.08357607,-0.1578924,0.0062164525,0.07939569,0.09530909
0.115844525,-0.10505671,0.038407747,-0.03461739,0.003419804,0.019275641,-0.12448978,-0.08931556,0.013504557,-0.024321625,0.010473832,0.087777615,0.21427526,0.04525042,-0.089518026,0.14670269
-0.15655397,0.050589714,-0.12469312,0.06418881,0.00061044126,-0.001953969,0.1605881,-0.09710269,-0.12602246,0.056231443,-0.009973319,-0.18263689,-0.011315621,0.027394857,-0.045097403,-0.15900038
-0.27071786,-0.115015365,-0.004090144,0.04026387,-0.060894582,0.11965602,0.07153467,-0.17532945,-0.041225657,-0.036814716,-0.04005766,0.1482226,-0.02089647,-0.21759221,0.0671543,-0.07161035
-0.05959448,0.01762542,-0.15322833,0.059679024,-0.06377485,0.011355564,-0.006965758,0.15601146,0.13903013,0.09397015,0.07594595,-0.09216376,0.044388283,0.26347247,0.034927785,-0.06314098
0.26364434,-0.099334665,-0.030611662,0.14241792,-0.069827355,-0.040938053,-0.10245768,-0.028191557,0.09322262,-0.081035346,-0.024064543,-0.0906908,-0.01949776,0.029918151,-0.050262198,0.0956716
-0.033504676,0.107276656,-0.019373283,0.015939351,0.03859563,0.011269075,-0.07601913,-0.036389824,0.056894407,0.009274629,-0.17018908,-0.051869698,0.19840555,0.0567789,0.04922998,-0.0148009015
-0.113198794,0.06374533,0.0025998831,0.12266067,0.09014422,0.06767026,-0.02390818,-0.15360923,-0.18496597,-0.046614405,-0.0045925304,-0.09408446,-0.1011946,0.015538418,-0.024297643,-0.03434385
-0.010590072,0.01064775,0.14319856,-0.07183207,-0.015969472,0.10024112,0.019442467,0.038276013,0.12257341,-0.040424086,0.07542811,0.07583456,-0.078291975,0.13310516,-0.07924567,0.17978662
-0.13873321,0.03977483,-0.008816106,0.0030437037,-0.059423678,-0.14826389,-0.06025617,0.011415797,0.045382936,0.14121741,0.08268679,0.1963023,0.17523119,0.0033643453,0.03324357,0.16954467
-0.08577566,-0.0062239436,-0.098762035,0.018152548,0.05560541,0.009848684,0.100149624,0.0132056875,0.081903085,-0.09628446,-0.061227687,0.03501705,-0.14445508,-0.0034048765,0.08181512,0.016710531
0.25517252,-0.120706625,0.106437504,-0.0043166913,-0.013394274,0.0059250337,-0.044995986,0.07597951,0.20159023,-0.045426514,0.022095986,-0.06910471,0.05031781,-0.015309036,-0.061641645,0.18647973
-0.12680021,0.059618186,-0.030026786,-0.042090684,0.04469813,0.002756275,-0.020526094,-0.20433149,-0.0037357882,-0.00041222372,-0.10516669,-0.14622173,0.025706649,0.0071732155,0.08631818,-0.14552553
0.06556474,-0.044883404,-0.05105538,-0.11517703,-0.06624662,-0.04530047,0.10978899,0.120559774,0.002241089,-0.13619284,0.18211094,0.013038523,-0.0039181523,0.07956925,-0.0010997109,0.07010894
0.03310935,-0.034795493,0.03392831,-0.0792682,0.10816177,-0.007828088,0.038727276,-0.022695702,-0.112189956,0.07726061,0.08368254,-0.1249523,-0.027490474,-0.078841195,-0.045121163,-0.09718986
-0.105706535,0.0680068,-0.13555674,-0.07598769,0.060828965,0.010333365,0.07334124,-0.07353957,-0.08035648,0.021986665,-0.0702446,0.080920026,0.07446944,-0.03332149,0.052046545,-0.007644426
-0.07139104,0.045613717,-0.15722263,-0.17531258,-0.023610268,0.048290256,-0.006864489,0.21623018,-0.15575099,0.15429293,-0.033445273,-0.02382378,0.1030719,-0.08723789,-0.068481855,0.068723194
0.010540334,0.0060804104,0.030700877,0.13506773,-0.069744095,-0.032695394,0.023805594,-0.21943435,-0.11707692,-0.09093553,-0.123432055,-0.0040682117,-0.20810771,-0.08465856,-0.052059855,-0.015852176
-0.02712851,0.06140991,0.05811728,-0.007876299,-0.07306139,0.11944952,0.119594336,-0.12774211,-0.19126458,-0.082370535,-0.10397214,0.061492775,-0.08569893,-0.11216443,0.037970148,0.029635645
-0.02379751,-0.13914567,0.116430245,-0.06350462,0.096999705,0.11227997,0.047850184,-0.05117467,-0.056464773,-0.019037217,0.0705421,-0.11674754,0.07713619,0.10330749,-0.065957434,0.12442162
-0.0029504108,-0.12077765,0.039360035,-0.06795397,0.03417447,0.14216734,-0.04787463,-0.1382846,0.011686981,0.11077511,-0.006557418,0.06854409,-0.1152196,-0.008446662,-0.021549186,0.100834794
-0.023562316,0.054078396,-0.17037597,0.06971889,-0.090204105,-0.033722438,-0.04453243,-0.02311981,-0.03087035,-0.0075592515,0.19641459,0.115368485,0.1862705,0.1124917,0.024870858,0.03722347
0.15600689,-0.019699141,0.17510238,0.08745204,0.010921629,0.09339142,-0.046591107,0.040055376,-0.017292617,0.1612704,0.019634657,0.013007715,-0.16891342,0.0013636441,0.04488815,0.063553326
0.058133252,-0.14511578,0.1800633,0.014548411,0.00940622,0.055552475,-0.15496944,0.03617248,0.09778734,0.16871919,0.19493228,0.06874671,-0.038565572,0.1759544,-0.101515,0.114360906
-0.024033712,-0.052517585,0.02344285,0.11239108,-0.12239919,0.119759776,0.030937454,0.16292192,0.0528001,0.09230299,0.07783333,-0.008565927,0.13423567,-0.15630113,0.025732769,-0.09151988
0.0016292605,-0.06349826,0.05228749,0.111360036,0.0453223,0.09000765,0.09166164,0.122983456,0.08341577,0.0019984678,-0.04452853,-0.08751693,0.03140949,0.04734571,0.09722066,-0.1684951
-0.023322998,-0.096468225,-0.011251751,0.08250869,-0.06796862,-0.054389197,-0.10417841,0.10927549,-0.06451094,0.015910864,-0.08285488,-0.04572846,-0.018779296,0.091555536,0.017561715,-0.011966986
0.021277236,0.056410838,-0.06963402,-0.053431135,-0.04822436,0.0038970236,0.072754055,-0.11475118,0.04581722,0.04323013,-0.17792773,-0.026466973,-0.13297771,-0.010170803,0.03258426,0.12653162
-0.15213184,-0.09680098,-0.20947786,-0.05516636,-0.00013607388,-0.046043538,0.05463851,-0.0315482,0.03877934,0.2020838,-0.05832354,-0.0730894,-0.09184088,-0.1457623,-0.0039774464,0.026756687
-0.09111565,-0.044772416,-0.059373166,0.116993606,0.024597801,0.1230288,0.12699223,-0.035100304,-0.12397858,-0.118274875,-0.2015822,0.026928192,-0.06262648,-0.17220648,0.15497577,-0.19390254
0.043749135,-0.08544064,-0.08564508,-0.012172708,-0.069322065,-0.082561664,-0.09648225,-0.10106112,-0.06029464,-0.013659438,0.10799475,0.039454542,0.07978853,-0.06446065,0.09371732,0.026026059
0.01463365,-0.08149473,0.028933283,0.00046754585,-0.07456926,0.095441595,-0.021776548,0.04168771,0.0029253052,0.020320438,-0.008877327,0.105265394,-0.0740008,-0.10654584,0.015435471,0.050242607
0.08136685,-0.008748261,0.10295115,0.0036888083,0.107739195,-0.010010206,-0.0023998215,0.032941073,0.045634285,0.034532912,0.06868073,-0.07263907,0.023412174,-0.048653394,-0.07206734,0.11894348
0.16233903,0.10858165,0.011019541,-0.071947925,-0.06511311,-0.07395835,0.13592297,0.09176287,-0.06533222,0.12142601,-0.14446752,-0.0070169396,0.08405987,0.012622684,-0.02545113,-0.090198666
-0.018022137,0.043875523,-0.12932372,0.042929463,-0.034611683,-0.030077538,-0.00014191029,-0.23872131,-0.096626736,-0.21273755,-0.19651912,0.11289173,-0.0067155175,-0.258435,0.008403978,-0.035670895
-0.0104640955,-0.02382709,0.013867681,0.119906686,-0.008388533,-0.09259643,-0.013566444,0.09898462,-0.066550665,0.022648511,0.15128928,0.13671237,0.08907143,0.03252545,-0.109616034,0.03326577
0.019929448,0.005192742,0.0865512,0.12326652,-0.08324978,-0.095625974,0.12847683,0.040800698,-0.06655081,-0.14639431,-0.10934001,-0.06564722,-0.1830549,-0.114591844,-0.07821298,0.044502392
-0.08449581,0.053019553,-0.044115003,-0.110141814,0.07995388,-0.09738199,0.043261364,0.07183281,-0.095690295,0.14036988,-0.077277444,-0.053335097,0.04134937,0.045585588,0.089820445,0.03955157
0.037193652,-0.032833375,0.10864056,-0.026371617,-0.078019604,0.06301514,0.08316764,-0.048724316,-0.13068318,-0.05947108,0.07514889,0.0423019,0.06566698,0.038807116,0.120584905,-0.0075466954
-0.062799945,-0.06082885,-0.024300875,0.03394018,-0.037777934,0.026407469,0.07142598,-0.1096863,-0.13495316,-0.12087686,-0.25674984,0.00717524,0.030278953,-0.15520185,-0.06305314,-0.12527892
-0.090082005,0.025007924,0.09703091,0.12799403,0.08763512,-0.055547394,0.056793336,0.02841059,-0.04159252,-0.04558081,0.042443536,0.010189877,-0.10931366,-0.15026867,-0.010885763,-0.09086961
-0.0054523493,-0.09502749,-0.12655821,-0.09440875,0.10423174,-0.030435827,0.096058115,0.009823171,0.07000062,-0.017817087,-0.06629998,0.043527707,-0.0019786332,0.18800436,-0.086125,0.060066912
-0.07072273,0.07918532,0.045653857,-0.112901755,-0.039266914,0.053671032,0.119664356,-0.05093645,-0.048016906,0.03769111,0.04968256,-0.041407276,0.021033598,-0.13594578,0.004553192,0.00029948796
0.08080292,-0.1482958,-0.010782578,-0.04850802,-0.008474057,-0.05125484,0.045222647,0.08696362,0.10332773,0.097982585,-0.08585509,-0.006018255,-0.012428781,-0.046071757,-0.014957571,0.015927982
-0.070905276,0.06326249,0.103569865,-0.02026265,-0.07255952,0.094599605,0.03654342,0.11736386,0.115495525,0.080700144,0.121719144,0.11693833,0.09007786,0.0966926,0.029681277,-0.09070654
-0.22971809,0.01337431,-0.06497533,0.029542204,-0.1003755,0.037829418,0.024054784,0.15543,0.13319045,-0.054958202,0.004452126,0.14274688,-0.0038912739,-0.13912436,-0.054004487,0.11108558
-0.0057960753,-0.08432739,-0.08093942,0.053940825,0.10256516,-0.064374276,0.08942221,-0.17907722,-0.052393794,0.007236135,-0.060148563,0.108908854,0.14249392,-0.07351471,0.107619986,0.23685414
0.06450354,0.017642142,-0.014595326,0.022546707,0.035368547,-0.026598169,-0.09505717,-0.04973282,0.033651315,-0.15715438,0.049098883,-0.050147925,-0.19108768,-0.13330764,0.012928,0.005685806
-0.017626207,0.079167284,-0.14117342,-0.06929612,-0.04726108,-0.09876667,0.024969812,-0.040659305,0.036906388,-0.007641036,0.038355812,-0.13920791,-0.19334511,-0.17587602,0.018011784,-0.09807968
0.03520714,0.061427195,0.010982678,-0.016415885,-0.0817552,0.026515966,-0.024254657,-0.043761946,-0.07428711,0.057986423,0.044182602,-0.03452963,-0.091436386,-0.044260748,0.1372004,0.07499491
0.07009788,-0.11715709,-0.044529196,0.024586497,0.06567162,0.039650105,0.12596397,0.033386324,0.15232943,-0.08627036,0.008794002,0.03047219,-0.03835911,-0.10419231,0.02784821,-0.03129785
0.05532539,-0.09595458,-0.058809657,-0.017318958,0.10534913,0.11851171,-0.022946244,-0.15778872,-0.06600637,-0.014772225,-0.18520811,-0.06297388,0.14976715,-0.15387495,-0.025327718,0.027042959
-0.113997415,-0.08249374,-0.08851438,-0.11344371,-0.038629036,0.040362798,0.0901861,0.21421534,0.083936766,0.03662176,0.05625093,0.0562522,-0.029942762,0.12228433,-0.04070668,-0.09750995
-0.1312819,0.034041986,-0.09797992,-0.0028239344,0.11445146,0.012371917,0.093256585,0.18453832,0.12143905,0.018208295,0.25183985,-0.13643976,-0.2692915,0.123472326,0.0018598716,-0.12689374
0.12608477,0.016115533,0.089093864,0.105818816,-0.10163668,8.458061e-05,-0.035885144,0.14311136,-0.04251647,-0.032442592,-0.01691455,-0.023967551,0.009653676,0.039578427,0.09851829,0.048515726
0.04076182,0.032129187,-0.09914769,0.02158822,-0.058009952,-0.06292873,-0.033813376,-0.081619814,0.045499783,0.059223846,-0.058369715,0.0016307704,-0.13924676,0.08482703,-0.10564804,0.050460365
-0.09949639,0.01568664,0.052025385,-0.07710414,-0.07652325,-0.11097642,0.041723147,-0.06588847,-0.09851058,-0.046992246,0.10206341,0.11629797,0.019547595,-0.019263979,0.020889964,0.04419161
0.023324851,0.04115361,-0.03861233,-0.09189238,-0.07774003,0.12727644,-0.090589866,-0.044595253,-0.05320679,-0.018174017,-0.23780663,-0.115454294,-0.07341251,-0.10351807,-0.04042409,-0.02565198
0.009051137,0.051643256,0.05365064,-0.06747768,-0.047394276,0.06921056,-0.08923136,0.12697402,0.03230375,0.01970008,0.0816323,-0.111860394,-0.071978554,0.14604785,0.07911193,-0.083221816
-0.12179368,-0.111460686,-0.037296195,0.14183359,-0.0042083953,0.14753398,0.059033733,-0.11829569,-0.054930396,-0.024116194,-0.11037067,-0.14897883,-0.06805919,-0.30017036,-0.06697812,-0.076436244
0.12168754,-0.009781612,0.05692431,0.010688559,-0.12180641,-0.13124555,-0.018990673,-0.06777765,-0.0887399,0.0029855673,0.03728797,0.096140854,0.06025046,0.08965132,0.08444093,0.06895551
0.051765114,0.0626493,0.07641206,-0.09908511,0.08642675,0.114717476,-0.07704176,-0.07056845,-0.041055612,0.12685966,-0.023008512,0.117540516,0.010736838,0.07862456,-0.061924733,-0.039348215
0.022101777,-0.0111284945,-0.13312042,0.08186831,-0.055159558,0.06885509,0.10250987,-0.0331606,0.022817872,-0.09678419,-0.04256588,0.11940322,-0.059658382,-0.08343797,0.07212296,0.07952681
-0.06894442,0.009253966,0.1259341,-0.14446671,0.05769945,-0.057138227,-0.04580724,0.14362034,-0.07061397,0.12570128,0.023777377,0.066901565,0.0051930216,-0.057608202,-0.08591437,0.116553895
-0.11420068,-0.029976139,-0.07801509,0.02218278,0.013229115,-0.051103458,0.093159996,0.13943842,0.052683886,0.000632199,-0.0880599,-0.018615426,-0.08563458,0.07814948,-0.07163977,-0.2574792
-0.21638164,-0.04885012,0.035489384,0.027107943,0.14196923,-0.07459518,-0.015542148,-0.031381365,-0.061495446,-0.04184445,0.10016013,0.013654627,-0.032643843,-0.23369361,0.08276178,-0.10154201
0.13781059,-0.09911429,0.11631032,-0.036620643,0.062189914,0.07006893,-0.072179586,-0.038412843,0.00148696,-0.103455245,-0.02431423,0.025983447,0.05036514,-0.10083437,-0.10793324,-0.025473228
0.09468105,-0.13097678,0.10401311,-0.0014550397,0.11233649,-0.037192084,0.11809316,-0.030884424,-0.06270753,0.05325053,0.13121118,0.12046211,0.0053330865,-0.019863939,-0.005018761,-0.04917658
-0.1358396,-0.09700614,0.04442421,-0.017304115,0.0006442015,0.08751824,0.10459073,-0.15946123,-0.0507905,0.08387509,-0.123448685,0.07746159,0.004864298,0.10926577,-0.03901211,0.06677017
-0.13202351,0.052327495,-0.029035842,0.033250317,0.08850131,0.021339055,0.0027030534,-0.058701154,0.10478884,-0.04165427,-0.06909007,0.048801664,-0.008903123,-0.15828902,-0.01607976,0.008668404
-0.075279124,-0.034731477,0.051694486,-0.032548245,0.106184684,0.0178442,0.04799507,-0.047765654,0.083931066,-0.07175944,0.02125951,0.06400807,0.18487817,-0.06917879,0.09018061,0.0013159559
-0.19012713,-0.047192793,-0.039427508,0.044492252,-0.051121097,-0.054293834,-0.041726153,0.19180289,0.16652192,0.10888395,-0.06680309,-0.028761813,-0.028655127,0.20356886,-0.06282087,-0.03461541
0.0029879601,0.11392918,0.096513435,-0.10953317,0.0038952522,0.054080196,-0.111290164,0.012799729,-0.034739804,-0.015752994,-0.0076283077,0.12619093,-0.02116413,0.010440306,-0.04337342,0.05575223
-0.0039369124,-0.1553139,0.044959567,0.123570554,0.0197001,-0.02570861,-0.09144889,0.026765138,-0.124113366,0.04433927,0.08926327,0.007027877,0.098841414,-0.043477237,-0.07831385,-0.13994586
0.06585895,-0.038808215,-0.08527457,-0.028424062,-0.093386754,-0.105716914,0.0012039731,0.042319003,-0.10195413,0.088204965,0.07264419,-0.016457476,-0.030986058,-0.110313,0.065129675,-0.04052571
-0.090247355,-0.10355006,-0.040045213,-0.030331077,-0.03981868,0.011858803,-0.0748711,-0.05986298,0.18699832,-0.16493578,0.039922982,0.043962236,0.0300263,-0.02179846,-0.055427458,-0.19009255
-0.099598184,0.0371647,-0.1138695,0.01528119,-0.023607016,0.13137375,-0.04001992,-0.075377844,0.038737748,-0.15626009,-0.18037806,-0.1767135,-0.015687875,-0.16863094,0.15106055,0.0043295687
0.011149644,-0.02536431,0.028213086,-0.029840577,-0.05352796,0.008849272,-0.08595188,0.025389312,0.12790954,-0.020648448,0.011385349,-0.0013417891,0.11811849,0.18486796,-0.043037232,-0.105799146
-0.11213397,-0.05401281,0.108729586,-0.09705011,-0.027049625,-0.053913493,-0.07995682,-0.19261006,-0.07695889,0.024282793,0.046239562,-0.11955145,-0.052872956,0.043169554,0.059075434,0.023752687
0.14298649,-0.038298793,0.11770595,0.040745556,-0.05912009,0.00031310995,-0.12953445,0.077294655,-0.025522647,-0.04748229,0.028312655,0.038337383,0.056126878,0.04075197,0.0830536,-0.023261074
-0.106336385,-0.06764909,0.07253135,0.035459068,-0.02248686,-0.10041452,0.061902758,0.13066189,0.04172867,0.091302626,-0.03185386,0.035562657,0.055172317,0.11489705,0.0052026715,-0.114410006
-0.11036069,-0.085919246,0.12613784,0.14106622,0.031535715,-0.009268216,0.106416985,-0.011996004,-0.051419523,-0.15153898,0.00443602,-0.010842802,-0.15248589,-0.003209696,0.085821435,-0.08310536
-0.045742787,0.09321854,0.042259973,0.015426523,0.062578805,-0.03195005,-0.09292355,-0.022756701,0.113378644,0.08484106,0.08824577,-0.064312406,0.07724416,0.11297028,0.0042451434,-0.17207904
-0.024158144,0.056545265,0.0675184,-0.07431563,0.03915586,0.11194618,-0.013869936,-0.057489492,-0.11700351,-0.043658737,-0.15251136,-0.13948439,0.0021007846,0.1429646,0.02325625,-0.09387389
-0.057196416,0.016258607,0.03567884,-0.12308199,-0.0383042,0.08656937,-0.101380706,0.009876953,-0.008551951,0.07788208,-0.11583978,-0.04806888,0.09852794,-0.12626429,0.063113794,0.068487085
-0.05158462,-0.023808513,-0.03849092,-0.0678844,0.04838895,-0.08944384,0.026883235,0.1173931,-0.0775325,0.07300045,0.0719062,-0.13013086,0.029249322,-0.02901415,-0.07208541,-0.080480374
-0.1388896,-0.03844761,0.047211178,0.06795086,-0.016364899,0.024614263,-0.026093887,-0.13613296,-0.09433488,0.058797263,-0.07081419,0.051627047,0.0007529004,-0.15078945,0.03938973,0.12524296
0.05019703,-0.0029186774,-0.09329591,0.05531092,-0.09116765,0.041098002,-0.08003381,-0.07504523,0.023138324,-0.05705945,-0.07144721,-0.022039939,-0.06800372,-0.062006377,-0.031824674,0.1018871
-0.07836597,-0.043902654,-0.11722721,-0.03159454,-0.13059612,-0.008151792,0.042731438,-0.03534152,0.14372219,-0.13671489,0.120251164,-0.025776712,-0.020964494,0.13803017,-0.061841577,0.008558384
-0.036909357,0.09574766,-0.08309292,-0.011306927,0.13776779,0.098285206,0.1098594,0.016374616,-0.04862987,0.022648618,-0.1308317,0.06505597,-0.23377441,-0.07373663,0.18459095,0.108596906
-0.053890444,-0.09835015,-0.031775516,-0.020903679,0.11854662,0.117052756,0.11239438,0.0988131,0.04367387,-0.11799203,-0.0014490234,0.105081685,-0.016820792,0.09028383,-0.02802489,-0.13655911
0.008151151,0.0500085,0.10824501,-0.16073193,-0.11081753,0.11671171,-0.043352693,0.20499657,0.1655284,-0.015621014,0.003775765,0.037063487,-0.09891589,0.21500222,0.058892377,-0.0065453122
0.08744676,-0.10699413,0.059895925,0.016482253,0.045570146,-0.08870918,0.035052814,0.11476329,-0.05960213,9.017889e-05,-0.06947933,-0.030685289,0.071423486,0.06050548,-0.06415037,0.12797995
-0.0681789,-0.02787897,0.066787876,0.14652696,-0.023441568,0.05627333,0.0731921,-0.08821702,0.10529802,0.07665547,0.021954635,0.039532036,0.10814009,-0.04512416,-0.008123998,0.09530648
-0.022159087,0.05147748,-0.098665364,-0.04356122,-0.09512954,0.078377336,-0.011509891,-0.1291337,0.1544484,-0.053736992,-0.11659687,-0.080356106,-0.047743693,-0.027342845,0.050595183,0.027325222
-0.023944607,-0.039067,-0.059642397,-0.04824255,0.04752585,0.07071902,-0.048535693,-0.10229979,0.1349712,0.043428637,0.028709024,0.034613263,0.069875665,0.021783851,-0.15374194,-0.10118178
0.026383469,0.08087879,-0.037277825,-0.12341632,-0.03209627,-0.026059378,-0.0077169477,0.04738649,0.03174344,-0.08968094,0.09331311,0.05393178,0.060905334,-0.04187441,-0.058150116,-0.01690621
-0.107060745,-0.0004970593,-0.031736508,-0.06366836,-0.038426846,-0.1097062,-0.09650526,-0.058829404,-0.04471813,0.0111935595,0.076395825,0.045012143,0.019617742,-0.13385813,0.003022812,-0.042647213
0.12976785,0.12435914,0.02586911,0.102145575,0.03889488,-0.029876294,-0.06638371,0.12155315,-0.044747826,0.13016091,-0.019295555,-0.07863273,0.111370824,0.13263494,0.062138733,-0.0068845623
0.081124984,-0.10092556,-0.07574403,0.11842736,-0.08264081,-0.08985452,-0.019940518,-0.08433944,0.07379015,0.03382823,-0.15018287,-0.1622211,-0.0075189634,0.20841606,-0.06638392,0.08769305
-0.1272376,0.111175664,-0.11307506,-0.094519354,0.032775797,-0.044848815,-0.07419493,-0.009641321,0.02470905,0.15991706,0.11221292,0.05043032,-0.027227031,-0.10970409,0.008012868,0.039417535
-0.054003317,-0.05945454,-0.03756569,-0.027892374,-0.005640766,0.07120806,-0.03661149,0.24234818,0.0914985,-0.038387857,-0.10827684,0.117634684,0.16953078,0.10717776,0.10356697,-0.16178685
-0.056521706,0.087359466,-0.02676715,-0.10068663,0.07696909,0.0036099902,-0.05622792,-0.03713159,-0.031298053,0.017156117,-0.17198011,0.07356395,0.052971408,-0.16269185,-0.013085837,-0.1861579
0.046825156,-0.06317804,0.09545126,-0.034866832,0.0017893106,-0.13830602,0.11040475,-0.0136888,-7.8250836e-05,-0.03458497,0.04821255,-0.0660154,0.03214525,-0.14606291,0.062382147,-0.05500689
0.030143032,0.13618737,-0.059665278,0.058516935,0.00482464,-0.027093798,-0.032958105,0.017225232,0.0048558568,0.09035033,-0.09768058,-0.055167645,0.08820494,-0.039158806,0.09843788,-0.06728938
-0.18325514,0.08851359,-0.1820656,-0.042712815,-0.0006765571,-0.08972299,0.0018620068,-0.10501588,-0.03242019,-0.06257213,0.107490234,0.1111961,0.03494955,-0.057213448,0.08434541,-0.11119835
0.046485525,-0.0940374,0.011144386,0.015032623,0.04980367,0.047592573,0.09785272,0.047297705,-0.013891693,-0.054352798,-0.04210203,-0.13838457,-0.032924816,0.097040765,0.11656921,0.12522188
0.007943098,0.1129919,-0.029098563,-0.08088276,-0.08569718,-0.0055203936,-0.08431835,-0.011037575,-0.09338042,0.03958467,0.14291073,-0.00047515027,-0.06849753,0.0189371,0.049997956,-0.13568395
0.16910808,-0.016383972,0.044033375,0.0674187,-0.042396523,-0.07374799,0.050455946,-0.015952306,0.073090866,-0.09129128,0.006252214,0.13444105,-0.02379453,-0.0950244,0.10581026,0.11371566
0.20157935,-0.0048381183,0.14852956,0.062107462,-0.10996866,0.036405638,0.10678354,-0.0744963,-0.065308705,-0.024077106,0.13503392,0.08540552,0.07085429,-0.1780488,-0.026985632,0.021371707
-0.1226973,-0.04045544,-0.069057025,0.077861845,0.079002514,-0.07436814,0.093407646,-0.035481993,0.032365583,0.07454905,-0.06639054,-0.0763306,0.014470226,-0.043008104,-0.06792491,0.024074573
0.1802223,-0.0010299744,0.080651596,-0.04404671,-0.03536463,0.09017484,-0.07700737,-0.008999386,0.14775656,0.14115195,0.06271557,0.058245692,0.026803635,-0.017923051,-0.000515086,0.017873552
-0.08810377,0.07793744,-0.0006178367,-0.07272306,-0.022720503,0.00580007,0.062027335,-0.11807127,0.0898071,0.048168,-0.15877764,0.121806644,-0.017155902,-0.057746787,0.044026352,0.15808764
-0.0051952945,-0.034980014,0.06342205,-0.020201935,-0.046402644,-0.03985855,0.028015962,-0.0730101,0.026004203,-0.10832609,0.11568126,-0.1789874,0.14960377,0.02454714,-0.048815537,-0.12917252
-0.03380876,-0.01436116,0.0070711602,0.017776938,-0.087031655,-0.1170973,0.08358692,0.055752825,0.03769544,-0.020462831,-0.07585023,0.018211601,-0.09413813,-0.040745076,-0.032205638,-0.12397087
0.1061952,0.08462931,0.037763745,-0.05572782,-0.0858879,-0.11087922,-0.001360551,-0.05665881,-0.007882708,0.14268036,0.0019729726,-0.0012463933,0.10522598,0.19961406,-0.055018693,0.018496018
-0.026294446,-0.03081862,-0.092824794,-0.030681856,-0.042435482,-0.12645888,0.09482693,0.1324215,0.088544115,-0.08514763,0.007032735,-0.041310925,0.12782817,0.026103672,0.044218723,0.065148756
0.071143955,0.12407597,0.010510347,0.035527814,0.013404204,-0.043820493,0.114093855,0.06023371,-0.11453118,0.08104075,0.035818845,-0.12361101,0.031482548,-0.029476946,0.07707278,0.001702289
0.06739594,0.024690958,-0.113019206,0.11497009,0.114321984,-0.011399102,-0.059446357,0.15505071,-0.040599845,-0.033457994,0.03288019,-0.13017705,-0.14858288,-0.024307463,0.00018879517,0.1620928
0.16119018,-0.10269453,0.23927152,-0.044265825,-0.03438229,-0.0069492985,0.017058676,0.015784886,-0.13694775,0.21313041,-0.12857115,-0.11103266,0.17733197,0.051373366,-0.019998873,0.15054427
0.02623147,0.07842879,-0.007861016,0.07317812,0.043559805,0.050036866,-0.032636676,-0.24799444,-0.016510556,-0.05131477,0.08391685,0.13457577,0.012538901,-0.12978867,-0.06550765,-0.03589241
-0.10329339,0.100517705,0.14436765,-0.056007233,-0.02154664,-0.061854694,-0.03837381,-0.08082148,-0.14994846,-0.07436972,-0.13989922,-0.10356571,-0.0071118264,-0.16827515,-0.11730483,-0.05059679
-0.02424022,0.01616707,0.019530276,0.11727341,-0.089050464,-0.10079183,-0.022637831,-0.17017448,-0.074727975,0.03485317,0.03040366,0.05184909,-0.13770604,0.07012815,0.016236978,-0.124438494
-0.05455962,-0.11188667,0.08737117,0.056848273,-0.094442464,-0.06887654,0.016747141,0.04230043,-0.055697676,0.04035382,-0.04203162,0.06615172,0.19377612,0.24310625,0.031236198,0.06988218
-0.17886674,-0.07540826,-0.059720103,-0.048735283,-0.06698989,0.08031585,0.1046055,-0.056178723,-0.11870211,0.093417875,-0.12916292,0.09943955,0.037747946,0.032768305,0.12053771,-0.14228085
0.0800981,0.062141363,-0.14100899,-0.14077954,0.0025926367,0.059845284,-0.12881364,0.0041488796,0.049878318,0.22701791,0.14697184,0.03536871,0.12082232,0.20558262,-0.17711261,0.13136958
0.03317156,-0.07093524,0.0464479,0.08371018,0.0059084394,0.0045722215,0.072646454,0.16051409,0.09632485,0.06113894,0.13356489,0.046896845,0.05728985,0.05626445,-0.037073854,-0.08646719
-0.09670488,0.018312655,-0.08771192,0.07695342,0.03184132,0.13101408,0.042101827,-0.01668772,0.015175859,-0.05328211,-0.11616891,0.030664843,-0.10831366,-0.045021143,0.0918315,-0.04075915
-0.032289583,-0.09074434,0.09838203,-0.07088181,-0.004580256,-0.011790351,0.11716857,-0.16565636,-0.20187628,-0.029728077,-0.057523713,0.07269143,0.07948238,0.041877586,0.09865892,-0.018291121
0.024682151,0.00534584,0.054947965,-0.022833489,0.05275801,-0.0586822,-0.075133406,0.030231593,0.020765062,0.10633644,0.020031622,0.04684953,-0.15129262,-0.062525585,-0.013999393,-0.031001406
-0.006358734,0.08942276,-0.082252875,-0.11384199,-0.09466247,0.023192901,0.122462235,0.003826013,0.08206726,0.05253368,0.034175508,-0.0974822,0.071058445,-0.18209852,0.049856734,0.027002554
-0.108141795,0.024438258,0.16462523,-0.10452064,-0.06758648,-0.07501904,0.066956386,0.11761159,-0.2589576,0.03590903,-0.06548931,-0.036057066,0.18826742,-0.12915327,0.052513354,0.21986857
-0.06029954,0.033160947,-0.09431459,0.029584471,0.03777758,-0.07872431,0.09279534,0.05899296,0.1275867,-0.04265948,-0.108932234,0.07031156,-0.09476049,0.07083337,-0.07138346,-0.011663237
-0.025745638,0.0054915287,0.039047908,-0.011543345,-0.09176859,0.022311764,0.047234245,-0.16288714,0.16300407,0.07972135,0.050154086,-0.06793787,-0.06790929,0.16439904,0.05739363,0.052944906
0.10271929,0.076726116,-0.025923103,-0.08310056,0.04880106,-0.07823177,0.012527449,0.073138505,0.14776228,0.043714426,-0.11101726,0.09131968,0.11218097,0.044708658,0.027157566,0.07653607
0.1153368,-0.0667586,0.16226338,0.14870742,0.072342135,0.063549355,-0.08651039,0.048393156,0.1932881,2.5254214e-05,0.063251816,0.023505725,0.091059774,-0.0070225373,-0.15084383,0.24106675
-0.090827465,-0.05345717,-0.0806042,-0.04841829,-0.030575952,0.041550707,0.056879893,-0.046963286,0.16774774,-0.018520286,0.04533053,-0.028319797,0.10258196,0.050508674,-0.07921269,0.09969919
0.08845037,0.12641491,0.14893447,0.106788516,0.06855597,-0.07527059,-0.03984468,0.018375253,0.08978849,-0.15525542,-0.11010567,-0.116708055,-0.1542213,-0.015420197,-0.016382774,-0.15901177
0.121118635,-0.011796724,0.06300356,-0.07859823,-0.07079409,0.087355234,-0.071230896,-0.08572771,0.041646097,0.017764146,0.06910121,0.0029008526,-0.14359532,-0.03542599,0.006187872,0.007757758
-0.18329318,-0.024338925,-0.18025899,0.05328334,0.05974757,-0.09112277,-0.10042335,-0.013404005,-0.024239516,0.14468126,-0.14517619,-0.06490643,-0.00775027,-0.063331686,-0.09184897,0.08672599
0.008036635,-0.10551493,0.047663774,0.0056462777,-0.050556637,0.021638593,-0.10992703,-0.06234937,0.012011551,0.13811661,-0.018400278,-0.035342135,-0.036760915,-0.15647916,-0.098393455,-0.04693842
0.12132541,0.0007065827,-0.077051766,-0.028645886,-0.09160964,-0.04381427,0.026533755,0.07640816,0.033590283,-0.03270463,-0.25645655,0.015910927,0.06435528,0.07470327,-0.08349958,0.08153242
0.15109912,0.10646936,-0.04989378,-0.012612704,0.018576752,0.046476945,-0.06351842,-0.15920323,-0.22946402,-0.038908627,-0.045885433,0.010198666,0.043255173,-0.015396755,-0.056608483,-0.17314418
-0.120721705,-0.06385922,0.019603092,0.12794563,0.08389712,0.08828092,0.085948326,-0.08784915,-0.1400729,0.06994595,0.1684791,0.16544311,-0.037223272,-0.06313918,-0.0231682,0.13802803
0.10408048,0.12379256,-0.00986325,0.08102345,-0.10788926,0.10084643,-0.13956605,0.06561766,0.034982614,-0.02826216,-0.0077508003,-0.01582659,-0.078992695,-0.10967269,-0.12822272,-0.07878183
0.10923716,0.05905228,-0.020817583,0.07919382,-0.02852789,0.03642218,-0.03606102,-0.0033536789,-0.03639627,-0.045226153,-0.13147299,0.024398288,-0.08950819,-0.1078849,-0.00951288,0.013316284
-0.058874737,0.01983739,-0.05365494,-0.0691339,0.05416304,-0.0015859349,0.0103926165,0.060504682,-0.07156133,0.109962314,0.07255952,-0.03658993,-0.0308143,0.088201135,-0.12541744,-0.09368247
-0.04272827,-0.070660874,0.12117207,-0.09928969,0.018059816,-0.073823474,0.008284551,0.18261977,0.08505602,-0.09519263,-0.19741999,-0.07947066,0.03206024,0.07068713,0.06683911,-0.09007581
0.16095808,-0.006207251,0.048350964,0.14994517,0.11695843,-0.05004508,-0.03929911,-0.052445345,0.12810558,0.04473589,0.02087179,0.0886417,-0.116752,-0.12611726,0.09976478,0.22417042
0.11016358,-0.024230698,-0.10813922,-0.08279397,-0.017556395,-0.060677998,-0.0489755,-0.06727987,-0.17066272,-0.16630104,-0.13884665,0.0041964925,-0.061474077,0.1408249,0.0038978062,-0.12985452
-0.031466123,-0.10587021,0.020159649,0.05481903,-0.023590913,-0.083542906,0.012445591,-0.050491646,-0.058004368,-0.06269204,0.055959746,0.06234104,0.026297288,0.035593163,-0.022875605,0.1737033
0.004290991,0.044073496,-0.15404825,0.08313401,-0.016788144,0.051532384,0.04031551,0.0061640623,0.015652865,-0.10361528,-0.06952625,0.08321296,-0.13611852,-0.15988088,0.023151455,0.036030035
-0.08625525,-0.08750651,0.076996356,-0.06096814,-0.10723442,0.119474195,-0.13427341,0.11014461,-0.07650973,0.13974719,-0.072222404,0.005004076,0.058362138,0.01686772,-0.052408546,0.07807117
-0.12308894,-0.12885648,0.08439588,-0.04437537,0.036185157,0.060005855,-0.14853819,0.06514805,0.22243401,-0.13048546,0.06298215,0.03586258,0.0018641094,-0.0012207936,-0.0034584904,-0.026959406
-0.13452922,-0.04068785,-0.14122175,-0.04090067,-0.034062624,-0.0054651024,0.124817595,0.009460065,-0.0692702,-0.045127224,0.08238541,-0.009584737,-0.03421775,-0.20344254,0.08829084,-0.1327472
0.19253184,0.09127907,0.022394588,-0.027515706,-0.009685176,-0.022894977,0.016886754,-0.08292074,-0.08556955,-0.059993036,-0.06644165,0.10758095,-0.21954305,-0.033018786,-0.0006077952,0.06409144
0.11226878,0.0079281265,0.0003479862,-0.003592915,-0.03189077,0.0303966,-0.034348022,-0.064499,0.0721581,0.07589936,0.102771774,-0.10831601,-0.08348426,0.08749734,0.05591317,0.12707596
0.08362892,-0.090234734,0.05106861,-0.02831598,-0.003626889,-0.05109468,0.020466555,0.12162673,-0.0058644754,0.014731324,0.1219815,-0.027022444,0.06466506,-0.064287126,-0.021612914,-0.028856507
0.08418137,0.12679021,0.03148727,0.11006175,-0.039045434,-0.07663626,-0.05808057,0.07261879,0.068054,0.0562496,0.120046735,0.11269508,-0.048793226,0.0181725,-0.07508708,-0.12132987
-0.06660283,-0.11517637,0.13240074,-0.013354758,0.061153755,-0.078224316,-0.09274452,0.13214402,0.15010558,0.17926067,0.2317351,0.13109407,0.27918977,0.011375752,0.0889711,0.19212846
0.055722985,0.045550033,0.028465176,-0.029015414,-0.062249534,0.068197824,0.09177471,-0.09892848,-0.22808434,0.04230591,-0.23798282,-0.07918729,0.07710253,0.04370658,0.01150794,0.04157421
-0.010126902,-0.11870554,-0.016614681,0.03785169,-0.05015251,0.02930171,-0.06602442,-0.17199367,-0.07819385,0.11595499,-0.07073458,-0.045284867,0.11710229,-0.17161651,0.09329318,0.15396707
0.0377547,0.03306024,-0.10402888,0.10413777,-0.091829725,0.0031978881,-0.041187584,0.07153281,-0.11168726,0.08045419,-0.028128989,-0.026504314,0.07769011,-0.03548542,-0.04242774,0.039021794
0.03526901,0.10159556,0.09914278,0.05874092,0.07255496,-0.03439967,-0.07868621,-0.0383942,-0.0035826329,0.06297184,-0.10809578,-0.07963349,0.116685055,-0.077004194,-0.13034494,0.09176338
-0.054536127,-0.022332866,0.03780029,-0.06540984,-0.060596045,-0.06850096,-0.07691391,0.12414402,-0.017526349,0.10199422,-0.11378512,-0.058270816,-0.061190255,-0.06904459,0.034732424,-0.01459175
0.0033785466,-0.049338914,0.17195596,-0.129509,0.1165439,0.044654913,0.13380015,0.07439605,-0.10408211,0.1154354,0.040714946,0.14511056,0.031275768,-0.00253691,-0.029099775,-0.07633574
-0.13345392,-0.04935582,0.045760535,0.03609737,0.009699573,-0.12297663,0.005264973,-0.02091442,0.039616343,-0.060533766,0.122831605,0.14699951,0.09543384,-0.062533274,0.01719916,0.02584063
0.15298182,-0.06575401,0.12543023,-0.0130682895,-0.01170407,0.013064254,0.05312722,-0.20579368,-0.12993938,0.093960285,0.029158682,0.04802519,0.06659434,-0.16404381,-0.041122235,0.17669132
-0.13477598,-0.026625453,-0.04814478,-0.124834634,-0.09450736,-0.017636694,-0.10863737,0.018221421,0.025864467,-0.11369574,-0.08237624,0.059219733,0.08537657,-0.098568246,0.06404169,-0.0927471
-0.114512876,0.053619947,0.07789471,-0.075247504,0.023696007,-0.09434956,0.08602874,-0.1751803,-0.07244121,-0.037198387,-0.047800753,0.062151752,-0.09181591,0.11186161,-0.010151402,-0.09985377
0.054529823,0.12311864,-0.010209571,-0.004840167,-0.03924675,-0.042774275,-0.12163942,0.01925716,-0.00068464444,-0.048542775,-0.10506306,0.011353358,-0.085283995,-0.004469527,0.071074,-0.03313539
-0.052152626,-0.069273435,0.06894194,0.0893839,0.0015251907,0.075702466,-0.009843695,-0.03233917,0.077069715,-0.09780217,-0.0020281873,0.0077354014,-0.09344757,0.22681631,0.00045052453,0.016233427
-0.10340507,0.109728016,-0.040901355,-0.056312285,-0.08884546,-0.0680909,0.083621144,-0.05340827,-0.124367125,0.04872882,-0.07571965,0.12943572,-0.10806317,-0.035010938,-0.030849269,0.091908336
-0.070441276,-0.04027375,0.13525748,-0.09249814,-0.016758418,-0.040159553,0.0904869,0.023373067,-0.105503336,-0.014901345,0.0431612,-0.09007199,-0.10423462,-0.07628157,0.09175806,-0.16993265
0.10239776,0.04370029,0.10749228,0.11454389,0.02232776,-0.056192655,-0.018623041,0.0075661447,0.0012929945,-0.13022873,0.034525175,-0.026233101,0.018034156,0.07463031,0.0823691,0.004849979
0.086790405,0.08077753,-0.008174469,-0.08661887,-0.06195245,0.011932649,-0.021430762,0.07208458,-0.02142863,0.055516586,0.13607131,0.0023099184,-0.015812393,-0.101937644,0.065464206,0.018587159
-0.07137021,-0.029813927,0.12867169,0.00283797,-0.094388165,-0.059258718,0.084822156,-0.06537258,0.063525036,-0.09518119,-0.08979958,-0.04726955,-0.050232,0.09854515,-0.105877824,-0.0007430926
0.09630779,0.10676049,-0.04725162,-0.054145116,-0.06601546,0.04052739,0.07744087,-0.057750527,0.13987938,0.048151866,0.0059652245,0.02784966,0.15240966,0.21686018,-0.12250603,-0.096151836
-0.19934766,0.06519497,-0.10335472,0.08987114,-0.035406616,-0.08685171,-0.0134254,-0.12597309,0.03492312,-0.08081129,0.08144666,-0.028787266,0.024868615,0.002458761,-0.07784642,0.060584646
-0.010533168,-0.0349742,0.16753845,0.07400471,0.1425731,0.063869916,0.011887644,-0.1422888,-0.062319268,-0.09273932,-0.012289127,-0.073025554,-0.0695762,-0.2101685,0.03165839,0.0120046
-0.10507473,-0.14223415,0.074955754,-0.0046168114,0.089857325,-0.009391543,0.025608514,0.0047306735,0.13564509,0.10519873,0.0018417481,0.107035965,0.17468053,0.06161031,0.056037974,-0.023797972
-0.084711224,0.03936693,0.09125381,-0.010029407,-0.070002794,-0.0006079992,0.073823474,0.049989793,0.11166761,0.00094148313,-0.05730253,0.014675013,-0.0054046754,0.060047667,0.005206639,0.04181275
0.031206498,0.0030719652,-0.05110263,-0.11524061,-0.043006025,-0.020678028,-0.08972426,-0.08454899,-0.08302011,0.07329809,0.105445504,0.0063707475,0.0014179901,-0.023123669,-0.05030868,0.03733928
-0.07788468,0.022822497,-0.022191942,0.07289885,-0.02399809,0.058140293,-0.021286106,-0.0790492,-0.16686401,-0.038156144,-0.011365027,-0.02421331,0.087438494,-0.09094091,-0.092779614,-0.067995355
-0.046496622,0.10076749,-0.018808184,-0.1449819,0.18272546,0.058923658,-0.014517627,0.11938133,0.08557617,-0.1788604,-0.042102672,-0.13794704,-0.13185175,-0.052507434,0.03546091,-0.17806025
-0.10489391,-0.02848375,-0.0105827665,-0.123674676,-0.043167587,0.08055245,-0.11165029,-0.089310296,-0.09713034,0.08324231,-0.033077266,0.027617782,0.22186072,0.060230814,-0.06474248,-0.16726892
0.0025724606,0.06849063,-0.028845964,-0.103171796,0.047849208,0.14901526,-0.041512623,-0.0683582,-0.08681649,0.101639286,0.039733056,-0.001376297,-0.053075977,0.062488575,0.09931128,0.12867506
-0.020808214,0.028959258,0.07943488,0.037358165,0.031399995,0.075468235,-0.064823374,-0.212982,-0.05386979,-0.1447743,0.06672278,0.007556995,-0.015359084,0.063869655,0.06300042,-0.04156199
-0.0044615967,0.14318895,-0.012455242,-0.09873313,-0.04519564,0.0666753,0.093895,-0.051172283,0.048698507,0.058211952,0.1275473,-0.08327386,0.06107436,0.101088054,-0.1096885,-0.061501455
-0.0939808,0.0137625225,0.07432779,-0.013143193,-0.023666006,-0.0266157,-0.06136009,-0.13851573,-0.13127506,-0.010892373,-0.3075102,-0.15987447,-0.15537927,-0.04592581,-0.012674098,-0.23342983
0.13605584,0.021277372,-0.00978313,0.035294164,0.034120403,0.11077365,0.11076447,-0.08565429,-0.16043462,0.08142237,-0.08241491,-0.107382536,0.18854462,0.18153408,0.015392263,-0.0029820346
-0.12880689,-0.05690544,0.0023090197,0.07808873,0.026913052,-0.043593314,0.038948383,-0.04349998,0.031173112,0.072590634,-0.15354551,0.11796734,0.17022492,0.21524757,0.042190284,0.11653885
-0.081495896,-0.056647055,-0.0616146,0.049339782,0.11489234,0.07960961,-0.07445876,0.16095306,0.05033276,-0.020663118,0.021246288,-0.009361748,0.12905571,-0.061502177,0.11529723,-0.04357982
-0.016291948,0.08566776,0.018287892,-0.021407994,0.0763495,-0.106479906,-0.058659706,0.05063151,0.033505112,0.052147225,-0.06373024,-0.099378966,-0.16918139,0.064130865,0.03995626,0.062107485
-0.018329455,0.0068544624,0.12438923,-0.002651696,-0.05179846,0.096514165,-0.1379086,-0.06197739,0.040425796,0.054385718,-0.059325293,0.012476812,0.14872985,-0.12703148,0.042504728,0.06078393
-0.07220037,-0.049829226,-0.06353334,0.12667547,0.06884018,-0.0136129,0.05446976,-0.047180545,0.023180047,0.025060043,-0.20767324,-0.20660357,0.019365104,0.010973007,-0.05163038,0.07528877
0.0056803296,0.09769711,-0.0533994,0.14938632,-0.027368238,0.06057446,0.02208975,0.13444656,-0.009854774,0.028963683,-0.09937427,-0.006765683,0.15438609,-0.1276831,0.09551264,0.10624265
-0.022332693,-0.051997118,0.17536496,0.16018869,-0.03824803,-0.042420052,0.033476833,-0.14995325,-0.17668016,-0.16071679,-0.04446742,0.04574703,0.1806582,-0.15356168,0.14986373,-0.04889079
-0.0040627113,-0.111869596,0.13962469,0.13892898,0.08223303,0.05992407,0.0026480814,-0.0054627047,-0.063771784,-0.107046135,-0.04880843,0.08363413,0.23471504,0.018832278,0.057854943,0.07795948
-0.08564977,0.04570182,-0.063956626,0.087191164,-0.04771967,-0.12086827,-0.03486458,0.1649958,0.06996859,0.005947742,-0.06581983,-0.039775945,0.16791412,0.02672914,0.0413401,-0.07595811
-0.04865342,0.15348573,-0.11661232,0.06416337,-0.059853036,-0.08679075,-0.013866386,-0.122225344,0.024433225,0.10175065,0.09903153,-0.07473633,-0.10542212,0.094305165,-0.10293084,0.12199598
-0.008215254,0.08996045,0.14622737,-0.03274077,-0.023033623,0.01798474,0.06169627,-0.11659088,0.017924184,-0.07786848,-0.11378136,-0.0035226177,0.055262335,0.0038549385,0.049545795,-0.12815614
-0.071466655,0.052614406,0.04490707,0.048897553,0.10060507,-0.08025247,-0.026807157,-0.110216305,-0.19994564,0.14346136,-0.15087917,-0.10237709,0.09471858,-0.17132609,0.1501985,-0.00012850646
0.00175804,0.08263748,-0.046968814,-0.072733656,0.004197977,-0.023523485,0.13556376,-0.15249124,0.00019875265,0.15671971,0.09969661,-0.025471337,0.15828831,0.025103226,0.12530847,0.15972155
-0.038298983,0.04020177,-0.098519556,0.111866005,-0.05097274,-0.016164953,0.047097944,-0.07381256,-0.040499058,0.05339309,0.13990337,0.017402273,-0.053751886,-0.099156216,0.050554566,-0.09064028
0.024468351,0.048393875,-0.0796902,-0.08055644,-0.047262527,-0.10668677,-0.098518305,-0.06364109,0.1219025,0.07012621,0.034058966,-0.1083326,-0.06551317,-0.039944794,-0.008460028,0.06409615
-0.043787826,-0.027532456,-0.112977,0.0010424445,-0.1302072,-0.10653546,0.060256843,-0.04318303,-0.00077953574,-0.002708541,0.056738578,-0.045677252,-0.06835181,-0.018520338,0.039227277,0.11034402
0.071050316,-0.053748112,0.068145186,-0.07454255,-0.102950804,0.012115144,0.12404703,-0.16047655,-0.06184293,0.03415052,-0.1528218,-0.20075776,-0.17453219,-0.1449516,0.07695451,0.074499115
0.012459711,-0.022146009,-0.12675838,0.090708256,0.027083643,-0.011197359,-0.0564137,-0.019588087,-0.25672734,-0.055886704,-0.025424263,0.15132175,0.05583716,-0.15883093,-0.030257506,0.057641152
-0.051217448,-0.038473256,0.034045387,-0.09339626,-0.053530257,-0.08558791,0.058082443,0.022931404,-0.027695028,-0.005468994,-0.01540227,-0.0020212028,-0.1176225,0.033407636,0.12245922,0.048181307
0.034867767,-0.034225155,-0.061883766,0.10798342,-0.10158357,0.046354562,0.12530148,-0.064684115,-0.034092613,-0.14007787,-0.16883639,0.08945428,0.0932044,-0.14430036,0.07224378,0.015641911
-0.062733576,-0.060216047,-0.07476431,0.03854243,-0.050959896,-0.010552499,-0.0044069383,-0.12077489,-0.12377497,-0.06996651,0.079941526,-0.08909487,0.09970445,-0.13944656,0.041469652,0.09862867
-0.1346946,0.1236316,0.08071292,0.041396286,-0.057750717,-0.09892175,-0.11306989,0.042777933,-0.09363881,-0.004348954,0.10344917,0.024396734,-0.08335742,0.0127798775,-0.13154918,-0.08528371
0.21581326,-0.032056738,-0.000106803454,-0.04359309,0.052239843,-0.023237623,-0.07974024,0.04333362,-0.040010612,-0.023285892,0.101772584,0.04821352,0.18511616,0.1386356,-0.048233088,0.12493213
0.044175223,0.13966396,-0.09902332,-0.003847464,0.10299926,0.10054952,0.06249127,0.027694555,0.042296782,0.00876744,0.0029928472,-0.067596674,-0.31469846,-0.037370134,0.011545025,-0.18278798
-0.10128263,-0.16087362,0.05220392,-0.085204326,-0.02579575,0.009254986,-0.11036838,0.20272307,0.10623881,0.13919139,0.041478805,0.101585664,0.14256252,0.12950164,-0.00072790595,-0.024965946
-0.13803619,0.008831899,0.12022182,0.030208396,0.034378946,0.07891669,-0.11531826,0.0066087525,-0.07377375,-0.012654586,0.015712691,0.007706234,-0.031434096,0.059758864,-0.09991549,-0.031161586
-0.07197568,-0.056416526,-0.103843614,0.1026965,0.13027172,-0.050492954,0.09926477,0.054842137,0.16960333,0.139059,0.13474151,-0.038524196,0.042238146,0.022525143,-0.006900061,-0.06957956
-0.06442763,0.08879173,0.09550114,-0.07222166,-0.02989571,0.07866714,0.045261223,0.1284767,0.07734685,0.06305142,0.10877015,-0.116045654,0.022294618,0.014841395,0.028774304,-0.00018915924
-0.05408846,-0.071556486,-0.020461792,0.03612506,-0.02622703,-0.04787973,0.017796269,0.06667611,0.1625157,-0.15441579,0.18096396,0.13234088,0.06277802,0.1396808,-0.03549187,-0.098214775
0.123187974,-0.03966786,-0.08305424,0.084279254,-0.06243893,-0.115621775,-0.120495774,0.049822856,-0.0040860744,0.09519648,-0.081293404,0.07265558,0.04421718,0.073611975,0.044903174,-0.06225973
-0.13494305,-0.03396503,0.07291552,0.035509933,0.033105906,0.007897074,0.112914085,0.0082717,-0.050905716,-0.07699581,-0.05960185,-0.116391785,0.06655711,-0.08526896,-0.04671732,-0.03405084
0.081519015,0.018045917,0.03221934,-0.10389419,-0.021603115,-0.022676231,-0.014017541,0.07801802,0.038592827,-0.00954268,0.1673346,0.029933933,-0.10177344,0.048617873,-0.029508505,0.14909497
0.09603564,-0.13081412,0.021058565,-0.0051163803,-0.09224583,-0.078315236,0.067560904,-0.14212163,0.06911597,0.024834853,0.14286323,0.11637688,-0.090375364,-0.12061482,-0.07234041,0.07045208
0.05598314,-0.061007544,-0.032341257,-0.13656405,-0.05436138,-0.04806583,0.03647489,0.03603827,-0.11034504,0.042879272,-0.051493313,0.09449541,-0.053584926,0.020147095,-0.050492898,0.051982455
0.0036770976,-0.06516559,-0.18897383,-0.1497049,-0.091020964,-0.0049612755,-0.08696515,-0.098432526,-0.09418237,0.041238904,-0.042443912,-0.052593123,0.16549529,-0.07982213,-0.13417439,0.17600933
0.0012292961,0.11343226,-0.10899692,0.027418962,0.054099336,-0.10421488,0.010883477,0.03143907,0.16883247,0.03405331,0.18165329,0.056109052,0.05235364,-0.037939813,0.049585115,-0.059998546
-0.07819505,-0.11451107,-0.03599505,0.050629105,-0.006353664,0.03210664,-0.1212905,0.029702403,0.15059075,-0.062119305,0.036412064,0.1975797,0.15055731,0.051346745,-0.1257702,-0.11400062
-0.03373256,0.05191616,-0.068733715,-0.039835934,0.022893075,-0.0659868,0.050093904,-0.059831306,0.01731736,-0.08268786,-0.11914309,-0.15319103,0.00036019526,0.0031254312,0.061818156,0.012578144
-0.07931665,0.056792792,-0.039373726,-0.09626605,-0.007989501,-0.04548413,0.07141275,0.00062997494,-0.048958298,-0.044549707,0.108001105,-0.03105035,0.08851049,-0.037403394,-0.08976186,-0.022927262
0.101580374,-0.08439029,0.025568707,-0.10030023,0.092816114,-0.01774554,-0.079564646,0.052686643,0.0029631655,0.12098236,-0.17949086,-0.065815546,0.11807377,0.08968573,-0.11529301,0.045501307
-0.011557176,0.033941396,0.0062652854,-0.14220512,0.11279388,-0.03164666,-0.12268605,-0.12789403,0.10396532,0.14004025,0.07010822,0.15361933,-0.0025962526,-0.024508199,-0.040269293,0.034597795
0.059206262,-0.027122669,-0.029693378,0.13395791,-0.04436341,0.065280706,-0.09096179,0.017211296,-0.046739858,0.060509678,-0.13187695,-0.17868212,-0.14253967,0.04683397,0.08864236,0.02567784
-0.028299747,0.062231407,0.049317632,0.056480326,-0.13588119,0.06980762,0.09953737,0.1196952,0.11832924,0.002920739,-0.008710861,0.10315975,0.059645776,0.018676866,0.018104305,0.17298622
-0.08393774,-0.031142179,0.034783233,0.070916,0.069389634,0.014596532,-0.050203707,-0.040733043,-0.066646926,-0.09158832,-0.13562895,-0.010390843,0.08018292,-0.030335845,0.0035196724,-0.03804799
-0.07649632,0.075135715,0.18493755,0.0763395,-0.0018937753,0.024929713,0.06600987,-0.12170636,-0.07119942,0.05502289,-0.04785405,-0.042063612,-0.07143099,-0.07350378,0.08723265,0.026483843
-0.015028276,0.040827096,-0.039340194,-0.07306581,0.029482167,-0.002269783,-0.04126138,-0.0037939132,0.13436028,-0.11933349,-0.0032552085,-0.011745378,-0.0967889,0.091807105,-0.10742217,0.020633852
-0.084189974,-0.06444876,0.019919492,0.09811252,0.014966105,-0.077364005,-0.07798161,0.045869567,-0.014449317,-0.15452874,0.0547845,0.12129893,0.0857597,-0.0918764,0.022731146,-0.06779948
-0.18938984,0.13752218,0.014941957,-0.090156026,0.1088807,0.099753685,0.1168247,-0.2250308,-0.09126166,-0.031857416,-0.2305403,-0.13439836,-0.0009907687,-0.08445284,-0.008172575,-0.21206792
-0.042362787,-0.05615195,-0.05590765,0.034076188,0.06943093,-0.030566402,0.09025319,-0.16156435,-0.24640597,0.09382249,-0.26409233,-0.12324867,-0.08553297,0.156952,0.12127486,-0.08212752
0.07714001,0.08538645,0.018563403,-0.0728449,-0.045394976,-0.09535967,0.11650934,0.08250241,-0.13803905,0.03633907,0.05343526,-0.07102948,-0.045500904,-0.16100068,0.12201744,-0.09910991
-0.018838434,0.034617435,-0.018581763,-0.11855739,0.0394135,-0.11531926,0.04929507,-0.122309625,0.063311264,-0.032090284,-0.044024024,0.04508054,-0.07357068,0.09766643,0.10808742,0.09992375
0.08647256,-0.027787112,-0.08757944,0.05093847,-0.099774346,-0.066478856,-0.025387784,0.122660615,0.077378765,0.07223271,0.059013236,-0.10010259,0.05252159,-0.11582578,0.053742353,-0.08838889
0.009530705,0.08856909,-0.14971931,-0.051757697,0.04666164,-0.0815883,0.015995482,-0.2013557,-0.11979052,-0.032517068,0.17265987,-0.04307669,-0.087886006,-0.10751411,0.009023043,-0.006119014
0.1883765,-0.016106458,-0.11334515,-0.006920488,-0.061234783,-0.09412595,-0.05381631,0.1156968,-0.103076965,-0.1359449,0.10618824,-0.009765528,-0.2328531,-0.07379072,0.084659934,-0.22508895
-0.20398962,0.03970665,0.01380358,0.09171497,0.058101486,0.08157311,0.015271145,0.14490509,-0.10792131,0.024850585,-0.14925775,-0.071620055,-0.11416832,0.14665195,-0.035369422,-0.12248585
-0.010264109,0.112392716,0.0314055,0.18554744,0.024459226,-0.08051564,-0.027462384,0.14041176,0.1420778,-0.006089465,-0.03011155,-0.0647609,-0.042720225,-0.091222554,0.022318827,0.019045703
-0.060023658,-0.008375324,-0.08823251,0.08233647,-0.02488857,0.06623808,-0.070021205,-0.10840577,-0.099205896,0.12299153,0.096008234,0.035560366,0.04085506,0.055085707,0.016026938,-0.040729746
0.0800792,0.08469887,-0.14328192,-0.05557827,-0.079107754,0.08910445,-0.094237454,-0.008162872,-0.12390354,-0.08845807,-0.09954791,-0.08518272,-0.12396179,0.028887255,-0.101501785,0.044159994
0.15480332,0.08159494,0.13949686,-0.0076657836,0.05159574,-0.04694613,-0.032488786,-0.07836164,0.1854544,0.034955744,-0.16628852,0.034905113,-0.030079037,-0.02807001,-0.058851518,0.09787147
-0.09106807,-0.0058309264,-0.0006429676,0.0028863165,-0.026141405,-0.09773888,0.008272113,-0.057492994,0.070040435,-0.111163415,0.014463815,0.03362589,0.100189865,0.112445824,-0.031151887,-0.2403356
0.10021164,-0.008426222,0.045152657,-0.087814644,-0.03613086,0.02768909,-0.076615475,0.045570552,0.052718394,0.18226716,0.0291482,0.014755586,-0.022854237,-0.17415532,0.090226054,0.16218682
0.026203083,0.026977452,0.085922554,0.022627458,0.105586305,-0.035939302,0.05251025,-0.104547046,-0.088655226,0.05326531,0.12461788,0.041198544,0.13732703,0.085124604,0.04528208,0.04341343
-0.052738316,0.018209774,-0.07849912,-0.07977717,-0.022385338,-0.15437914,0.02677885,0.016886199,0.04722845,-0.015357093,0.17217448,0.10281388,0.06759876,-0.104824655,0.08642418,-0.050737225
-0.02952753,0.124906205,0.02880264,-0.0640962,-0.11926397,-0.013725271,0.03827312,-0.015364086,0.079557404,-0.067100056,0.0754255,-0.08849807,0.14334916,0.11376592,0.05924024,-0.09487709
0.026860395,-0.057712115,0.017002089,0.07018851,-0.0048450776,-0.09176826,-0.04274653,0.05560311,0.15066962,0.09801756,0.12483637,0.03428981,-0.10196944,0.037760835,0.046489023,-0.09088631
0.16598722,-0.04742861,0.10758697,0.06374645,-0.029613724,0.11807363,-0.083479606,0.018500328,0.0066882973,-0.006972586,0.10711801,0.16190942,0.02152493,0.026113026,0.018286549,0.008224378
-0.100253575,-0.046543594,0.12444399,0.0770034,-0.10003557,0.013462893,-0.09132587,-0.06498119,0.089708224,0.032079216,-0.060309235,0.08938316,0.088437304,0.24250743,-0.13072501,0.08574918
-0.04240934,0.079556465,0.0047011897,0.07531387,0.10801456,0.009390609,0.0982255,0.012706466,-0.011827312,0.057201914,0.06131643,-0.004737227,0.07350824,-0.058151882,0.06452499,-0.10660811
-0.016397549,0.004894042,0.16219306,-0.05523185,-0.15257876,-0.10060883,0.039691493,-0.03751417,0.06332826,-0.070680656,-0.030531742,0.036768876,0.13267018,0.10484241,0.022867696,-0.017538842
0.1460276,-0.053081535,-0.033740368,0.05541819,-0.051314354,-0.022524038,0.076919734,0.1134746,0.10327681,0.017303048,0.05318298,0.0024287717,0.14058664,-0.0032132776,-0.07494359,0.10548134
0.04921935,0.021442037,-0.026512055,-0.01367164,-0.13542958,0.061645783,-0.07650976,0.08676756,0.07356861,0.12680964,-0.041561462,-0.03576067,-0.09645914,0.18844968,-0.05987278,0.16085756
-0.11204765,0.04851755,-0.0052332776,-0.02340329,-0.04041982,0.14693628,0.06626339,-0.023246985,-0.18643,0.032042287,-0.20932509,0.054154884,0.02624859,-0.05465707,-0.04893493,-0.16123402
0.12707344,0.048816074,0.08207066,0.019460205,0.0006233238,0.06944896,-0.02746686,-0.07241827,-0.00011269369,-0.16647257,-0.006705865,-0.19841166,-0.13971639,-0.07453985,-0.091272414,-0.18585585
0.082704596,0.020814842,0.06847039,-0.058079325,0.0035658383,-0.036886737,-0.025778698,0.07330522,-0.005342106,0.04021743,-0.03973882,0.14720738,0.017506225,-0.20256503,0.071579374,0.12869953
0.043591242,-0.031081427,-0.04600535,-0.17114669,-0.054033276,-0.04371632,-0.032533873,0.047301725,-0.08541069,0.076911874,-0.08905363,0.03141358,-0.059963863,0.17774102,-0.080587804,-0.08958926
-0.05879776,0.059754036,0.04907992,0.0002851092,0.10098814,0.054333184,0.031130668,0.07864555,0.10509973,-0.11918791,-0.08261666,0.0652308,-0.028495599,-0.09137484,0.066287756,0.098823704
-0.11022161,-0.06521493,0.13873333,-0.0054588774,-0.0786753,0.049784727,0.003543317,0.08466961,-0.15809657,-0.065676324,-0.017942859,-0.0980395,-0.10158851,-0.094790615,-0.0067601223,-0.09044277
0.07270124,0.0702313,0.097599596,-0.01336721,0.078107715,-0.072924726,0.120417096,-0.0054863202,0.12297434,-0.026304098,-0.13614056,-0.15757258,-0.07699475,0.21905987,0.038392965,-0.17359002
0.054642916,0.04987047,-0.08572987,-0.032017518,-0.013124467,0.03073831,-0.0398406,0.27908227,0.05602421,-0.116525516,0.19062869,-0.027293835,-0.06304594,0.12123303,0.0011719824,-0.2156199
0.03853174,-0.024994327,-0.007159811,-0.026942944,0.08018667,-0.04796081,0.050285608,0.15338513,0.18887398,-0.19484435,0.039380286,0.10032012,-0.01958075,-0.10665024,0.024580691,-0.14932391
-0.055340786,-0.060662743,-0.02516986,-0.018775854,0.13042817,0.029557712,0.014722743,0.004527508,-0.081048794,-0.15218377,-0.059327226,0.114826605,-0.13099647,-0.04683354,0.011884132,0.07212124
0.0618084,-0.123236895,-0.09368244,0.11643814,0.08159112,-0.0774762,0.121407546,-0.11286593,-0.03070609,0.08570511,0.1274129,-0.01542769,0.0650387,0.09184105,-0.10880301,-0.111125685
-0.10540831,0.044342432,0.17946991,-0.18958625,-0.044210978,-0.15583286,0.06729395,-0.04123319,-0.1393314,-0.007840643,-0.06219753,-0.025557272,0.10016002,-0.0033504644,-0.028441785,0.10080506
-0.057966057,-0.0014049867,0.074866354,-0.07219304,-7.085804e-05,0.08982006,-0.041808143,0.10112567,0.10105956,-0.1488935,-0.023714675,0.14153494,0.0152790975,-0.020055052,0.02910027,-0.028156314
-0.18529601,-0.0045390436,-0.112687595,0.04260744,-0.09667087,0.07842077,0.03919794,0.12274933,-0.013812077,-0.031081192,-0.04201712,0.10048527,-0.096474215,0.03199601,-0.08241594,-0.16891448
-0.06493148,0.0017518868,-0.030276373,-0.0042696204,-0.01469456,-0.043600213,0.08735213,0.114750795,-0.07508256,0.011460285,-0.13648231,0.055652935,-0.009640655,0.13360159,0.12789994,0.021374634
-0.07296055,0.07527765,0.04757814,-0.076590754,0.09825979,0.0029324682,0.06875592,0.033048656,-0.033296067,-0.08098388,0.033782233,0.1382479,0.057982,-0.0699799,0.036186535,0.11145334
-0.034399282,-0.049850553,-0.018509105,0.111736655,-0.059633978,0.054148756,-0.05431756,-0.034679048,0.12032938,-0.097321086,-0.1025944,0.097237624,-0.12420482,0.026058268,0.0083702495,-0.041364353
0.09252942,0.10678483,-0.093328245,0.073055886,-0.06162414,0.058505476,0.053776328,0.0016985941,0.100808345,0.015735753,-0.039972086,-0.092570044,-0.04455191,-0.08441932,0.04646802,-0.08277926
0.121731125,-0.037521902,0.012841529,-0.09196569,0.07315874,0.042906776,-0.032844815,-0.071277395,0.004145414,-0.05965029,-0.09045035,-0.06455591,-0.22314845,-0.084086865,0.10216239,-0.050618786
0.101323724,-0.07947955,-0.11312541,0.17341444,-0.073234305,-0.081187025,-0.023787264,-0.06859797,0.009593214,0.13412923,-0.055031687,0.10722329,-0.092252366,-0.093413025,0.002323823,0.02518254
-0.103303604,-0.12087596,0.023319524,0.08360292,-0.00044870196,0.00792727,-0.028851379,-0.08952097,-0.090240456,-0.013948872,0.01888549,-0.13370717,-0.16077204,0.10410035,-0.022849433,-0.10246463
-0.02297046,0.03422302,0.075143665,0.055808287,-0.050583225,-0.03279335,-0.05822494,0.025720505,-0.13535915,0.028575419,0.05173086,0.025062805,0.13471328,-0.0759289,0.067903735,0.13913222
0.056584597,0.014302235,-0.10619265,-0.11850796,0.08217581,0.12660128,0.04456374,0.10536965,-0.08219019,-0.02546473,-0.057174064,0.040964447,0.0504619,-0.03939399,0.08088952,-0.03568057
0.012050004,0.03071407,0.0386277,-0.0053763133,0.09393707,0.04681975,-0.06047926,-0.13551185,-0.08689644,-0.13013941,0.0017366878,0.10438461,0.008753092,0.0600731,-0.12404763,0.12535352
0.23548993,-0.065156706,-0.061533004,-0.05512419,-0.032485224,-0.080748186,0.07474437,0.1384111,0.05018135,-0.13964532,0.13564698,-0.056023613,-0.07374083,-0.07132976,0.06458627,-0.053307217
0.052716676,0.08455097,-0.121981256,0.115170926,0.07727994,-0.02542916,-0.04086427,-0.13455388,-0.086926185,-0.06641634,-0.031792045,-0.013562366,-0.15449676,0.0271433,0.00024444007,0.08775078
-0.030705778,-0.009273469,0.13482207,-0.021464119,-0.10695223,0.013124249,0.031339042,0.03849299,0.021900432,0.062443834,-0.08967625,0.091724046,-0.053739514,0.016731415,0.025226947,0.06532426
-0.033430833,0.055013306,0.083169945,0.051810734,-0.101140596,0.108140856,0.0013698972,-0.11351699,-0.07478748,-0.11066637,0.0034469485,0.09669435,0.10367942,-0.10262857,0.13161166,0.037141465
-0.11305879,-0.05072326,0.05536349,-0.09618233,0.04056887,0.08114708,-0.097936384,0.020640891,0.10661773,-0.09407864,0.02713869,-0.099415585,-0.061005462,0.030397719,-0.10200546,-0.096123785
0.05718163,0.031200413,0.022861373,-0.039407104,0.004851809,0.03787269,-0.09728106,0.25615966,0.08777321,0.14205834,-0.07604197,0.06191235,0.072422385,0.26888478,0.03617598,0.08692848
0.08632129,-0.020840866,-0.063597366,-0.0836166,-0.08989872,0.09443109,-0.032235235,-0.105067134,-0.027503759,0.18904498,-0.13141555,0.08010313,0.107930385,-0.09988496,-0.087694906,-0.018375907
0.10762217,-0.16912389,0.030625628,-0.04617671,-0.022055373,-0.10312446,0.094581485,-0.011178793,0.12579139,0.01208392,-0.18343906,-0.11146152,0.025947515,0.09846037,-0.06735901,0.03664007
0.07003746,-0.083786644,-0.028779728,0.012429948,-0.021606721,0.03618044,0.09094094,-0.033031277,0.050303947,-0.10707856,0.09216488,-0.013927395,0.01719653,0.058210216,-0.099404216,0.048624184
-0.066253446,-0.047481567,0.1322655,0.045882795,0.052298326,-0.046693683,0.042279504,0.06696715,-0.023728395,-0.10248652,0.09712616,0.073006034,0.023265729,0.1372838,-0.0154739665,-0.0927542
-0.032229275,-0.14352733,-0.07989085,0.12800689,-0.026229171,0.12548418,0.12765545,0.0777073,-0.033323787,0.03680004,-0.056358937,-0.0116240075,0.031089535,0.047646444,-0.05988875,0.1494481
0.17482126,-0.06832232,0.12144336,0.065669306,0.00023354376,-0.090273656,0.010954064,-0.18046454,0.14671694,-0.04734437,0.058709137,0.022388823,0.10527055,0.04173888,0.09953332,0.098517776
-0.08654742,0.0027153625,0.02551691,0.082623415,0.16351448,-0.056075975,-0.020162841,0.043421987,-0.111873746,-0.00065967516,-0.12157925,-0.03134664,-0.24892198,-0.15740488,-0.009152004,0.08387167
-0.026408197,-0.028926942,-0.027784875,0.091669604,-0.025633926,-0.020337414,0.038977433,0.036103833,-0.11403786,0.07402041,-0.026980279,0.052882805,0.054919783,0.120623715,0.011666423,0.24808215
0.06979615,0.0017626515,-0.12970085,-0.0014357463,-0.036340944,-0.017403487,0.008052975,0.09583515,-0.13073307,-0.1622365,-0.091487855,-0.10145,0.00083148625,-0.02084342,0.01088041,-0.06586911
0.01680268,0.0101644285,0.044408683,0.088917285,0.024902798,0.004056397,0.12472312,-0.13382065,-0.104545936,-0.054327942,-0.18566556,-0.05168816,-0.14324,-0.05994977,-0.0665532,0.05657993
-0.13208398,-0.0836937,0.021378394,0.11259602,0.01875714,-0.011034607,0.09283844,0.028859885,-0.014689433,0.041583624,0.12720357,0.06287525,0.06588381,0.06257707,0.12521079,0.046537016
0.15775748,0.08941503,0.01536326,0.10916621,0.0014845311,0.089664996,0.030712573,-0.19065249,-0.063643664,0.1528656,-0.13421501,-0.12534186,-0.03096244,-0.06768021,0.07501482,-0.16482057
0.16804667,-0.04623644,0.11092986,0.048685804,-0.092158504,-0.024126489,0.11337217,-0.16069542,-0.0036838464,-0.0336958,0.19232543,-0.15010647,-0.056437053,-0.2023242,0.049931794,-0.16418214
0.13909158,-0.05211083,-0.113235354,-0.01667981,0.014664963,-0.08987547,0.06923296,-0.07408378,-0.024127906,-0.09275939,0.026799278,0.022081327,0.023586301,-0.04169153,0.1000266,0.12312877
0.05305816,-0.10273213,0.02660963,0.0069691073,0.06841779,0.023931116,0.044326507,-0.0064257844,-0.12187862,-0.09222686,0.110317335,0.0006209823,0.11178203,0.053666368,0.04384136,-0.07932684
-0.061999656,0.06137042,-0.13410106,-0.0818647,0.13281341,0.040354233,-0.04623921,-0.06286797,-0.0570251,0.023381367,-0.10760326,-0.033805676,0.049987298,-0.0427762,0.09531351,0.020669106
-0.088954106,-0.094631575,-0.009471981,0.075222045,0.06681772,0.07673774,-0.08427212,0.03966261,-0.069847085,-0.010172663,0.053459242,-0.10307672,-0.11076379,-0.009189027,-0.103483126,-0.092487
-0.00067081646,-0.05475975,-0.030660996,-0.048339915,0.0030602233,0.045910425,-0.05619144,-0.06516175,0.0946042,0.116576634,0.006764736,-0.032227512,-0.153188,0.06539687,0.008084378,-0.06596626
-0.029158529,-0.033899255,-0.040856645,-0.040367022,-0.04822818,-0.08124517,0.13782735,-0.032587707,-0.10184152,-0.1372042,-0.14525594,0.013712351,0.0102311075,-0.25444075,-0.029320437,-0.0540834
-0.069563866,0.14232686,-0.17037527,-0.080030315,0.08700532,0.044274725,-0.11604295,0.18001857,0.08967052,-0.077950835,0.2279734,0.13867947,0.068075635,0.0025017182,-0.1096456,0.15027817
0.049883734,-0.011201134,-0.15020217,-0.12028009,-0.06653904,-0.06926433,-0.007774138,0.037252624,0.08835739,0.041156992,0.15269814,0.04751157,0.07990875,0.122969516,0.11274168,0.023380892
-0.075826205,-0.10554925,-0.013774728,-0.0041129496,-0.027068501,0.028779304,0.06914957,0.18359144,0.025436817,0.10807036,0.0710819,0.06038948,0.069862425,0.19828796,0.025228068,-0.06364371
0.0063067414,-0.12494371,-0.00038416713,-0.06085088,0.123987995,0.048963554,0.02289331,0.090294145,0.16201794,0.0012954224,0.008843472,-0.10771187,-0.062257085,-0.07909073,-0.001408516,-0.060700733
-0.105038136,-0.03196916,-0.057750173,-0.057574734,-0.10885892,0.07806893,0.016142482,0.13907856,0.1124477,0.18829511,0.07355464,-0.021292021,0.09068318,-0.025673538,-0.09293433,0.13602223
0.13368359,-0.045480825,0.00486543,-0.12471,-0.09152862,-0.0237813,0.00217834,0.028259438,0.014782203,-0.02432844,0.06062629,-0.16984412,-0.1918578,0.071124606,0.05314255,-0.0025928211
-0.17198241,0.0894081,-0.07242601,-0.019581221,0.122907594,-0.08863935,-0.02107227,-0.08116002,0.12132226,-0.22327791,-0.14838985,0.06540915,-0.1831944,-0.19548011,0.017330272,-0.12995675
-0.12679629,0.06283818,-0.109071516,-0.055151455,0.037223157,-0.06430303,-0.044951957,-0.011151658,0.047870237,0.09500009,0.11898859,0.1032367,-0.03445278,-0.020078527,-0.096258454,0.14555979
0.03388894,0.088061966,-0.09878168,0.052668013,0.12718014,-8.867406e-05,0.09186456,-0.12866525,-0.0019686988,-0.028683923,-0.08362119,-0.023795426,-0.1363642,-0.12473702,-0.10723451,-0.05159591
0.07516519,0.06573463,-0.017073592,-0.0075220834,-0.0034152386,-0.11874748,-0.11104361,-0.0748291,0.03465461,0.03449414,0.095059454,0.05151827,0.036297124,0.10273876,0.12627086,0.038666688
-0.13807513,-0.0011004756,-0.047463287,-0.0473243,-0.08078157,0.03869479,-0.055611175,0.115843184,0.19583146,0.077130996,0.011885826,0.06516463,0.0029229743,-0.00090136356,0.038411327,0.032097034
-0.023427168,0.012248962,0.045930382,-0.10848798,0.019016914,0.07657749,0.03416229,0.016343446,-0.065983824,0.12822336,-0.12644643,0.08188454,0.019854438,-0.0049589113,-0.07910808,0.019824486
-0.045587633,0.11386542,-0.013201033,-0.010165931,-0.073607855,0.09907588,0.111172386,0.11000802,0.0047303857,-0.049893852,0.10493561,-0.14506103,0.15741466,0.009752758,-0.017845308,-0.07323883
0.0006571242,-0.094424576,-0.011098972,0.08687284,-0.061783317,-0.11413553,-0.0013824004,0.039514747,-0.031470586,0.11236836,0.21335575,-0.08113842,-0.0031803942,0.05951113,-0.026448408,0.13527995
0.09227167,-0.066072546,-0.05345692,-0.1592659,-0.114455186,0.08002828,-0.11675796,0.018072361,-0.19289108,0.053327393,-0.19786656,0.01162149,-0.105885655,-0.09184713,4.6583027e-06,-0.00855745
0.14492556,0.0024008912,-0.089159556,-0.0072289435,0.013114332,-0.05490692,0.041052926,-0.024808299,0.12867108,-0.15022855,-0.06976742,-0.029978596,0.101770684,0.13234448,-0.11571701,0.04681355
-0.0057843695,0.05537856,0.049431395,0.006876298,-0.0541101,-0.07843999,0.024400463,-0.014305113,0.1504249,0.04118466,-0.18737565,0.061892133,-0.13671757,-0.05466643,0.11919986,-0.09328371
-0.027375868,0.086276755,0.11645198,-0.121996686,0.10805896,0.08808859,-0.021758378,0.22698894,0.1685189,0.104598045,0.15499371,0.14432582,0.15409704,0.08505882,-0.023026954,0.030530512
0.12459843,-0.0398601,0.0109359315,-0.04729722,-0.05313107,0.04515528,-0.106287524,0.02712656,0.22079399,0.060009204,0.07206681,-0.090981096,-0.048177212,0.2750141,0.023776976,-0.11435549
-0.120648906,0.13823073,0.03959958,-0.09764304,0.08768211,0.1205209,0.008585587,-0.12971771,-0.19033149,0.021055156,-0.066984385,0.06955555,0.12001858,-0.16622224,0.04616383,-0.08442342
0.007656575,0.1169773,0.057957847,-0.114044026,-0.085658036,-0.000726138,0.0044653076,0.075388364,0.061732978,-0.05793824,0.106380224,0.06860951,-0.033183526,-0.06659172,0.118881404,-0.12199117
0.08341676,0.04447843,-0.010931971,0.118398346,0.118939936,-0.055766355,-0.12663463,0.044058166,0.18170266,0.026709078,0.029446928,0.048471805,-0.10355202,-0.098253116,0.03535326,0.09463407
-0.08694599,0.06801614,-0.17883503,0.029515095,0.030834297,-0.005916746,0.05768863,0.1075974,0.09477851,0.041178536,0.08627367,0.005771992,-0.15228677,-0.01001601,0.03326285,0.081283696
-0.0023207914,-0.02347127,0.15701286,-0.050534055,-0.15054461,0.010036558,-0.009290572,0.15006065,0.24201424,-0.032825943,0.10652936,0.11018938,0.12513137,0.11258756,-0.14113769,0.08602583
0.092865855,-0.098597795,0.18785381,0.032003183,-0.11650379,-0.034187824,-0.0489481,0.07159883,-0.020958833,-0.11609418,0.020314356,0.12328714,0.1281733,0.08918477,-0.07982852,0.110664554
0.004489672,0.03761666,0.08995138,-0.09061268,-0.12512483,-0.102202356,-0.12097753,-0.20414123,0.05482255,-0.048620675,0.007847984,-0.023142992,-0.021835001,-0.024576535,0.042577703,0.05814047
-0.036167447,-0.047364987,-0.03878748,-0.052818157,0.06656382,-0.019228512,0.007955956,-0.15372886,-0.14079244,0.12516241,0.01995698,-0.040388554,0.14675996,0.031978466,-0.066423245,-0.024442622
0.12726796,0.03829301,-0.07979594,0.09877971,-0.07696736,0.100286104,0.06331744,-0.060975727,0.07313408,0.10768889,0.016888468,0.0077706687,0.055379633,-0.13864787,-0.122883014,0.01626552
0.1762468,-0.035015095,-0.021789534,-0.017094985,0.062480133,-0.05062583,0.08210299,-0.0685867,-0.0026413829,0.15629067,0.020719005,-0.18729825,-0.23375851,-0.061347716,0.046017952,-0.07733268
-0.13207392,-0.060738824,-0.11117677,-0.0075811804,-0.10451156,-0.11587901,-0.10223236,-0.020840285,-0.13319963,0.03845465,-0.0074707516,0.15298001,0.03677941,0.041064348,0.0166682,0.0027519967
0.055895455,0.032285623,-0.06199139,0.040874507,0.05636555,-0.072458416,0.0950064,0.09480255,0.044672173,0.087502085,-0.04960626,0.17358847,0.16402331,-0.030313797,-0.13470231,0.050722554
0.000506905,0.0767456,-0.17811933,-0.002527474,0.0846976,0.123557426,0.0723781,-0.055752993,-0.14183521,0.022902275,0.18258151,-0.08826833,-0.20478414,0.09944967,-0.0036566935,-0.20222746
-0.046284426,-0.08326772,0.026054248,-0.0042719212,-0.07398162,0.025329571,-0.06651564,-0.06633863,-0.058140874,-0.038626045,-0.031522296,-0.15945315,0.110518776,-0.027176518,0.06590974,0.014553965
0.027725054,-0.10638306,-0.09641726,-0.1305756,0.07943495,-0.12067796,-0.043532327,0.12365508,-0.009368263,0.0149709685,-0.08612235,0.1217195,0.027835555,-0.16482715,-0.028689122,-0.03999687
0.112783276,-0.1450773,0.011180609,0.10407519,0.0029802304,-0.10260203,-0.10509231,-0.02839076,-0.04400081,-0.11697888,0.08485702,0.1891099,-0.007353229,-0.10343571,-0.11935032,0.2481326
-0.00039468598,-0.06007573,-0.102687605,-0.053072575,-0.09939624,-0.02628146,-0.03490757,0.068798505,0.04152829,-0.02010397,0.118671276,-0.011111544,0.13072124,0.07307179,0.078799754,-0.13274425
-0.11395014,0.01360921,0.0024556704,0.12980475,-0.03888729,0.004017138,0.104241475,-0.16878185,-0.2447838,0.011390813,-0.10701001,-0.19501239,-0.16305442,-0.12806796,0.05464382,-0.27218974
0.17930801,-0.0048740953,0.09753165,-0.07668975,-0.006810019,-0.09601349,-0.07766324,0.06112527,-0.08312254,-0.06179203,0.1236915,-0.023991732,-0.1009429,0.10808521,-0.07998643,-0.05388954
0.049389515,0.0020713438,-0.1209169,-0.07523409,-0.04848546,0.14385049,-0.0060177986,0.048523787,-0.16266665,0.04518788,-0.055934016,0.040554255,0.10733779,-0.12564321,0.11412904,-0.15066084
-0.033812527,0.1029768,-0.004951495,-0.007544349,-0.047806162,0.07370161,0.03922118,-0.11054579,0.12872157,-0.054246943,0.08906651,-0.02388751,-0.11683958,0.024781236,0.083783425,-0.068167485
0.15480274,0.029367056,0.04995781,0.030568836,-0.12367236,-0.030493293,-0.121538855,0.22727723,0.13145098,0.0524002,0.03601811,0.0020164305,0.101893105,0.20937076,0.034902498,0.25673634
0.0031970183,-0.058698013,0.08090764,0.03522035,0.07620089,-0.046129074,-0.010694245,0.049668714,-0.09350821,-0.03294216,-0.091314636,0.117628634,0.14920767,0.1575933,0.075422905,-0.08130735
-0.10368981,0.02099443,0.055844724,-0.012178438,0.06746121,0.004455828,0.09093733,0.08731651,-0.17748636,-0.009178257,-0.16734757,0.08358504,0.097699784,0.16851205,0.05947871,-0.0618701
0.010878471,-0.02256317,-0.15489885,0.04233795,-0.04548569,-0.059221968,-0.023406504,-0.017883481,0.041497048,0.056456883,-0.025672361,-0.10818868,-0.110274546,0.1582762,0.053928915,-5.0461837e-05
-0.07771346,0.060142517,0.037873045,0.13385487,0.030536817,0.004988665,0.053865395,-0.064171426,0.083651826,0.0851138,-0.111820415,0.027331399,0.0129827345,0.059399623,-0.10330422,0.07039446
0.10550013,0.016691979,0.107247666,-0.080254175,-0.018231718,0.0034060404,-0.112578906,-0.03078577,0.06884729,0.19467357,-0.0033146888,-0.11782757,0.008759248,0.0053607468,-0.012119057,0.054462567
0.17259759,0.010593716,0.2189268,-0.14440046,0.10476873,-0.051065583,-0.09587769,-0.20716833,-0.06909032,0.04836664,-0.0291499,-0.14021818,-0.083849534,0.18050097,-0.09381782,-0.26104903
0.0016039694,0.004763435,0.07984667,-0.06585391,-0.048358865,-0.03645444,0.016649498,-0.022479583,-0.011913936,0.13211559,-0.08574958,0.000105761916,0.07173003,-0.048373863,-0.01702367,0.092550084
-0.07009618,0.102695405,-0.026148984,0.019237265,-0.025686702,-0.08697233,0.044531114,0.2559034,0.2307533,0.1492015,0.20371568,-0.08451935,0.24821372,0.21011093,-0.10839881,0.03050863
-0.020919774,0.121776484,-0.16893525,0.1185213,0.07827487,0.102042355,-0.016616512,-0.04434782,0.07346684,-0.11953627,0.03495615,0.03339122,-0.13241717,-0.14109695,0.11160645,0.008239732
-0.16730848,-0.041348174,-0.2014187,0.016957803,0.05645613,0.022751782,0.12756024,-0.06312913,-0.08456206,0.11303721,-0.13541152,-0.05733867,-0.010336483,-0.22853474,-0.07663622,0.014416762
0.13200179,0.0124576595,-0.025463045,0.02834836,0.03133075,0.121200964,-0.1157119,0.08689178,-0.03675556,0.1262652,0.051706556,-0.15497997,0.16194846,-0.21363474,0.058926396,-0.012301538
0.21732795,-0.04593144,0.051794447,-0.0077398815,-0.07745031,-0.023453,0.087021515,0.1642795,0.24142025,-0.041585345,0.10620668,-0.08782372,0.021119608,-0.031257067,-0.08855571,0.035950392
0.04923044,-0.06850456,0.011968501,-0.04309163,-0.09165213,0.050256982,-0.102357544,0.24738103,0.047897596,-0.07523879,0.032709368,0.16047987,0.209544,0.21740468,0.02209091,-0.13843338
0.15420882,-0.042909127,0.06268472,-0.030910645,0.103514604,0.1459119,-0.009493467,-0.0968498,0.016922303,-0.13701107,-0.17809397,-0.08797713,-0.059107665,0.023574553,0.116871074,-0.053854123
0.08994164,-0.07873131,0.20540221,-0.014975405,0.030968083,0.005052992,-0.058714643,-0.03671948,0.04835803,0.08963332,0.00833852,-0.06422261,-0.06642034,0.009188393,-0.055493753,-0.033846706
-0.161142,0.0039370316,-0.020895096,0.1040856,0.090258114,-0.047440995,0.00017882691,-0.04758067,0.09827833,-0.103097685,0.09609591,-0.040544484,-0.08465995,-0.114957094,0.010192692,-0.09517868
0.049300767,0.04132717,-0.10334616,-0.13765007,0.11461299,-0.101234056,-0.07323512,0.093673944,0.07352834,-0.055622462,-0.051316995,0.012782214,-0.034183722,0.033006415,-0.03214639,-0.12766835
