0.116363674,-0.043288935,-0.033287913,-0.033046447,-0.014587411,0.00414291,0.11461556,-0.057804257,0.029660393,0.052570693,0.07070743,0.10459454,0.0848801,-0.043964237,0.07032452,-0.13130546
0.03653685,0.11268366,-0.0017449261,-0.07777574,-0.15565205,-0.20170766,-0.106768645,-0.06762519,0.06750974,-0.04607813,0.0010429028,0.11753036,-0.11515724,0.06982831,0.015566671,-0.19105782
0.05979436,-0.025963837,-0.078649715,0.06961492,-0.10232643,0.0445809,0.006767979,-0.010901355,-0.06539667,-0.011529897,0.10970115,0.03847524,-0.06698456,0.08720308,-0.09711367,-0.10878358
-0.052083902,-0.012142294,-0.07816211,-0.01275042,-0.22597736,-0.21752818,-0.08019612,-0.22744067,0.04219044,0.07478525,0.034879506,0.03397131,0.08769917,-0.047757108,0.010675094,-0.1663901
-0.094280586,0.024775585,-0.029521147,-0.029278362,0.030342251,-0.07422634,-0.034121677,-0.027663724,0.010597181,-0.09970607,0.03573632,0.031016257,0.10803871,-0.005909038,-0.09470659,0.14067984
0.07434694,-0.06939383,-0.100319654,-0.081916094,-0.013284447,-0.07229927,-0.028664501,-0.028884271,-0.020573625,-0.041458257,-0.08749348,0.10910554,-0.041521024,-0.093650855,-0.045608252,0.04149824
-0.015784822,0.035219934,-0.115385905,-0.044875093,0.009739777,0.06441877,0.09129261,-0.10861607,0.004226245,0.06988074,-0.018918619,0.03181004,0.044096,-0.092556864,-0.048468824,-0.03593502
0.055679973,0.07921815,-0.12723623,-0.03321712,-0.096237466,0.062889665,0.024137104,0.08734286,0.09035288,0.10363433,-0.042393494,0.007059521,0.015214262,0.009065659,-0.013638079,-0.0011815656
0.016965102,0.084879585,0.0056532645,-0.11157969,0.08392423,-0.016331732,-0.025361376,0.024061706,0.11161586,-0.070971176,-0.009992651,-0.066125065,0.08082931,0.11630814,0.04239774,0.13964508
0.026152361,0.024086429,-0.038421337,-0.14181477,-0.04748805,-0.107352845,-0.037313923,0.019471044,-0.07282387,-0.060904887,0.033555873,0.07938099,-0.08626367,-0.030778376,-0.13171673,-0.11060274
-0.07957327,0.08803099,0.069848806,0.077659555,-0.21227579,0.021566678,0.10547253,-0.22299923,0.09202281,-0.09159584,-0.08626616,-0.030044781,-0.031746022,0.058731887,-0.057046067,-0.13542035
0.02738573,0.017637905,-0.1269439,0.10226365,-0.20022821,-0.29340276,0.09930355,-0.16519599,-0.08182295,-0.14605074,0.052596934,-0.11664202,0.002758128,0.0077845734,0.012356804,-0.26235297
0.0448742,0.10937618,-0.10477904,-0.009165221,-0.058520038,-0.08885829,0.07788541,-0.036312617,-0.06410785,0.12737721,0.08380651,-0.007589911,-0.02062824,-0.01891029,0.012919515,-0.02814653
0.06726945,0.1447282,0.046342902,0.14810298,-0.07954541,-0.18826908,-0.03067442,-0.023889564,0.04143979,0.020994112,-0.10555184,0.0272665,0.058275703,0.060444914,0.07299931,0.05221853
0.036867544,0.021184167,0.01273879,0.08307561,0.040522162,-0.13419813,0.022266947,-0.17803857,0.07653846,-0.068583444,0.026498094,0.009690295,0.04391238,0.05921433,0.0037760271,-0.1578261
0.023331031,0.037756704,-0.0049971733,0.029856974,-0.0036177654,-0.08462446,-0.046192136,0.12417041,0.13670471,0.009077006,0.12296109,-0.016088163,0.032459937,-0.14672093,-0.027577596,0.101219974
0.12779477,-0.09726316,-0.005732316,-0.024642082,-0.0333118,-0.035376947,0.060683403,-0.08943841,-0.022806408,0.10159218,0.11579355,-0.022525564,-0.0568747,0.10715754,9.8694065e-05,-0.010536709
-0.035417844,-0.01961598,-0.08608758,-0.054436184,0.098707065,-0.11957114,-0.15973675,0.001995064,0.1921839,-0.16895281,0.14720033,-0.07445114,-0.16255379,-0.17645112,0.004986468,0.09422953
-0.013137255,0.044795215,0.04266583,0.1151327,-0.06410153,0.059847496,0.016711272,-0.12235897,0.07913517,-0.08405865,-0.10835002,0.010538595,0.08752321,-0.04208654,0.051136896,-0.05892679
0.078337535,0.086889446,0.047293387,0.010921634,-0.09097829,-0.06836683,0.11904875,0.0037198458,0.08758605,0.06595078,-0.022373203,-0.107820585,-0.13054138,-0.08354001,0.14111608,-0.036026247
-0.11994852,0.09069876,-0.1852745,-0.001536542,-0.082883224,-0.09229117,-0.045547284,-0.25936094,-0.08309355,-0.098064564,-0.019128283,0.010427577,0.09610076,-0.105552055,-0.05499683,-0.20645416
-0.067757845,0.058440425,0.012295895,-0.1602559,-0.18636921,-0.14527729,-0.11885574,-0.07583341,0.15914251,-0.069692545,0.01443471,-0.103580475,-0.041242983,0.101360396,-0.14991395,-0.13358018
0.07054143,-0.077281214,-0.18229468,-0.07629469,-0.09834419,-0.1702774,-0.08864784,-0.20243028,0.04678705,0.105410226,-0.01835004,0.087185435,-0.06969925,-0.01427954,-0.13454148,-0.19021223
0.014110363,0.17660627,-0.08482127,-0.15542844,0.050554626,0.011540499,-0.18153146,0.020096159,0.25605887,-0.031037964,0.1975419,0.059576444,-0.09603705,-0.17269142,-0.07561799,-0.07787613
0.04395968,-0.0304193,-0.065072425,0.05639376,-0.08276913,-0.14041516,0.09571861,-0.031649314,4.7277506e-05,-0.015178,0.030193727,-0.04983224,-0.115448385,-0.06783879,-0.032044794,-0.14555848
-0.069479935,0.008241316,0.034973487,-0.056890715,0.040198054,0.13447595,-0.032924455,0.05270078,-0.059227094,0.09489743,0.05549,0.11212241,-0.11943259,0.09908786,0.04979605,0.042610977
0.006980395,-0.07072173,-0.25089726,0.018900262,-0.0970391,-0.17165941,0.024667472,-0.24147463,-0.05273946,-0.055481173,0.10797839,-0.011399127,-0.031927854,0.10835265,-0.10469891,-0.19077313
0.08045197,0.022315191,-0.065830275,-0.08437379,0.029045423,-0.053321943,-0.038085803,-0.014644376,-0.0056857783,0.008284237,0.09084226,-0.05307156,-0.08591282,-0.077378444,0.0049204193,-0.14010862
0.16752598,-0.07536137,-0.07668076,-0.14970249,0.09321993,0.031796772,0.117216624,-0.062273532,0.09914598,0.07974335,0.04851979,-0.07321927,-0.081107035,-0.05637066,-0.14780807,-0.117214955
0.22431888,0.02009975,-0.011724323,-0.09204742,0.050359704,0.026004024,-0.18501335,-0.14629023,0.09874566,-0.23366424,0.15091056,-0.16401649,-0.11128219,0.036543343,-0.047397386,0.042878516
-0.09543118,-0.07050983,-0.042927094,0.03156858,-0.035119668,-0.23910005,0.018248547,-0.24622615,-0.07997103,-0.021661388,-0.06237648,0.025436012,-0.078201674,0.0424279,0.06429776,0.0071116835
0.1247855,0.14335094,-0.09446051,0.0289059,0.11180973,0.12465274,0.006724675,0.028484482,-0.008647848,-0.09143904,0.13743915,-0.022193959,0.057838835,-0.062432043,0.08399211,-0.039915513
0.033425443,0.052609973,-0.00045473,-0.012257817,0.036803875,0.051056553,0.026847506,0.113957785,0.05284228,-0.066808075,-0.040184587,0.11799236,0.13272959,-0.11570628,0.093925886,0.04874791
0.005753336,-0.00559316,-0.106554195,-0.12996137,-0.057287805,-0.054525673,0.021839092,-0.09800528,-0.0383051,0.13340425,0.021137979,-0.048065994,-0.037210464,-0.017228723,-0.04884251,-0.12551641
0.047995355,0.017477887,-0.031826947,-0.1333244,-0.1257116,-0.111995,0.113420196,-0.009446934,-0.13465574,-0.07485091,0.12204383,-0.12048024,-0.015141386,-0.07248687,-0.041981068,-0.066741556
-0.10631496,-0.06726676,-0.11981628,0.061910048,-0.0131452205,-0.13363135,-0.07536693,-0.11073559,-0.1280159,-0.020222373,-0.024769654,-0.115102515,-0.058733456,0.084329456,0.0019187479,-0.020629
0.12076003,0.02888676,-0.05146723,-0.038860194,-0.018034136,-0.15238869,-0.07964141,-0.120628916,-0.10528468,-0.04380106,-0.008942222,-0.114717565,-0.093312524,-0.014771403,0.049545668,-0.07875613
0.0181017,-0.03380335,-0.12290731,-0.022860518,-0.058523785,-0.15369835,0.1291782,-0.15858461,-0.051229928,0.068003125,0.04220692,0.032660764,-0.09267314,-0.034565732,0.035528805,0.037853837
0.0069924374,-0.10566623,-0.11603881,0.10858478,-0.11001743,0.06819616,-0.1193091,-0.14011465,-0.09008209,-0.1157089,0.037217073,0.11447181,0.03428664,-0.09028632,-0.014732921,-0.10955775
0.1004822,0.09716162,-0.1589225,-0.14299707,0.056839924,-0.068859905,-0.07164074,-0.10502484,0.009861432,-0.031148247,0.11804636,-0.10787118,-0.04537373,-0.12446205,-0.006277516,-0.08742159
0.07700261,-0.025903804,0.023245178,-0.025891919,0.04287957,-0.11772343,0.124353,-0.11693302,-0.060684003,0.06651512,0.05391297,0.04080644,-0.05900786,-0.14893086,-0.16806929,0.10251807
-0.00097585365,0.04078449,-0.027804265,-0.052378688,0.14082614,0.14375675,-0.12957096,-0.079196736,-0.024206312,-0.069529824,0.15342489,0.04865238,-0.060773116,-0.06442905,0.024629874,0.12032507
0.04543634,-0.090879425,0.041035987,-0.04401484,0.05485663,-0.09285329,-0.13030854,0.07536614,0.04880373,0.08254819,-0.07350056,0.10870005,-0.0068303263,0.08568141,0.069471404,-0.10677841
0.03196699,-0.054244492,-0.15641218,0.11001404,0.024669342,-0.10285948,-0.077197894,-0.10501866,-0.064913236,0.12030222,-0.04342807,-0.05295145,-0.063377544,0.11585343,0.03590552,-0.12966621
0.10189706,-0.12032746,-0.14269353,-0.004944897,-0.10158164,-0.14908434,-0.09874339,-0.19560058,0.09106814,0.09083753,-0.07258382,-0.10991919,0.00072152773,0.004692858,0.108550355,-0.11489632
0.16420935,-0.11615032,-0.0018768226,0.03959895,0.17302082,0.048765823,-0.03762981,-0.0034868799,-0.041806534,0.0885931,0.011520789,0.060353357,0.05884196,0.06293779,-0.12197514,0.080301516
0.0170555,-0.14588217,0.13512342,-0.07074212,-0.043321736,0.15402104,-0.0064798538,0.018752025,-0.13858847,0.10098825,0.1768117,-0.08466753,-0.07795245,-0.030472254,-0.0725963,0.11815342
0.03959249,-0.1324796,-0.09321705,-0.112023965,-0.112780854,-0.059149116,-0.0909998,-0.08102566,-0.07664476,0.10749945,0.12697604,0.05106256,-0.004812906,0.1625473,0.121648274,-0.16138518
0.024603244,0.089028515,-0.09513047,-0.09012375,-0.15137562,-0.18463881,-0.113135256,-0.075511485,0.10755032,-0.103634626,0.089993745,-0.049822886,0.043732334,-0.11528627,0.06505515,-0.034379702
0.07208191,-0.052335735,-0.03386024,0.1295891,0.010302334,0.026045917,-0.05842875,0.078229904,0.0345017,-0.090561196,0.11562527,0.005464154,-0.12733676,-0.10853861,-0.022454033,-0.08502285
0.10707638,0.08449424,-0.01467327,-0.021813914,-0.16936241,0.0044633513,0.11118055,0.022511952,0.0842429,0.106823504,-0.0002164298,-0.080771744,-0.03351996,0.08403404,0.0024455565,-0.018347364
0.009761033,-0.038087696,-0.053078897,-0.12585536,-0.13853589,-0.14222108,0.015547851,-0.043365456,0.089310944,0.055380918,0.025868924,-0.06609192,-0.06401569,-0.048626676,-0.1485037,-0.1272464
-0.08567023,0.024091285,0.08432221,-0.124860406,0.15559459,0.17098601,0.12717165,0.024635652,0.073522836,0.08673111,0.011411105,0.08795454,-0.026674578,0.0072045736,-0.1909288,0.033816718
-0.124780156,-0.0710999,-0.030533733,-0.03653162,-0.13776451,-0.16331397,-0.009407175,-0.0015986854,-0.0027135622,0.11997346,0.098163836,0.04497582,0.08020921,0.021006467,-0.0287846,-0.0033681164
0.021109534,0.08868591,-0.1551951,0.03942187,-0.066807024,-0.09845434,0.0967913,-0.26712018,-0.065335296,0.09869006,-0.05401291,0.108317405,0.06716411,0.043667912,-0.0613325,-0.2404632
0.042339113,0.0052718194,0.046798144,-0.07956156,-0.09214721,0.0923666,-0.031067003,-0.047246538,-0.060178053,0.016294919,0.053284768,0.10306531,-0.055772945,-0.021324428,0.14470269,-0.09551882
0.034533374,-0.02666509,0.10225138,0.061770257,0.09449201,-0.022195106,-0.02078974,-0.039989755,-0.021786539,0.09661944,0.016504318,-0.05781318,-0.064831175,0.077425346,-0.0032769681,0.055294503
0.08943925,0.046788454,-0.074443154,-0.0787603,-0.18929963,-0.15473154,0.03770234,-0.08756207,0.110447794,0.04454085,0.023417372,-0.078595944,-0.08079458,0.030525673,-0.12203507,-0.026531365
0.0114107765,-0.074713685,-0.027640352,-0.17629099,0.079659246,-0.046908516,0.03370748,-0.0028853663,-0.077973485,0.11224051,0.015888188,0.07531799,-0.103347555,0.049757298,-0.17378315,0.100208044
0.010613896,-0.09784427,0.09966416,0.047450915,-0.0005265212,-0.04192509,-0.14972055,0.0383576,-0.18410671,0.033943567,0.032470413,-0.047722735,0.09791245,0.107583605,-0.083109826,-0.09978636
0.029703388,0.04366631,-0.010814438,-0.007482666,-0.0024147911,0.0560201,0.008924408,0.11163133,0.11503862,0.035598718,0.08961138,0.003181651,-0.0275454,-0.11066521,0.0922955,0.06867042
-0.11559943,-0.023123177,0.021826211,-0.055119723,-0.15578528,-0.015430293,0.10907877,-0.17518085,-0.019415973,-0.10812097,0.010427171,0.017730271,0.0229281,-0.059262153,-0.06396067,-0.070797555
0.02125712,0.037768938,-0.073512994,-0.07420114,-0.011619733,0.0033757223,0.084072724,-0.08473041,-0.10701488,-0.07809081,0.07338081,0.04502281,0.036486372,0.033106584,-0.05435731,0.08162348
0.1109772,-0.08277177,-0.0079782475,-0.02597002,-0.1499422,-0.19651267,0.026456544,-0.077038154,-0.06220558,-0.01629207,-0.103426576,-0.0117203025,0.16910154,0.040308785,0.0008494738,-0.17371994
0.11616388,-0.12874901,-0.11838297,-0.13303973,0.01514182,0.023110684,0.10718048,-0.22750485,0.113522634,0.011275838,0.04674641,0.09037799,0.063874125,-0.06832163,-0.04448052,-0.12004964
-0.0034451166,-0.07188993,-0.045325883,-0.061454337,-0.1231894,-0.07681706,-0.108238734,-0.013809752,-0.043198638,-0.037461024,0.13184823,0.109234266,0.03720638,0.064818285,-0.0420597,-0.18549232
0.0294442,0.050468564,-0.2459589,0.07351154,-0.18079197,-0.16199128,-0.06912726,-0.24619548,0.047819767,0.08111648,-0.10100989,0.073745094,0.05234126,-0.0350463,0.098080315,-0.13934486
0.114419974,0.021947239,-0.20463665,0.09587107,-0.19568951,-0.21832354,-0.022739558,-0.07256227,-0.091832854,0.005430075,0.067663595,-0.10582021,0.072308004,-0.12228967,-0.0021070994,-0.0740025
0.09470388,-0.11204462,0.04427607,0.06387945,-0.008320093,-0.10515736,0.01999397,-0.13138583,-0.09851903,0.007918376,-0.04208744,0.10466425,-0.062044773,-0.0112638315,-0.08741463,0.06054578
-0.04335584,0.022355216,-0.08714262,-0.0699062,0.03349236,0.012261298,-0.017382365,-0.07883119,0.11767075,0.047001958,0.07243516,-0.044788893,-0.0037414439,0.046958826,0.04172502,0.036538806
-0.009561462,-0.016210577,-0.011139185,-0.19662125,0.08237218,0.14218022,0.13218449,-0.072145395,-0.14836787,0.13808888,0.027219068,-0.019295333,0.036620967,0.027668362,-0.00083655305,0.11548603
0.0045713037,-0.05916695,0.090832435,0.010434437,0.07570104,0.01491424,-0.008648431,-0.10446317,-0.11966294,0.11279285,0.06552314,0.019376375,0.07271863,0.039025035,0.0892018,0.023554144
0.07053163,0.031288773,0.015900299,-0.109365426,-0.1302595,-0.15292874,0.074832216,-0.031593252,0.020386608,-0.029041575,0.03900059,-0.122414306,0.08804833,-0.060346942,-0.10194842,0.062698215
0.0257218,0.12967142,0.09018248,0.027840601,-0.04969199,-0.14293,-0.0028534457,0.12535733,-0.074220434,-0.04035006,0.062318962,-0.11998853,0.056510925,-0.085856624,-0.046197407,0.06912119
-0.122241825,0.023224346,-0.09829341,0.106170826,-0.096693255,-0.0550954,0.10268058,0.053167008,-0.023282202,0.026064819,0.012755337,-0.11907534,0.007301078,-0.07692711,-0.059064973,0.08621457
-0.009326821,-0.08250824,-0.11589049,0.015437793,-0.11630651,-0.18527795,-0.11224528,-0.06525665,-0.014608882,-0.011680491,-0.10525871,-0.04990669,-0.07241522,0.09089572,-0.177787,-0.20491382
0.05841442,-0.15285113,0.068933144,0.008102876,0.061586034,0.083716504,-0.0541577,-0.1259253,-0.0057474733,0.10384571,-0.046997648,0.038156122,-0.01972271,0.077805504,-0.19064261,0.0533266
-0.11986664,-0.031391814,0.16673131,-0.11634636,-0.107464194,-0.07290901,-0.030762529,-0.056032185,-0.07209367,0.106817685,0.012504715,0.15184583,0.019629387,0.14747499,-0.07964559,0.034373265
0.085678525,0.086369306,-0.069400065,-0.04590592,0.05301461,-0.0043130806,-0.057957526,0.121153906,0.08698025,0.06744448,0.08613941,0.11942592,-0.020059718,-0.06477969,-0.07146452,0.115757406
-0.027556732,-0.006332999,-0.10375403,0.008818722,-0.038671568,-0.18512577,0.047136467,-0.050003186,-0.010024445,-0.0014680852,0.017612131,-0.029647743,-0.015897838,0.045684952,0.0767885,-0.16728343
-0.122176945,0.03661005,0.03427937,0.024653746,-0.0483102,-0.0101521015,-0.08976572,-0.15629905,0.07878163,-0.08530602,0.024317369,-0.051734272,-0.10259835,-0.046547107,0.018404935,-0.07135874
-0.040684383,-0.07787561,0.044960335,-0.062089667,0.070244074,-0.101794645,0.11120104,-0.07976573,-0.012476117,-0.021668358,0.045343705,-0.0034465322,-0.11051221,-0.06257283,-0.03865004,0.0140345795
0.028621972,-0.019454885,0.096778154,-0.103448905,-0.0847238,0.009960461,0.032276686,-0.11152229,0.020991303,-0.09148082,0.056234494,-0.011778552,-0.01943303,-0.049049225,-0.08850861,0.12014731
-0.089149125,-0.06261443,-0.033642445,-0.124598436,-0.2211875,-0.14359444,0.0591295,-0.025511408,-0.13837194,0.15091707,-0.16147447,0.060893442,0.12545685,0.013916784,0.08353552,-0.014325606
0.11102385,0.043484136,-0.10971375,0.076224014,-0.09632976,0.06807365,-0.053221937,-0.032072503,0.09793238,-0.05374436,-0.049133457,-0.10551627,0.09708469,0.07686703,0.07696879,0.11804822
0.091732055,-0.03508248,-0.040821213,0.07570179,-0.13495515,-0.27554524,0.13968433,-0.12823321,0.036902297,0.07980266,-0.026887797,0.093242206,-0.10362307,-0.10522365,-0.0022950298,-0.069724515
-0.096247315,-0.044650104,0.12791643,-0.060530566,-0.03394051,-0.008535075,0.08961606,0.09506058,0.11382141,-0.080822125,-0.018968409,0.10319982,-0.04786788,-0.05796239,0.02152566,-0.019893587
0.06201939,0.009873823,-0.07642343,-0.023246896,-0.1321548,-0.087394476,-0.047301546,-0.0014116672,-0.02040328,-0.06547181,0.1062976,0.082788445,0.0731443,-0.07482653,0.10045207,-0.08305904
0.090588845,0.050293725,-0.19521971,0.054205183,-0.16225925,-0.1404931,0.056003287,-0.105044395,-0.04913534,-0.028748522,-0.015401685,0.057893615,0.105618395,-0.10884513,0.0995239,-0.022578966
-0.119334325,0.04034914,0.10591144,0.10649641,-0.07983405,0.0054065404,-0.0864938,-0.005783088,-0.070140384,0.17165342,0.019092835,0.047192924,0.05145419,0.16414168,-0.0040525715,-0.1161305
-0.10129375,-0.114355095,-0.056459066,0.062142238,-0.1390738,-0.07876022,0.07553131,-0.03810151,0.03480102,-0.06693274,0.0038832012,-0.08729569,-0.012465579,-0.03188447,-0.033277508,-0.11533476
0.08808888,0.04074728,-0.07318743,0.121673234,-0.025507426,-0.19593407,0.0033828837,-0.1373962,0.0047272183,-0.04066923,-0.04845705,0.05777637,0.111202516,-0.101987526,-0.0028255929,-0.19769895
0.09841374,-0.0083848,-0.11604585,-0.0018274351,-0.04634677,0.08079074,0.0382055,-0.09120947,-0.017567271,0.0933463,0.09842533,-0.080994196,0.07682916,0.04886557,-0.026315054,0.006855453
0.0321899,0.07697805,0.03054504,0.09023434,-0.13888095,0.03834487,0.013060012,-0.11410183,-0.029513752,0.09422577,0.10889427,-0.06279312,0.09354998,0.048952688,0.076088645,-0.14537324
-0.07768576,0.023612045,0.12439603,-0.012937214,-0.019321568,0.10717219,-0.069915526,0.009774703,-0.1353759,0.08544422,0.04878028,-0.09405319,-0.12237024,-0.09414391,0.11052297,0.108801536
-0.1107845,-0.06816391,0.12930416,0.14668557,-0.16730618,-0.10676158,-0.013302742,0.025175886,-0.079338096,-0.06386419,-0.13670236,0.14808077,0.10595648,0.047217034,0.046262708,-0.1476491
-0.084163524,-0.06097355,0.0095272,-0.044814546,-0.07662717,0.021299044,0.07067391,0.14897421,0.04616839,0.049834017,-0.084369585,-0.063817866,0.026922986,-0.043259855,0.09611054,-0.0013399391
-0.042567052,0.09035427,-0.18260439,0.11101515,-0.057333115,-0.09496203,0.047430545,-0.10466996,0.06314197,0.018102668,0.036967162,0.10508228,-0.10157306,-0.058912065,0.076867215,-0.22895618
-0.099196844,-0.07056835,-0.14778437,-0.03910284,-0.13739227,-0.16054323,0.10315524,-0.11052854,0.020323552,-0.09913542,0.024731485,0.038172837,-0.0964453,0.119317144,-0.04017481,0.03768853
0.03747342,0.08506334,0.1103995,-0.051762927,-0.077776924,-0.06489129,-0.03125526,-0.05135822,-0.11901641,-0.042375468,0.08534726,-0.0043109525,0.04159984,-0.05213168,0.136762,0.037223995
-0.07277439,0.16019502,0.012886356,0.20740618,-0.056132317,-0.07646385,-0.039713196,-0.10587185,0.018632745,-0.01992246,-0.0073822048,0.0675939,-0.10772774,0.019114798,0.13881925,-0.08815465
0.024681786,0.0887857,-0.05130296,-0.08597217,-0.1457071,-0.023610888,0.007878436,-0.053878304,-0.07613689,0.08855566,0.0278408,0.07365636,0.070362546,-0.06370647,0.03603469,0.027007084
0.054182902,-0.053352814,-0.2103297,0.08136288,0.0014327073,-0.20342699,0.0010818407,-0.07529781,-0.022725288,0.113105424,-0.0074712243,-0.0025364046,0.05748584,0.11065696,0.06469372,-0.061459586
0.043719217,0.041867405,-0.13607162,0.11893857,0.03802561,-0.11883077,-0.055157147,0.026963718,-0.11847225,0.0796021,0.119063236,0.005308307,-0.104411,0.060208954,0.071215816,-0.08830159
-0.07992328,0.043898232,-0.13388748,-0.00017142745,0.040538084,-0.049288444,-0.06695603,-0.1057292,-0.08842924,0.020692978,-0.036142275,-0.0029066612,-0.016925331,-0.09447207,0.0626883,0.017586706
0.09262368,-0.0072754426,0.011552473,0.04771809,0.025869425,0.048733246,0.0950173,0.12292907,0.06661563,0.09548491,0.03676022,0.03416702,-0.05547887,0.08503471,-0.03982372,-0.042736374
-0.048544344,0.16740236,-0.15016367,0.0925338,-0.023196457,-0.09342354,0.11597838,0.07379586,-0.011776175,0.05646482,-0.001489635,0.0026192495,-0.056481168,0.034869343,-0.011341329,-0.173168
-0.0287287,0.17419028,0.0662817,0.11685656,0.09165187,-0.05961443,-0.08034855,-0.09326238,0.14304747,-0.022835288,0.014128969,-0.07571737,0.0736456,0.0014262636,0.044789895,-0.10640434
-0.023913877,-0.03076917,-0.09233062,0.015527913,-0.2299117,-0.12806669,-0.052606992,-0.15494873,-0.007651277,0.019320378,-0.09485904,0.10375218,-0.10801146,0.1134947,0.1181613,-0.2074801
-0.11477245,0.03679402,-0.17961048,-0.06745801,-0.06708602,0.041131057,0.09951312,-0.16432996,0.082660414,-0.022201562,0.049153283,-0.057219565,-0.10629784,0.10483346,0.08445813,-0.07280864
0.10983461,0.062616825,0.072383754,-0.024623621,-0.11461958,-0.08440413,0.00880076,0.0086052725,-0.05739738,0.049927052,-0.06275942,-0.009640354,-0.026258333,0.013253842,0.08369576,-0.12697168
0.0618689,0.017894506,-0.0534957,0.13752677,-0.13185261,-0.16306956,-0.007873025,0.05363099,-0.054111052,-0.113651864,-0.009646576,0.0009434234,0.10533022,0.011299725,0.023552328,0.02050912
0.031443562,0.20479509,-0.17212808,0.103934035,-0.06596436,-0.009836335,0.023101056,-0.08227162,-0.13162054,0.0856943,-0.09486177,-0.111623354,-0.10301024,-0.05263559,0.05718248,0.06603997
0.15309466,0.0040654237,-0.006389172,0.005420774,0.12490181,-0.0688121,-0.032204773,0.011265728,0.16583489,-0.05173425,0.056217674,-0.023066232,0.11744072,0.13763684,-0.09237926,-0.064930595
0.09062377,-0.0079092,-0.15038739,0.064644285,-0.19078647,-0.06495327,-0.02083907,0.011847361,-0.0857923,-0.012136526,0.008953272,0.011657526,0.11573314,-0.07003792,0.0008725313,-0.096984856
-0.0544072,0.092757486,-0.11977513,0.049532987,-0.07456383,-0.14641206,0.03561334,-0.011414898,0.03379179,0.07952605,-0.033826526,0.015291998,-0.10490717,-0.06850789,-0.020016635,-0.049493454
-0.053309243,0.05526406,-0.024062028,-0.06356615,0.019281987,-0.12188144,0.057760634,-0.053623237,0.077791385,0.10978204,-0.03859448,0.1029288,0.07475706,0.1045334,0.089824006,-0.05979311
0.0025055048,0.15161532,-0.18856773,-0.043031275,-0.16382745,-0.050260592,-0.118165806,0.061049163,-0.030078908,-0.09850307,0.10306853,0.064837664,0.030611916,-0.039048996,-0.06959617,-0.020841781
-0.08130632,0.115319826,-0.21413858,0.15139261,-0.07642151,-0.15571524,0.08654092,-0.04119473,-0.06570319,-0.024926774,0.025633078,0.064087436,0.07444995,-0.040659476,0.127608,-0.23213187
0.1392744,-0.057252973,-0.114804514,-0.08565488,-0.21872419,-0.10080384,-0.06635462,-0.12863302,0.027917335,-0.037904676,0.043679055,0.13068375,0.010804694,0.035831306,-0.10638223,-0.06126797
0.107106976,0.017275808,-0.07175645,0.04829657,0.03574137,0.030154442,-0.11460007,-0.012536593,0.03236065,0.09161335,-0.09484265,0.083502516,0.09051457,0.05766987,-0.09159194,0.08606002
-0.053563338,-0.064867474,-0.05534969,0.032084838,0.0013190473,0.025968025,-0.06094113,0.021927861,0.03213851,0.0982638,-0.003931016,-0.07176028,-0.038802963,-0.099983424,-0.025521377,0.0739178
-0.07305638,0.070605956,-0.16138434,0.06564961,-0.04262465,-0.036703426,-0.12424841,-0.22744377,-0.091469355,-0.076092035,0.03424756,0.099034406,0.035362042,-0.0066449908,0.04625319,-0.16269329
0.024024857,0.1379494,-0.13467987,-0.012657064,-0.05392261,-0.12131091,-0.0011002234,0.030875618,-0.08060788,-0.02293331,-0.10022165,0.110925145,0.061466374,-0.1028074,0.07359168,-0.12038141
0.087305635,0.19574082,-0.068283536,0.09896031,-0.08159678,0.04235007,0.010479334,0.077838644,0.0597789,0.10585552,0.119009845,0.003688263,0.10544004,0.020406881,0.21320546,-0.14437132
0.15646654,0.105495095,-0.12014125,-0.046364833,-0.048421234,-0.10698256,0.03393437,-0.17819689,0.12836549,-0.026132546,-0.023736976,-0.03080165,0.02252493,0.087412864,-0.08320161,-0.0981277
0.07283389,0.10170666,-0.09686913,0.045450702,-0.100092135,-0.10378528,-0.11860615,-0.17376488,-0.045059882,-0.004679427,0.08036292,-0.082507566,-0.079424225,-0.07408878,0.1069785,-0.100085616
-0.040415946,0.1569031,-0.10668859,-0.05444777,-0.24550372,-0.06996691,0.057998724,-0.005161201,0.11362682,0.08713381,-0.012254995,0.12116102,-0.039406125,0.045210633,0.12897065,-0.21832086
-0.1138467,-0.023128461,-0.09083078,0.08125409,-0.043955162,0.026023384,-0.05857094,-0.070664026,-0.016164582,-0.012313342,-0.11890252,0.07677557,0.048307046,0.088721454,-0.05629581,-0.04110635
0.04133605,0.047763586,-0.19678693,-0.0424741,-0.22430952,-0.27739355,0.05813071,0.0013984453,-0.10542236,0.09403552,0.04188073,0.06573562,0.04016104,0.121253364,-0.027734332,-0.051012237
-0.050501786,0.04258088,-0.21654612,0.07768143,-0.12906131,-0.20943467,-0.07157059,-0.0045328094,0.044694275,0.055060007,-0.037340842,-0.10916393,-0.1246828,-0.12898083,-0.004106598,-0.039363455
-0.017846772,-0.06555198,-0.08501446,-0.12398984,0.04119749,-0.1326516,0.10758874,-0.22594684,0.006809293,-0.0687876,-0.012908309,0.08031302,0.101565726,0.04096363,-0.15364835,-0.16848262
0.01110133,0.026829053,-0.17752267,-0.055986013,-0.11385484,-0.064042844,0.062072054,-0.12591624,0.12180188,0.011105476,0.13632035,0.010062107,0.07567681,0.010942057,-0.10359058,-0.18907978
-0.023877455,0.11036857,-0.24352413,0.013255607,-0.26122615,-0.059413437,-0.10617017,-0.10811642,0.06668893,0.12199527,0.025794152,0.03440388,0.022875864,-0.08088103,-0.050354373,-0.17140485
-0.06048452,0.051808946,-0.15061478,0.024508743,-0.025504543,-0.079021774,-0.0641274,0.008935461,0.026200028,-0.11255468,0.11396119,-0.022968052,0.0051396424,0.09260264,-0.0038747324,-0.11725728
0.041446574,-0.0070071965,0.10235067,-0.07733111,0.124247655,0.14032982,-0.13839887,0.08659194,0.0094094435,-0.09321657,-0.030447802,-0.096025065,-0.07793489,0.06510189,0.09882066,0.14401816
-0.0030362138,0.10679214,0.02043361,0.12288532,0.026595995,0.015511763,-0.050315168,-0.02484063,-0.087713204,-0.04695483,-0.054270446,0.02645249,-0.005061675,0.08245442,0.09418496,-0.14906389
-0.01504032,0.018383624,-0.087689064,0.07280585,0.006279924,-0.068034604,-0.039347786,-0.08586107,0.08256932,0.1145444,-0.13017488,0.008230211,-0.044307616,0.049238704,0.03403985,-0.106314555
0.04393385,-0.053968016,0.061122846,-0.015124986,-0.07354804,0.14066407,-0.03660115,-0.076620035,0.10823213,-0.0027496594,0.0017755781,0.056779098,-0.1206894,0.07013937,0.02018471,0.03696723
0.07472315,-0.05928861,-0.1585511,-0.065433,-0.16413459,-0.11884112,-0.040391777,-0.018547377,-0.011842305,-0.076419204,0.040812362,-0.08106906,-0.008524564,-0.03893409,-0.045803193,-0.018278595
-0.015489521,-0.019721242,-0.08856165,0.040283993,-0.09472936,-0.13510059,0.054040805,-0.16704752,0.045479927,0.119080715,0.071996264,-0.06861159,0.09628572,0.07262653,0.020680483,-0.016807841
-0.07867462,0.092539795,-0.10523205,0.0756698,-0.2261887,-0.028321562,0.12261211,-0.080125004,-0.08538439,-0.008497634,-0.05977356,-0.03956021,-0.112852424,-0.0012980379,0.17388405,-0.112545095
-0.05529123,-0.040250827,-0.1541071,0.043772336,-0.025540248,-0.12262266,0.11304511,-0.10961644,-0.024847623,-0.007484051,-0.14958096,0.019770784,-0.020054504,-0.10759133,0.13792205,0.053752437
-0.11858388,-0.049355064,-0.18536282,0.04869177,-0.23871836,-0.093210645,0.16155045,-0.018766146,-0.13280156,-0.04257398,-0.010845788,-0.006387473,-0.054752566,0.13455269,0.11815059,0.0073676477
0.004300985,0.13820721,0.032532603,0.0075457175,0.045828264,-0.074735545,0.09571054,0.102766015,-0.0051487754,-0.0032788776,0.0109147,-0.0021760259,-0.056428265,0.1159794,0.10480848,0.008877017
-0.064755864,-0.07563097,-0.049534693,0.06839505,0.073281676,0.11255209,-0.08814047,0.09110031,0.031534698,0.09682974,-0.031058446,-0.09880008,0.0052726245,0.021159664,-0.046998475,0.13587174
0.054286286,-0.0451749,0.019989973,-0.07205558,-0.13020158,-0.08051134,-0.035883307,0.009855568,0.11045972,-0.09606007,-0.07133084,-0.08717521,0.026534041,-0.08152078,-0.09987301,-0.052301046
-0.022629969,0.13463424,0.023776144,0.0708279,-0.017381852,-0.014198648,0.051296473,-0.010968764,-0.11889615,-0.09148454,-0.15587746,-0.026093947,0.030405523,0.086640455,0.105749935,-0.08035723
-0.10957706,0.03709668,-0.041563522,0.09934701,-0.014709918,-0.13379174,0.08605649,0.13502082,0.0353912,0.09581759,-0.044948675,0.007924975,0.050619297,-0.09097661,0.12088747,-0.10572261
-0.1651247,0.04965935,0.029077206,-0.051514916,0.0288782,0.16540483,0.17618589,-0.004090009,-0.21993983,0.17880224,0.030260222,0.086668625,-0.03862716,-0.036975417,-0.13895923,-0.014770317
-0.08900213,0.018728245,-0.08610549,0.06584968,0.08617301,0.067787364,-0.06013653,0.051332213,-0.04664972,-0.12762243,-0.09910403,-0.027556192,0.07187876,-0.017128956,0.055971976,-0.11941425
0.048248045,0.1219883,-0.14752656,0.15680313,-0.0024644795,-0.016965717,-0.0072502717,-0.076418705,-0.038348015,0.018327884,0.099964865,-0.0864107,-0.06555516,0.07876612,-0.010874386,0.005996392
0.11162062,-0.019440772,-0.07676293,0.098381765,-0.13977951,-0.11995206,0.06964425,-0.07143232,0.10010055,0.12454841,0.09644899,-0.10450064,-0.10652042,-0.053933173,-0.067269646,-0.056341678
-0.1053999,-0.0017294413,0.027939238,0.16082783,-0.15390114,-0.054674763,0.0682531,-0.09578627,-0.15600668,-0.046558265,-0.15882625,-0.0002409041,-0.006004777,-0.08765358,-0.067747675,0.0026726734
0.014521446,0.058710944,-0.0033522719,0.052803397,-0.05069572,-0.11141379,0.090406835,-0.0452473,-0.062252738,-0.06511561,0.03731359,-0.08507492,-0.006460204,0.050035946,0.115833625,0.05254769
-0.06751284,0.034285694,0.08770404,-0.11415951,-0.11683328,0.09157123,-0.0185003,-0.044015706,-0.11406166,0.01738523,0.06253401,-0.01344049,-0.074852005,0.08696473,-0.10127118,-0.048407666
0.08490066,-0.027392631,-0.062725455,-0.11739013,0.11581186,0.173985,0.0069679944,-0.07421548,0.026122473,-0.020220913,-0.02497677,0.078440085,0.005591163,-0.08516892,0.0678736,0.021618139
-0.07825152,0.011755372,-0.12840943,-0.028802127,-0.11268292,-0.021464368,-0.09792689,-0.07012363,0.06239518,0.10402874,-0.09729143,0.08379996,0.066012435,0.111338854,-0.053106736,-0.15734747
-0.073227644,0.09723595,0.009690363,0.0031744896,-0.09171015,-0.023580477,0.1150698,-0.028030753,-0.04409351,0.006467308,0.08192827,-0.061961353,0.041746862,0.053494822,0.014001896,0.07620365
-0.08803072,-0.018870102,0.14276864,-0.06537033,0.029341238,0.016429951,-0.011999337,-0.01847383,-0.09321055,-0.035409324,0.06475813,-0.1004276,-0.079311706,-0.009813903,0.069904,-0.04711682
0.032908008,0.023771424,0.00769829,-0.071687534,-0.021879917,0.10620234,-0.12753788,-0.012151413,-0.048945446,0.09758103,-0.13094449,0.047955945,-0.105220385,0.06272995,-0.054683417,-0.05860455
0.065534085,-0.09390684,0.007862034,0.014036641,0.076431215,-0.12630863,-0.0035211933,0.029162511,-0.0098510105,0.1150791,-0.1377688,-0.054160167,-0.020468283,0.03313788,-0.016691532,0.014289636
0.04373908,0.0205857,-0.028608952,-0.10968456,-0.21092908,-0.15658826,-0.070538014,-0.11007178,0.0793581,0.07005501,-0.08986536,0.06455559,-0.0661738,-0.11395548,-0.12389277,-0.033590138
0.08030742,-0.01325721,0.051620327,0.06870741,0.09242586,-0.032705836,-0.000578236,-0.099787794,-0.01612115,0.118661255,0.052726567,-0.016946359,0.027766112,-0.09668827,0.14368068,-0.018019596
-0.095914796,0.057053164,-0.11064579,-0.053721018,-0.11535442,-0.10213825,0.05954927,-0.015452133,-0.010423096,-0.12672406,0.09150915,0.11436435,-0.09576452,0.033078495,-0.12556869,-0.0053042555
-0.12353796,-0.16499808,0.032762364,-0.005980617,0.069043346,0.061677463,0.0055496525,-0.083407976,-0.017058557,-0.035785694,-0.08026471,-0.055745557,0.0863769,-0.00626921,0.06678657,-0.02191127
0.04018875,0.0810886,-0.025409307,-0.08459957,-0.19442178,-0.21446627,0.033064146,0.035025943,0.084965855,0.055484287,-0.048204634,-0.011970298,0.03467601,-0.0021003755,-0.04257418,-0.029598905
0.0058695907,0.15693669,-0.008750365,-0.07174559,-0.017710177,-0.15558088,-0.0021894053,-0.013537698,0.112983264,-0.09139395,0.004189862,-0.060085684,-0.13313022,-0.1582221,-0.050788272,0.06260044
0.030661926,0.049134914,-0.12552041,-0.08705162,-0.17349093,-0.13546711,0.05997549,-0.16927347,0.07094313,-0.023217924,-0.017698329,0.086189635,-0.08519429,-0.035120033,-0.107405,-0.19326161
0.104375236,0.029491805,-0.007746522,0.053708136,0.010659524,-0.19902423,-0.015910935,-0.10725596,-0.005175228,-0.00535463,0.07437073,-0.10850318,0.046114016,0.009266015,-0.06700245,-0.016072454
0.007857836,0.07329193,0.03449814,-0.008593292,0.030410878,0.06659163,0.017243078,-0.052755084,0.04066543,-0.037430406,0.071359314,-0.07169251,-0.033014677,-0.04407481,0.017431283,0.17157806
-0.15331274,-0.0793159,0.041786086,-0.06766239,-0.12435157,-0.16830589,-0.058498323,0.0028368714,-0.002354095,-0.119468294,0.0276156,-0.019344974,-0.08306842,-0.1256373,-0.046830676,-0.17457134
0.029207641,0.051609706,-0.0038260368,-0.104176424,-0.043559235,-0.15194933,-0.1056115,-0.058729853,-0.038526446,0.1137703,-0.08936544,0.059135582,-0.08614564,0.04693804,-0.061464217,-0.1072504
0.081797965,0.09521316,-0.08222675,0.16119948,-0.071135595,0.015196693,-0.017047094,-0.07183819,-0.045442563,0.06921647,-0.11196054,-0.100864395,-0.03887949,0.040966976,0.0053866385,-0.10556274
-0.08475361,-0.09722607,0.09515249,-0.0019913327,-0.09313099,0.059493646,0.024485407,0.122380085,0.09423973,-0.015277385,0.11712819,-0.0530094,-0.076896735,0.11350498,-0.09106922,0.106901854
0.11598001,0.071578376,-0.17066707,-0.012730074,-0.087284885,-0.13173473,0.10783123,0.031678695,-0.05007666,-0.088966064,-0.08436394,0.043374375,-0.09225411,-0.1127862,0.14968589,0.06775242
-0.033752937,0.052964758,-0.0044753235,-0.058330733,-0.11551765,0.06241097,-0.07338225,-0.0051821563,-0.10329105,-0.031715214,0.017942047,-0.03512097,-0.07880443,-0.121163726,0.0009478042,-0.04502496
0.024282925,0.06077859,-0.20132077,0.11015515,-0.043493245,-0.16689797,0.040691048,0.0061547444,0.106209226,-0.07383079,-0.0037183876,-0.11197752,-0.008388782,-0.036868487,-0.070905834,-0.16107734
0.03561324,0.04871034,0.021160243,0.0051268996,-0.053940512,-0.11969644,-0.03174225,-0.082699314,0.15534925,-0.11667187,0.08165803,-0.029762272,0.07271824,-0.035524704,-0.07962651,-0.043170072
0.00829961,0.031980798,-0.029817468,-0.049747176,0.046939682,-0.011026384,0.16990243,-0.12062061,0.022776091,-0.05112047,-0.06939547,0.025896747,-0.06246593,-0.11827145,0.025160832,-0.13350989
-0.035602156,-0.008747847,0.06700482,-0.028923552,-0.11181534,-0.16566595,0.08919866,-0.08859766,-0.12638608,-0.006929855,0.009869064,0.120225586,0.12279706,-0.0073475973,0.1304406,-0.06177392
-0.10535117,-0.035384905,-0.1683254,0.118851885,-0.25130394,-0.20056966,0.09845093,0.00043123338,-0.114748254,-0.029166868,-0.09520209,-0.037365276,-0.031027725,-0.028355943,-0.04814448,-0.08297197
-0.09406206,-0.041274726,-0.036577713,0.10890564,-0.099304296,0.109346576,-0.05846507,0.10401562,0.004239777,-0.11797735,-0.068201564,-0.03227486,0.013497733,0.1254143,-0.057423804,0.02141356
0.084313564,0.048011977,-0.071528785,0.088251576,0.08435399,0.07347493,-0.07236699,0.11955535,0.050474174,-0.023797048,-0.05503622,-0.016330821,0.03720151,-0.054737464,-0.00509565,-0.012428166
0.021471515,0.025954029,0.01206152,-0.12354558,0.05580181,-0.11423955,-0.1216814,-0.14043729,0.11989361,0.0046814545,-0.068894155,0.031306792,0.04790658,0.038250465,0.04014852,0.056039903
-0.067336366,-0.051018335,-0.055434734,0.04316978,0.08485861,0.041861705,0.044141278,0.038323898,0.021587325,0.064941496,-0.14828485,0.069886714,-0.011678822,-0.09318699,0.082337394,-0.03474306
0.04643507,0.10292102,0.02514372,0.08821423,-0.014826631,-0.07442373,0.09903481,0.09102878,0.08749786,-0.098926105,-0.058205664,0.08507064,-0.04194228,-0.0444323,0.102413476,-0.063164935
-0.11016642,-0.08959776,0.13217735,-0.080420844,0.01718155,-0.068685874,-0.010226606,0.1665739,-0.025558284,0.09226122,0.054289117,-0.033353467,0.09942926,0.098492205,0.014570954,0.056224994
0.0054814927,0.075159885,-0.1074797,-0.101359665,0.116211735,-0.031701,0.084649056,0.030375794,-0.0976504,0.0125916805,0.011360078,0.076295435,0.100097544,-0.0077132992,-0.015184724,0.06740608
0.045695294,-0.104346454,-0.22800258,0.05053575,0.015686765,-0.07463445,-0.114239976,-0.055079408,-0.009497028,-0.13383266,-0.04405829,-0.05926673,0.0638651,0.057427395,-0.08742109,-0.13538554
-0.014440252,-0.01001739,0.034507614,-0.13677809,-0.06662754,-0.048087947,-0.10440735,0.0065028034,0.10724715,-0.0750836,0.04592041,-0.11314487,-0.06860267,0.11833243,-0.11858254,-0.06784625
0.11994757,0.03356373,0.070809945,0.10692475,0.023778874,0.02008524,0.046412203,-0.01795593,0.044996914,-0.061663155,0.0549755,-0.08462252,-0.1139016,-0.12779608,0.07075925,0.12753989
0.0064905235,0.06738042,-0.050850905,0.009177324,0.0014505647,-0.042729896,0.0792096,0.08948547,0.0578644,-0.07060686,0.06232527,0.014601956,-0.027276915,0.11960172,0.040620513,-0.015268172
0.011125711,0.028179707,-0.13439438,-0.071236014,-0.041702524,-0.2509695,0.12301675,-0.17524496,0.0034254629,0.07609194,0.09721841,-0.07202513,-0.030320551,0.11026122,0.10905016,-0.0864636
0.045018367,-0.07693717,0.00012273622,-0.0662465,-0.08756378,-0.006244768,-0.026948443,-0.102906466,0.07520125,-0.06498114,0.07448544,0.111224115,-0.11003981,-0.01623133,0.110696815,-0.15882638
0.035051893,-0.033633377,-0.12071556,0.0036922162,-0.06414274,0.051624134,-0.057787303,0.0851282,-0.0033203512,0.087814175,0.100186564,0.069841094,-0.08084824,-0.1074257,0.008646871,-0.027263395
-0.086807735,-0.062422868,0.049017526,-0.10252605,0.029657021,-0.19292636,0.090790786,0.06725773,-0.06263708,0.100466415,0.0851788,-0.09004161,0.07672789,-0.060437404,-0.10402623,-0.06541555
0.09991927,0.027801258,-0.13847813,-0.06507635,-0.09440392,-0.052927885,0.140154,-0.10336211,0.17674586,0.10739395,-0.112816125,-0.060248267,-0.016406866,0.044016857,0.011440595,0.038095456
0.09588727,-0.00959713,-0.09492064,-0.061852384,-0.036759354,-0.054895826,-0.01858557,-0.036784545,0.01057419,0.041461244,-0.094001874,0.04860029,-0.08674964,0.06421886,-0.061201982,-0.07695952
-0.08923784,0.124948665,0.008152098,0.109401114,-0.04019749,-0.20738451,-0.112532705,-0.078824975,0.028276283,-0.10545254,0.03327736,0.014863318,-0.11227584,0.012393522,0.05691304,0.00568475
0.026898157,-0.06847039,-0.11979882,0.07760295,0.032852706,-0.065349534,0.037150223,-0.036718868,0.0076660146,-0.0977055,0.011182808,-0.06974769,-0.021073446,0.07850059,0.09856361,-0.03243292
-0.05551713,-0.039654873,-0.00050775317,0.08083956,-0.09840966,-0.1293372,-0.028774673,-0.0889514,0.066251524,-0.013144421,-0.08517243,0.01331723,0.015963888,0.034412418,-0.0885323,-0.118150964
-0.014734213,-0.14493996,-0.082050145,0.12339245,-0.25353307,-0.060874462,-0.02201177,-0.20009108,0.0037767345,0.05112795,-0.14335698,0.045389954,0.070897244,0.092263035,-0.056076877,-0.18326205
0.12346796,-0.05452034,0.07399484,0.067407,-0.060856108,0.06517559,0.13162099,-0.07328168,-0.04549835,-0.041165985,0.01507542,-0.0825676,0.044961456,-0.13186057,0.068213664,-0.10131909
-0.10201009,0.004607409,-0.20356685,0.042276524,-0.19763975,-0.022870867,0.0425381,-0.120104425,0.09117529,0.08159306,0.08639983,0.080933094,0.10578584,0.039882474,0.019662108,-0.17129423
-0.010348983,-0.06508533,-0.013073302,0.021084243,0.059889507,-0.11215195,0.010257741,-0.01978639,0.061532333,-0.023437327,0.014544237,-0.035698645,0.10570356,0.06557242,0.13011584,0.0194871
-0.026574316,-0.072250724,-0.069996364,-0.06761602,-0.061592925,-0.09922819,-0.10567906,-0.22231656,0.05792424,-0.107748896,0.1022821,0.09513502,-0.041138202,-0.01259421,-0.12128031,-0.071475044
-0.04222266,-0.12606654,-0.1550554,0.03207782,-0.10471841,-0.21359415,0.0091828285,-0.16013883,-0.042251687,0.13735557,-0.08470623,-0.031888105,0.07169764,-0.065369785,0.08911661,-0.13663751
-0.13603973,0.00068190746,-0.1496347,-0.117003255,-0.028059082,-0.10909411,-0.024619227,-0.112139694,-0.1854104,-0.035791893,0.059633683,0.07814454,-0.10231811,0.01725112,-0.011542005,-0.11267123
0.09906289,0.100454874,-0.17588377,0.030878058,-0.18306825,-0.13005099,-0.0588426,-0.07852479,-0.024958935,-0.08810637,-0.102879256,-0.0012189266,-0.08255759,-0.06133472,0.07479177,-0.010197534
0.064386494,0.10109017,0.0943697,-0.034384135,0.07386891,0.0544976,-0.043154977,0.18429299,-0.0623694,0.07407836,0.006078417,-0.015071663,0.04569621,0.09911167,0.1019611,0.0239395
-0.091727175,0.068330035,-0.23579887,0.12888585,-0.050082978,-0.07393765,0.019382497,-0.10059499,-0.03689481,-0.103239164,-0.015408407,-0.0058232527,0.045496237,-0.118663065,0.1578394,-0.1369012
-0.10003802,0.036182396,-0.013748788,-0.037952956,-0.1734084,-0.011575352,0.07476007,-0.16593212,-0.090331934,0.0319423,0.045088876,-0.014335181,-0.018494636,-0.015017023,-0.07017175,-0.14909084
-0.14610657,0.031229718,0.023538925,-0.052617434,-0.1806808,-0.1547379,0.0397072,-0.068627246,-0.14810528,0.12385464,0.018403893,-0.055276673,0.12790099,-0.0777472,0.08111911,-0.05287294
-0.10598755,-0.089525595,0.11199927,-0.12605508,-0.006796373,-0.046164613,-0.012040006,0.02414429,-0.14487016,0.00071681896,-0.020709299,-0.13180737,0.06410109,0.009798806,0.08289031,0.11020861
-0.19033732,-0.06888524,-0.17219697,0.13872969,-0.24406013,-0.035667777,0.014715052,-0.049438942,0.008490004,-0.103312194,-0.119420126,0.031956453,-0.13870235,-0.06587254,0.109227546,-0.108570926
-0.11066189,0.09176484,-0.11699532,0.11229047,-0.017185763,0.012046584,-0.10283526,-0.07933981,-0.022956867,0.06822337,-0.07280313,-0.11034101,-0.050589606,-0.052815046,0.05028588,-0.027744573
0.1168476,0.0905704,-0.19090326,0.050382365,-0.07871437,-0.054579835,-0.06197995,-0.19399296,-0.08721826,0.07677198,0.1201026,-0.06265852,-0.06735007,0.042255133,-0.025242569,-0.19223888
0.06917978,-0.12269983,0.046517927,-0.09313141,-0.101553984,-0.0119255865,0.0054636844,-0.07860387,0.0032977336,0.10019596,-0.0036201451,-0.018917073,0.054409303,0.037427276,-0.06753763,0.02722722
0.08767901,-0.0816742,-0.015081168,0.007059565,-0.091884084,0.042966165,0.08976534,-0.08936621,-0.10439057,-0.06260841,0.10652634,-0.074133635,-0.10102206,0.05960674,-0.07943783,-0.049106997
-0.021326132,0.05458425,-0.13797867,-0.044435848,-0.14149916,0.0061134393,0.024719436,-0.1390472,-0.10438557,0.11144016,0.077975504,-0.025909295,-0.07131498,0.13839863,0.021466644,-0.04894728
0.02577423,-0.11244993,0.015190482,0.1370707,0.1060676,0.06833467,-0.04054549,0.015371843,-0.10528519,0.07926721,-0.13490294,0.104463205,0.040591262,-0.13635285,0.093969256,0.116504684
0.0042847,0.07600127,-0.08400517,0.10317153,0.050975442,0.062363513,-0.04173666,0.026588347,0.006332819,0.049370367,-0.060403034,-0.040404696,-0.10094492,0.11624937,0.11411263,-0.0023877604
0.0275053,0.024695689,-0.15763399,0.09803545,0.026681008,0.018761493,-0.07251703,0.022260368,-0.08322892,0.047392335,0.03723716,-0.061138764,0.09361003,-0.11416513,-0.041482978,-0.12042928
-0.06684218,0.0060035987,-0.19037025,-0.100103356,-0.1164955,-0.07732923,0.07643993,-0.15413435,0.0028805532,0.08285573,-0.055572182,0.036000527,0.09677173,0.019163074,-0.022280099,-0.0026687528
-0.11087982,0.018276967,-0.17339616,0.07812589,-0.017204821,-0.11185324,0.14255574,-0.035871606,0.09958855,-0.029337853,0.13883713,0.08141481,0.048432,-0.07606092,0.04517899,-0.053760998
-0.049811758,0.005986141,-0.017510561,-0.10294143,-0.13078594,-0.14774539,-0.042464584,-0.07277046,-0.16668351,0.05679753,-0.10557986,0.14848584,0.025886837,0.07564537,0.056567077,-0.17157407
-0.073863834,0.039673205,-0.16865507,0.03143192,-0.037627507,-0.09775437,0.046784822,-0.0034376031,-0.18644235,0.032339454,-0.14936656,0.066778734,0.030357847,-0.056680534,-0.097742744,0.09532897
-0.12594907,0.015015725,-0.039785355,-0.031590078,-0.17048182,-0.03697207,0.038436685,-0.17592716,0.015685985,0.1129728,0.05662378,-0.06638075,0.10697205,-0.028278444,0.10250134,-0.16036156
-0.050826248,0.13617367,-0.13491392,0.07207938,-0.024707647,0.004397989,0.014409262,-0.007939497,0.09136212,-0.028330574,0.03479201,-0.071071096,-0.0062856614,0.05508842,0.0003249324,0.010376134
0.0797911,0.004137155,-0.014584005,0.06416605,0.13009839,0.08555055,0.0122366715,0.09624548,0.044228185,-0.11891547,0.036750864,-0.0040708906,-0.048805114,-0.07958016,0.0551689,0.036279436
-0.12678745,0.0071983654,-0.13535863,0.061958365,-0.028196396,-0.08001153,0.08766304,-0.16716133,-0.06324554,-0.070565216,0.039108317,-0.10238136,-0.13613172,0.07588998,0.07820256,-0.106344454
0.038244583,-0.078985214,0.0045121433,-0.034310844,-0.120856516,-0.1373449,0.0052566207,0.034733694,-0.14722149,-0.010073238,-0.13462532,0.040244393,0.07260552,0.12095583,0.08305116,0.0086684525
-0.15664582,0.02242689,-0.025344165,0.18082675,0.060282346,0.123672895,-0.056835786,-0.09522028,-0.09183822,0.19982877,-0.14539947,0.058432516,-0.04587071,-0.090775594,-0.08051783,0.14172421
-0.010134261,-0.07871593,0.059755802,-0.07070936,0.11481562,0.10069914,0.10587772,-0.060432974,-0.071744025,0.0080910735,0.042521942,0.113108195,-0.07035204,-0.020475987,-0.07581981,0.016103938
0.11339522,0.010253503,-0.13233386,-0.07437307,-0.024460686,-0.1516683,0.06605834,-0.03332735,0.049136624,0.05990641,0.12145612,0.06539312,0.003866237,0.101259835,-0.08538121,-0.01610434
0.034633275,0.09061468,-0.06319922,-0.05498554,-0.060119834,-0.27429116,-0.0672174,-0.22435123,0.015142856,0.05043464,-0.04763034,0.016640995,0.111311495,0.04732321,-0.10395073,-0.2543484
0.01764754,-0.055785406,0.022266122,0.01624861,-0.014219824,-0.08158925,-0.0087665925,0.0019023025,0.13442959,0.06932281,0.032388963,0.07196125,-0.06989188,0.10581512,-0.10307764,-0.07333851
0.056459635,-0.07245655,-0.19272391,0.122975126,0.016089449,0.028195586,-0.051468644,-0.086754724,-0.0052411146,-0.031599354,0.011255728,0.06636653,0.08104176,-0.03917759,0.100250326,-0.12064757
0.04087153,0.06498107,0.022489352,-0.046042696,-0.1584713,-0.10138297,0.07841165,0.023788068,-0.12447927,-0.025768194,-0.1493936,-0.058300927,0.028764507,-0.069021665,-0.11188132,-0.04620806
-0.05225101,0.092285715,0.0069602835,0.031860944,0.13310777,0.004799155,-0.043709792,0.051898234,-0.045722708,-0.10048067,-0.04019551,-0.06716019,-0.019790076,-0.0065329834,-0.0790504,0.0107532125
-0.090185225,0.08310378,-0.06746894,0.016568987,-0.099092476,-0.14560343,-0.08153342,0.022423098,-0.028439026,0.118402675,0.043882225,-0.10415973,0.07318414,-0.09796378,0.078267105,0.023245484
-0.07042165,-0.044053864,-0.19799826,0.056804117,-0.20734705,-0.20471343,0.006606297,-0.24187009,0.06734938,0.021607246,0.049985766,0.055793077,0.06392697,0.1004252,0.050476216,-0.18193117
0.13152315,-0.077879764,-0.17558499,-0.028418858,-0.20183502,-0.036567748,0.07197843,-0.11998488,-0.01048469,0.06747431,0.019467894,-0.07467603,0.081720605,-0.07297422,0.05219438,-0.11468
0.020695336,-0.13063884,0.026494836,-0.09536623,-0.0993523,-0.04760264,0.11691939,7.653067e-06,0.070020266,0.07537703,0.07152068,0.12234752,-0.026958441,-0.10963768,0.058612753,-0.030987896
-0.059811343,-0.028204866,-0.16972777,0.12257631,-0.22480153,-0.14413296,0.06515731,-0.14041613,-0.099541895,-0.028174872,0.0039859815,0.014342541,-0.017160116,0.029910982,0.11504723,-0.063318424
0.014317516,-0.079757035,-0.16102704,-0.035922896,0.043107703,-0.0060686916,-0.075934544,-0.14096302,-0.040929876,0.034527335,-0.008532602,-0.017026296,0.0042179464,-0.013763325,-0.08594124,-0.10157024
0.042000245,0.14629667,0.006120972,0.07553172,-0.13072862,-0.031931926,-0.075324714,-0.025781149,-0.055395897,0.05618032,-0.10582266,0.030482585,-0.079499274,0.08507545,-0.050699282,-0.17819561
0.07603924,0.054347448,0.07035168,0.041391656,0.04634835,-0.017588645,0.10263271,-0.11690134,-0.10951764,0.01086677,-0.007833163,0.12143215,-0.11601329,0.10783647,0.07891782,0.038872425
-0.025669107,-0.0689608,0.04713689,0.08477754,-0.07889969,-0.115184225,0.017267285,0.07252464,0.04696737,0.0643298,-0.064508244,-0.0019454233,0.091554195,0.09005899,-0.07818854,0.050898843
-0.027258903,-0.039550938,-0.077270016,0.07111775,-0.14623,-0.20449413,-0.08115882,-0.16638802,0.16264153,-0.022028025,0.120824985,-0.07050075,-0.10337791,0.029431118,0.05790677,-0.00683378
0.0731653,0.027158717,-0.029019617,0.032447055,0.12994799,-0.027735747,0.12672439,0.03149817,-0.042499803,-0.04240944,-0.04474937,0.14726608,0.013982245,0.0077456674,0.10156395,0.16095611
-0.090612836,-0.030124674,0.11019417,0.13123338,0.03454202,0.09863815,0.06444599,0.0073971576,0.102492735,0.10383018,-0.11307565,0.061890315,-0.084160686,-0.09551299,-0.04216868,0.13397206
0.0048144357,-0.08033118,0.11861569,0.052220564,0.18035235,0.17827874,0.075737625,-0.015310304,0.0518006,-0.12379981,0.07058832,0.058866385,0.06572717,-0.09973389,0.123367175,-0.019129591
0.10362694,-0.006703885,-0.029644776,-0.0827889,0.022372123,-0.14418423,0.1002378,-0.050940882,-0.07348752,0.0380639,-0.08577316,-0.061949756,0.008488281,0.006450954,-0.009336236,-0.029965742
0.023140602,-0.01930232,0.041623995,0.008154571,0.046358656,-0.017686108,0.110802256,-0.007664927,0.02831885,-0.11960011,0.07181618,0.055054728,0.09533633,-0.09064974,-0.093281634,-0.026894314
-0.06261801,-0.1191468,0.013124939,0.0020152903,-0.024089087,-0.035812594,0.084731765,-0.09990117,-0.107010156,0.05001495,0.031625547,0.14195427,-0.0055469777,-0.10279107,0.045372427,0.07316387
-0.040556755,0.1261565,-0.17441842,0.12143467,-0.012186814,-0.123886734,-0.06986789,-0.12977636,0.18690147,0.048647124,0.15321785,-0.0036310498,-0.13039044,-0.11601521,-0.010323385,0.04776524
0.031009905,0.017743409,0.03006104,-0.08419968,-0.1770444,-0.17814015,-0.09543152,-0.03834599,0.045192216,0.030051403,-0.046359885,0.036093578,-0.004411915,-0.11365609,-0.09128789,-0.039806377
0.027280634,-0.04130379,-0.20761025,0.09823253,-0.030128025,-0.22105725,0.06611627,-0.107091345,-0.010458798,-0.027490612,-0.010559565,0.015409763,-0.0030762574,0.106938,0.10483795,-0.2050505
-0.021492565,0.022508996,-0.13686521,0.11030427,-0.067973465,0.060059458,0.036529746,-0.11506871,-0.085285515,-0.051950857,0.009625921,0.052274816,-0.09402536,0.103617154,-0.11910405,0.014987413
-0.098874114,0.06796017,0.03681066,-0.025686342,-0.11948123,-0.13907005,-0.10356587,-0.0020457355,-0.057567716,-0.017645063,0.13084686,-0.056718342,0.07619458,0.09315922,0.042378567,-0.076625556
0.09390857,0.09841653,-0.19062081,-0.0077156196,0.011404176,-0.12545957,0.018103136,-0.02291491,0.0758555,0.03285089,0.0972202,-0.100886,-0.10021311,-0.0075673196,0.052953444,0.055189345
-0.07528558,-0.06207587,-0.15902507,0.027327701,-0.029126536,-0.009411663,-0.04882785,-0.04431693,0.16103068,-0.004159242,0.029189624,-0.10783404,-0.13811846,0.0008687237,-0.021298299,-0.19995578
0.011841442,0.040154077,0.01701531,-0.0708652,-0.054285362,0.041459035,0.007238799,-0.09425185,-0.056100056,0.089144446,0.02971265,-0.03293814,0.022971345,-0.0734661,-0.021439001,-0.024152735
-0.041763924,-0.03398431,-0.17009902,0.007791934,-0.067419834,0.062315974,-0.11367502,-0.009527806,0.09984585,-0.085738994,0.12065329,-0.07481231,-0.004365125,0.10662588,-0.064434,-0.10361339
-0.1082045,0.08564609,0.02002015,-0.07503877,0.08638543,-0.118143894,-0.04490112,-0.1084624,0.010154022,0.01828888,-0.09542516,-0.09644979,0.06207171,-0.09042843,-0.024263723,0.07650906
0.080620416,-0.0433732,-0.12704776,0.012281253,-0.1325533,0.016431946,0.065437086,-0.112247705,0.09037392,-0.07578687,-0.09026258,-0.0104417335,-0.030635528,-0.06183453,-0.12227389,-0.111087814
-0.041940544,0.1263488,-0.016207412,0.0418254,0.124012694,-0.075285316,-0.05655592,-0.051379617,-0.076481625,0.07522637,0.07063918,-0.05328146,0.051149026,0.11126382,0.11947115,-0.06835858
0.18629079,0.107610494,0.0025463447,-0.11438519,0.007474607,-0.015069924,-0.103718325,-0.013443001,-0.03495749,0.027837053,0.117972866,-0.05375047,0.02630799,0.07514076,0.064395435,0.005809084
-0.12634762,-0.016034443,0.061900306,0.10198638,-0.03693948,0.024448508,0.07517773,0.00014909488,-0.11067894,-0.104499675,-0.06589355,0.034759372,-0.07225619,0.07556476,-0.012462808,0.07248511
-0.043006904,-0.092187,0.052413184,-0.054843564,-0.09290688,0.08396366,-0.111783266,-0.11433928,0.109668985,0.107505396,0.0339913,0.08673227,-0.092239454,-0.036203757,-0.023192935,-0.11969036
0.04602312,-0.084850214,0.060687985,-0.01041649,0.06415825,-0.09092869,-0.0674171,-0.071572825,0.030825378,-0.109739155,0.056485657,-0.029894294,-0.03508874,-0.06955929,-0.0219776,-0.026522812
-0.030158939,-0.053604063,-0.12243362,-0.059791308,0.023523921,-0.17396495,0.01734727,-0.029847883,-0.06547199,-0.14087015,-0.10353162,-0.13592836,-0.092076406,-0.07520205,0.05374015,-0.114293344
0.15530778,0.1442184,-0.12791723,-0.051554363,-0.11068145,-0.09275699,-0.11987849,-0.09766016,0.15788558,0.048418116,0.05855687,-0.09679533,-0.0809588,0.092112966,-0.037169628,-0.20650037
-0.021829404,0.09769126,-0.038064465,-0.08202884,-0.10757625,0.038859587,-0.093323536,0.018839851,0.08550897,-0.12439368,0.13234523,-0.15450476,0.0139937075,-0.05970598,-0.013686406,0.020265283
0.07148937,-0.0533256,-0.09225611,-0.098422006,-0.015875096,-0.14223583,-0.016152047,-0.031324174,-0.08760903,-0.09538652,0.03343358,-0.030125443,0.11350397,-0.0319801,0.038048618,-0.032521393
-0.02699121,-0.015546165,-0.19492237,-0.034793578,-0.17932162,-0.14334482,0.06899514,-0.22813371,-0.09249384,-0.087011516,-0.0011284191,-0.0658993,0.10006239,-0.022405038,-0.10599402,-0.1541711
-0.069874994,-0.007829931,0.028745778,0.11125477,-0.011820665,-0.06736422,-0.008830332,0.04761901,-0.004103506,-0.06495343,0.115919635,0.06961726,-0.002867932,0.006347166,0.11574406,-0.05389189
0.0607404,-0.06768535,-0.1816536,-0.048269857,-0.048136912,0.024635369,-0.022645274,0.019638056,0.06911152,0.045355547,0.018973194,-0.094195835,0.107506596,0.03708081,-0.072665796,-0.019019423
-0.032860033,-0.050506268,-0.16995126,-0.03317444,0.092011355,0.055079624,-0.07720318,-0.05346659,0.15120907,0.011544096,0.028212521,0.023810351,-0.13686521,0.06907233,-0.058393944,-0.17372547
0.10535901,0.14074084,0.007836933,-0.16763914,0.114739515,0.14814125,-0.030625159,0.1122127,0.056854397,-0.14256893,0.008640845,-0.052633997,-0.012343709,0.04164592,0.09297114,0.0017909098
0.048968676,-0.013300983,-0.06836754,0.07496773,-0.049491335,-0.08093732,0.026759539,-0.09808104,0.06559253,0.07240327,0.013659974,-0.029362617,0.022631321,-0.10933468,-0.036822766,-0.012781588
-0.00032729696,0.043799054,-0.14086905,0.08349343,0.025921376,-0.0789954,-0.013318312,-0.15356414,0.0051812856,-0.051132236,-0.087674916,0.039134976,0.054725554,-0.101362124,-0.11756193,-0.11889159
-0.028959118,0.12742352,-0.06460516,0.12778406,-0.11342728,-0.13260031,0.07599849,-0.011602416,-0.09049667,0.007680093,0.08237594,-0.0009830184,0.05270428,0.06728767,-0.018868623,-0.12063225
-0.11134058,0.11806435,0.01984503,0.07591312,-0.09382504,0.05923586,0.07085429,0.08140677,-0.024955899,-0.09480396,-0.050503366,-0.10103753,-0.059895113,-0.07128719,0.12437528,0.038162883
0.1448354,0.0674833,-0.14919247,0.0017357349,0.07526623,0.055183657,0.088598706,-0.013278351,0.026772838,0.05065603,-0.05532677,0.081739604,-0.11541454,-0.042637616,-0.007134458,0.053806167
0.15395783,0.11830342,-0.010744648,-0.012064843,-0.11050317,-0.12289468,-0.13225748,-0.110050224,0.16982459,-0.14217716,0.006747257,-1.2944332e-05,-0.16116251,-0.00056795863,0.07898462,0.039953608
0.027579218,-0.08867971,-0.08678708,0.02378859,-0.029311089,-0.10223746,0.020931758,-0.043271516,-0.09340022,-0.082620695,-0.04834907,-0.03993257,-0.0007893187,0.12049669,-0.023330597,-0.13884273
-0.056956183,-0.08008237,-0.2622644,-0.052405816,-0.2777493,-0.24121365,0.11939777,-0.13737223,-0.047994595,0.13437016,-0.012419761,-0.11682798,-0.09905872,0.0049953014,-0.044959985,-0.23102464
-0.092631854,0.06994915,-0.050405104,0.06323719,-0.25689927,-0.11840203,-0.008256803,-0.062224787,-0.06472614,-0.019078832,-0.056207478,0.027004939,-0.07211903,-0.106734335,0.12616488,-0.05158982
-0.07570825,-0.1041508,-0.1275201,-0.042609815,0.017799787,-0.10863814,-0.071177505,0.08521601,0.03151593,-0.0923405,-0.09304049,0.041526135,0.03253429,-0.11885668,0.12704563,-0.09045982
0.041845374,0.12257484,-0.16144256,-0.049492862,0.017612204,-0.04837794,-0.033481505,-0.019911949,0.15414204,0.117168725,0.14556415,0.04467165,0.07947596,0.03470484,-0.084858574,-0.050120827
0.114491545,0.082015194,-0.0018273232,-0.032132853,-0.042293105,-0.011475628,0.04888606,-0.05551094,0.13014388,-0.16783251,0.09822297,0.022857841,-0.004593226,-0.04646227,-0.018242097,-0.17540206
-0.07455065,-0.016998392,-0.04292883,-0.071823865,-0.1180938,-0.06759987,-0.07253921,-0.19371638,0.014578643,-0.027977271,0.046937782,0.00969331,-0.05399656,0.028215108,-0.030163644,-0.036653753
-0.09098798,-0.07544862,-0.09042806,-0.03476582,-0.09481815,-0.023102682,-0.037804328,-0.12517233,-0.015798753,-0.103027664,-0.028922278,-0.0020603628,0.108232506,-0.10781915,-0.09114624,-0.1462796
0.007754323,-0.093796745,-0.08395997,-0.10903399,0.018352497,-0.1482644,-0.005449783,-0.059443295,0.07216848,0.035209328,0.041188907,0.050148644,0.04375706,0.03432956,-0.10320635,0.05853114
0.03194295,-0.12368983,-0.10650432,0.0908631,-0.12466321,-0.21635388,-0.06361654,-0.13970457,-0.14693874,-0.03152911,-0.078750744,0.05777059,0.09661175,0.100960165,0.073610336,-0.20862342
-0.0487637,0.024618689,0.05898688,0.012295225,-0.03148024,0.036760557,0.09056266,-0.08697714,0.023685394,0.06803363,0.031174751,-0.006969102,0.060983986,-0.020037223,-0.09349157,0.012747087
0.10606068,0.016137987,-0.046647236,-0.055842213,0.052896976,-0.15074192,-0.15189046,-0.06818988,0.035540108,-0.04454133,-5.7940186e-05,-0.14270516,-0.033483047,-0.1070345,0.09632875,-0.02802318
0.10012917,-0.08888414,-0.017404204,0.06163337,-0.0047733467,0.018225845,-0.085715085,-0.10480712,0.06011561,-0.055547435,-0.004231925,-0.10187505,-0.0606776,-0.07365859,-0.08656984,-0.0582387
0.035257492,-0.068017736,-0.05594175,-0.016198505,-0.03420409,-0.07886871,-0.05606055,-0.06762734,-0.099056855,-0.026939794,0.02985298,0.06715934,-0.0985456,-0.045287557,-0.11631638,-0.21190897
0.02294223,-0.09415897,0.036574744,0.0035859526,0.0025936798,-0.054493234,0.032440532,0.10577731,-0.013236324,0.024567276,-0.046751477,0.045016676,-0.10642676,-0.09333622,0.06867236,-0.13316457
0.004767549,-0.024310928,-0.070136644,0.08118785,-0.067356914,-0.07533133,0.09638493,-0.05143266,0.021975225,0.03832212,-0.14429379,-0.09471566,-0.09437345,-0.060834147,-0.10010244,-0.15805896
-0.05612987,-0.050940603,-0.1944167,-0.07697588,-0.116342165,-0.122180715,0.117528334,-0.21330789,-0.050888523,0.0014981952,-0.08456913,0.09906847,0.073761806,-0.078736104,0.09165618,-0.09030311
0.031120088,0.17174396,0.09115824,0.04906801,0.20402025,0.08956037,-0.040560897,-0.0016506815,-0.03272247,-0.14197107,0.080516644,-0.0032473023,-0.039924048,0.004507533,-0.05010449,0.106084116
0.032957263,0.05222064,-0.15469621,-0.0014624514,-0.06118939,-0.21935181,0.03441962,-0.122597836,0.059722226,-0.054484706,0.08889343,0.03490626,0.0034854237,-0.11759047,0.10565758,-0.12146319
0.07115231,0.013351975,-0.10221065,-0.05644029,-0.17758594,-0.0422596,0.07935016,-0.042223427,-0.07955886,0.121965885,-0.00982698,0.06431235,-0.07615903,-0.014815007,0.089136206,-0.07624527
-0.104610085,0.06334158,-0.03198474,-0.07208048,-0.040559318,-0.02992944,-0.043963168,-0.039920796,0.08710433,-0.07540638,-0.016524483,-0.04910894,-0.074292324,0.010520071,-0.056625832,-0.07133671
0.04786264,0.10633038,-0.035404507,-0.02210137,-0.012061976,-0.10718803,-0.06656626,-0.07192575,-0.07338451,-0.02164682,-0.045640018,0.051396746,0.052923903,0.017346943,-0.06452253,0.030269958
-0.05282405,0.027340593,-0.07988711,0.03808165,0.08177399,-0.038962603,0.024350898,0.0050087357,-0.05611625,0.040231194,0.1089913,-0.085229255,0.029260186,-0.08442456,-0.120711215,-0.06393961
-0.008732432,-0.019572014,-0.10294564,-0.07003714,-0.08499002,-0.15414302,-0.08004615,-0.020959564,0.07140549,0.021174148,-0.009117064,-1.527325e-05,-0.139735,0.035944432,0.120956905,-0.14780198
0.060202736,0.103675954,-0.2078495,-0.084216945,-0.076715976,0.024371276,0.038201287,-0.12862471,-0.0029579296,-0.05434726,0.0732399,-0.045112852,-0.11876838,0.03586643,0.024119876,0.008910462
-0.047738243,-0.05867069,-0.026625562,0.067851245,-0.05008625,0.05306996,-0.053597167,0.09960259,-0.011774485,-0.06325455,0.03858138,-0.015791638,0.002609138,-0.08595775,0.073398896,-0.093486294
-0.08011534,-0.021747136,-0.007955999,0.07410853,-0.087493986,0.05594804,0.0029587983,0.027885694,0.01039659,-0.090437435,0.07961822,-0.012223558,0.027250519,-0.11868801,0.05257881,-0.14339979
-0.014719638,0.036308374,-0.06822133,0.08328489,0.11353262,0.10884493,-0.09432545,-0.080588624,-0.12949337,-0.12421469,-0.06001362,-0.057862125,-0.109186776,0.06492804,0.036327492,0.0040181424
-0.023669625,0.048553072,0.08885154,-0.1333594,0.11209858,0.055730943,-0.0866251,0.13801076,0.07395123,-0.09381772,-0.10522565,-0.062054615,0.10817625,-0.048023637,0.018514603,0.10266303
-0.0036135386,-0.05038856,-0.19418879,-0.0026215871,0.008852686,-0.00017062659,-0.13188818,0.031568106,0.09250696,-0.009653616,0.11523816,0.07775522,0.0851712,-0.052031245,-0.054070104,-0.08100119
0.12438849,-0.10651723,0.026733674,0.098618865,0.023796497,-0.17088917,-0.08475195,-0.12984984,-0.03956859,0.055037957,0.11003771,-0.09650846,0.055996258,0.043624982,-0.016666686,-0.059459604
-0.0821841,0.004424172,-0.09398746,0.09463603,-0.044874042,-0.0973405,0.002768713,-0.00825467,0.087154455,-0.06613335,0.038102884,0.051281825,-0.10553444,0.08361728,0.05707598,0.013510305
-0.05486457,0.082343236,0.08136467,-0.008806993,0.081667036,0.0099414075,-0.0523489,0.10553379,-0.10891561,0.00034035632,0.024581848,-0.010810176,0.029766966,-0.07142173,-0.117209755,0.048278693
-0.109422326,0.041439757,0.034091953,-0.0041131694,0.008082783,-0.14510015,0.08294743,-0.030565768,-0.11421196,0.042706516,-0.029999701,-0.029747577,-0.032458417,-0.071339495,0.026823863,0.013075831
0.073552296,0.040873628,-0.084303096,-0.014668323,-0.04208894,-0.08347321,0.046919376,0.033014685,0.028625216,0.040752195,-0.05838206,0.07134097,0.08182845,0.11137643,0.0031560345,-0.11886958
0.07173907,-0.031614177,-0.04202778,0.03499987,-0.008158918,-0.018267203,-0.04582672,-0.053280123,0.019146852,-0.104466714,0.06755625,-0.03856734,0.09284837,-0.08807089,0.0030198707,-0.10315948
0.079397514,-0.04323936,0.078370094,0.039881594,0.022726992,0.037458148,-0.12402053,0.026693186,0.029455364,-0.058128987,0.100502655,0.015925633,0.11552944,0.0987183,-0.046184927,0.054134045
0.057902616,0.063102774,-0.18202911,-0.02791247,0.038874872,-0.06618068,0.0011403172,-0.009409613,-0.0073231035,0.0845266,0.11711172,0.115415856,-0.0073999916,0.021596357,0.029084034,-0.03162776
0.08994474,0.034216855,0.055063233,-0.051317807,-0.041565567,-0.008201623,0.09882948,0.055308193,-0.00979328,-0.04954027,0.06230066,-0.0625074,0.12142123,0.033474483,0.049331192,-0.14031306
0.047018833,-0.100972295,-0.1657488,0.038917713,-0.2427346,-0.24729535,-0.05895321,-0.22540648,0.007804806,-0.029863045,0.03846584,-0.07500952,0.053122405,0.088777244,0.09011563,-0.1721466
0.010278678,0.021810876,0.01524242,0.08338824,-0.20480318,-0.033917647,0.1300265,0.018354187,-0.041676752,0.086259596,-0.0848793,0.10050927,0.12259826,0.111362584,-0.1248494,-0.10430457
-0.10511382,0.10307304,0.09223339,-0.0037149575,-0.0026180083,-0.0942479,-0.125612,-0.03592185,0.07483453,-0.06286361,-0.07051556,0.025572464,0.04856768,0.004171967,0.05180923,-0.017512662
0.019344078,0.087980025,0.032190416,-0.12557937,-0.06959204,-0.13361253,0.064334214,-0.078891024,-0.10616818,-0.025301592,-0.06665454,0.057140376,0.052075762,-0.0703509,0.051337913,0.009900364
-0.062020913,0.027293628,-0.05127478,0.08155345,-0.077093214,0.036078125,0.01686155,-0.10396227,0.09062786,-0.0892336,-0.020518191,0.06438086,0.09402988,0.08770791,0.0543004,-0.04277732
-0.0071128537,-0.11423261,-0.045331553,0.02548155,-0.15988909,-0.17703186,0.027330426,0.017868297,0.012802286,-0.05566092,-0.11519549,0.09465533,-0.049488362,0.003571206,0.060316633,0.010738352
-0.08262609,0.039288342,-0.052603148,0.093986936,-0.24050604,0.0017697194,-0.07948367,0.0011514773,0.060788255,0.092406735,0.08460709,-0.027202876,0.026042419,-0.06408506,0.10274346,-0.18789741
0.030096939,-0.0812922,0.16106692,-0.027985636,0.17228724,0.037386365,0.0656099,0.010923174,-0.05114806,0.123883255,-0.026331076,-0.11092149,-0.014105216,-0.06566584,-0.056581024,0.0026887562
0.09194279,-0.084724426,-0.08990563,-0.025410531,-0.101153664,0.055872142,-0.09035682,-0.068262756,-0.066263646,-0.10836393,-0.07229603,0.09718458,-0.06607649,-0.071399964,0.118465036,-0.10717383
0.088950686,0.017697796,-0.041470975,-0.09173235,-0.019125046,0.0021581664,0.06681169,-0.0359465,-0.0103139095,0.05315069,0.12658925,-0.048275292,0.058806043,-0.037775364,0.07876829,0.043740515
0.12256049,0.052498933,0.057902846,-0.009012036,0.14480014,0.15541445,-0.06743426,0.08825479,0.0955774,-0.09706411,-0.08311051,0.043905303,-0.047408763,-0.120167,-0.090757854,0.15550284
0.050279077,-0.011367217,0.032610442,-0.0860238,0.015981918,0.041514598,-0.013978237,-0.17879926,-0.033925664,0.018811334,0.008762878,-0.01815685,-0.09030523,-0.0019516684,0.022546155,-0.1663964
-0.008610282,-0.025451638,-0.13690321,-0.06314796,-0.051801153,-0.09360371,-0.08543041,-0.011006658,0.05410105,0.008646413,0.049821574,0.07058642,-0.1097872,0.06559406,0.10717997,-0.14102653
-0.11581427,0.02613937,0.014932118,-0.022486618,-0.15404028,-0.17677915,-0.06644563,-0.07031888,-0.11944401,0.002724005,0.04039599,-0.04973255,-0.05967427,0.07649715,0.0033679737,-0.10064998
-0.096591644,0.041106094,0.07499174,0.049095023,-0.08802094,0.14463794,0.051084477,0.15939772,-0.07944365,0.082703725,-0.11647643,0.12215159,-0.06733389,0.058959424,-0.04292513,0.14348629
0.08217195,0.044669434,-0.12195245,0.01789782,-0.15068483,-0.17225863,0.0034559346,-0.18124449,0.015244254,-0.056309566,-0.08292087,-0.03403306,0.08597786,-0.08663061,-0.049394272,-0.1259216
0.09554017,0.053424466,-0.06930913,0.009961079,-0.025800904,-0.20059513,0.0487407,-0.16976392,-0.029039584,0.06550817,0.103977755,0.052442566,-0.11339413,-0.038358726,0.04996482,-0.115763925
0.009853014,0.11242114,-0.20763251,0.061847974,-0.12805589,-0.12380296,-0.080149755,-0.16454093,-0.095182,-0.03664536,0.086685315,0.120480426,-0.11286768,0.1085889,-0.059332997,-0.17562516
-0.090703696,0.0028116545,-0.12315204,0.036488254,0.112798,-0.09281213,0.06655224,-0.05301245,0.020219818,-0.11630965,0.096360795,-0.06231465,0.053219046,-0.12739594,-0.04388016,0.00297578
-0.024263356,-0.062402636,-0.12735854,-0.020747423,-0.074044995,-0.09075829,-0.05927855,0.022706835,0.041627023,0.050332274,-0.12320357,-0.027674595,0.0574257,-0.1100049,0.09059404,0.069134034
0.05475155,-0.07239654,-0.06918825,0.04095194,-0.016005447,-0.08491705,0.062526196,-0.03681587,0.06193782,-0.067696825,-0.1136961,0.13509068,0.12936428,-0.10320305,-0.09223749,0.07519674
0.033924505,-0.077970594,-0.21618485,-0.038166832,-0.015051403,-0.022912728,0.052074824,0.008768697,0.09169459,-0.090050705,0.017362215,0.05939881,-0.1073149,0.096086666,0.016366204,-0.13422604
-0.024185903,0.07083173,-0.11971877,0.0757311,0.028212877,0.0010903866,-0.011997204,0.03389124,0.053906217,-0.053435292,0.05058027,-0.033365965,0.031671125,0.06645714,-0.10728258,-0.058554206
0.037011545,0.048034657,-0.011457371,0.053731285,-0.16047493,-0.17625684,-0.061569165,-0.19971317,-0.06299754,0.07121445,0.0541127,0.038379077,0.07953327,-0.009062261,-0.009325918,-0.18752927
-0.10344047,-0.050330933,-0.090846285,-0.015114787,-0.12170357,-0.051487513,-0.0531836,0.057385,0.033936422,0.09116889,-0.09174652,0.048816387,0.09021354,0.102232665,-0.08045038,-0.013096488
0.04565268,0.106116734,-0.08563829,0.015441593,-0.09948048,0.06888443,-0.12000994,-0.051604103,0.014871932,-0.123761885,-0.018024335,-0.043927446,-0.05996563,0.06711189,-0.10918763,-0.02072366
-0.07833893,-0.13837631,-0.046860974,0.13798013,0.044196747,0.0893178,0.06646254,-0.11774119,0.005588833,-0.00013576364,-0.057177447,0.012219976,0.021740006,0.015385776,-0.022089085,0.11318582
-0.10138863,0.11931031,-0.13658595,-0.022850664,-0.02040205,-0.11246162,0.07469115,-0.11363124,0.09658791,0.020356894,0.06753775,0.10194041,0.059451684,-0.06996188,0.12437956,-0.06315481
0.06673185,0.08962629,-0.080656774,0.035813905,0.0067020757,0.18185884,-0.020747123,0.059023872,-0.11213058,0.06563458,0.0025985963,-0.010008402,0.0025744443,-0.04365539,0.017492939,-0.038047645
-0.118345395,0.05614525,0.077805124,-0.118454814,-0.0413191,0.1439473,0.09966428,0.025077375,-0.044951137,0.11825552,0.022770839,0.115650944,-0.0033997076,0.06790307,0.08673008,0.14283189
-0.0026648953,-0.0960542,0.096845925,-0.07826709,0.09312609,0.0043385825,-0.00018480503,-0.049552217,0.015701048,-0.0024505795,0.13094649,0.026109116,-0.10501966,0.05694882,0.0020246455,0.05934816
0.09136365,0.05309289,0.114366695,0.0533682,0.016504653,0.11642063,0.053335525,-0.043511223,0.11082649,-0.1381997,0.08890235,0.014287894,0.11918658,-0.074968435,-0.117473856,-0.08555661
-0.087330766,0.1094563,-0.029124778,0.08460984,-0.0036976303,-0.1697595,0.07323715,-0.12397272,-0.06634039,0.06416015,-0.112692885,0.09405488,-0.026846815,-0.036055107,-0.033820942,0.018275704
-0.06493983,-0.07906258,0.008952088,0.04325813,0.115734756,-0.0011815818,0.08606958,0.12386255,0.006432178,0.08947774,-0.009282171,-0.09394344,-0.041880403,0.09606564,0.110673845,0.18295892
0.12229876,0.089207634,-0.05780879,0.041347325,-0.17985232,-0.11704976,0.027396781,-0.08024773,-0.09990433,0.11556698,0.008215893,-0.032694295,0.06349787,-0.026966395,0.063669644,-0.005077411
0.074364245,-0.0626928,-0.025021276,0.07881181,-0.11175926,0.06290322,-0.014815415,-0.11646513,0.0071765496,0.054816075,0.07656977,-0.105074696,-0.11138157,0.029557943,-0.10817236,0.0953991
0.011946309,-0.033662032,0.01979684,0.09724304,-0.13604255,-0.15943196,0.10267378,-0.1632731,0.13061897,0.029006751,-0.07063843,-0.035741627,-0.10098698,-0.092420876,0.044617023,-0.11890196
-0.00809191,0.001953534,0.046767145,-0.110849775,0.13540432,0.043483507,0.080456585,0.0063800225,-0.024338769,-0.072404005,0.026489928,0.08670122,-0.030158283,-0.007367798,0.07322391,-0.023634408
0.123295985,-0.009314954,-0.04116828,0.06519778,0.00093088334,-0.04299282,0.12983483,-0.13114564,-0.034248047,0.078852706,0.14298248,0.117750764,0.07389547,-0.12020788,0.015445581,-0.11225185
0.09938971,0.014236697,0.0031899572,0.11453837,-0.0741297,0.0522229,0.012440681,0.0061062016,-0.011208825,0.09989963,0.08282661,0.06272268,-0.014690622,0.11438306,0.041060004,0.05034119
0.07632901,0.023170674,-0.14994565,0.092902705,-0.00512891,-0.11411209,-0.056431882,-0.13788229,0.03894867,0.14898989,-0.09570554,-0.11423277,-0.048936263,-0.10234427,-0.05627947,-0.18077259
0.019489469,0.040403415,-0.013411965,-0.058586083,0.01493521,-0.06578649,0.053948194,-0.004505423,-0.067881905,-0.057318036,-0.08928465,0.0027959698,0.12198956,0.015292987,0.1292764,-0.019584628
-0.021574615,0.053179577,-0.15644899,0.013692324,-0.12972757,0.015124799,0.05942066,-0.0706548,0.08754153,-0.06718016,-0.04962262,0.10478288,0.021801172,0.017410262,-0.0039326996,-0.1364943
0.02618491,-0.06071721,-0.13702711,0.12887189,-0.085007265,-0.061744962,-0.102945186,-0.076221325,0.023929294,0.066544004,0.06964603,-0.05433609,0.026431197,-0.045556705,0.0077584735,-0.1557445
0.10040856,-0.1073838,-0.07667163,-0.07434062,-0.055684485,-0.104256585,-0.10888317,-0.021627808,0.10177769,-0.029464867,0.14063904,-0.010563388,0.015547889,0.02456976,0.10419163,0.06268954
