0.05524375,0.057845734,-0.04752551,0.005061952,-0.10257553,0.030159578,0.03663779,0.03213971,-0.08199128,-0.08205312,-0.064317085,-0.035240166,-0.015645374,-0.12444203,-0.049972948,-0.08282947
0.016123662,-0.097542025,-0.07618936,0.040587157,-0.041676633,-0.019384509,-0.102530405,-0.032555487,-0.019317033,-0.10246956,0.029772148,-0.06064912,-0.057315253,-0.104281984,0.01751137,0.14232467
-0.062926084,-0.07159281,0.09346859,-0.10779252,-0.06855023,-0.057664495,0.11898489,0.0823492,0.00092269544,0.004725567,-0.09206143,-0.15202971,-0.15589193,0.0130879665,0.059706345,-0.02919816
-0.09734835,0.11209729,-0.03388606,-0.024748571,-0.057579167,-0.06979559,0.028918454,-0.049609605,-0.07780202,0.10320879,0.007559646,0.025520742,-0.012470379,0.04535897,-0.032098077,-0.064228624
-0.03342285,0.024248362,4.5023426e-05,0.11972752,0.10040051,-0.08601031,-0.12569128,0.074747555,-0.11577108,-0.014273219,-0.010940219,-0.13755028,-0.013411877,-0.10716691,0.060843237,0.011953114
0.0919613,0.096217066,-0.0972185,0.03417939,-0.09917702,0.1022126,0.04914233,-0.08404277,0.04220339,-0.10975534,-0.011090616,-0.05575015,-0.092825234,0.05988024,0.028694905,0.009264463
0.10164095,0.039324213,0.11856311,0.019614056,-0.053296745,-0.08643495,-0.09880101,-0.082725115,0.08345966,-0.12514693,-0.036210265,-0.15963152,0.006619764,0.08444571,-0.068656206,-0.029042441
-0.001524322,0.08188403,-0.030253576,0.10683423,-0.07028854,-0.06214397,-0.025036894,0.029628482,-0.03775572,0.10884328,-0.06468914,0.14062893,-0.026939008,-0.09635197,-0.02616901,0.08871052
0.08532078,-0.027066058,-0.02517655,0.056640584,-0.047612872,-0.15416406,-0.080019,0.06168919,0.023925247,0.057537813,0.04930939,-0.065192915,-0.010864111,0.1185916,0.060642086,-0.12410664
0.086878866,-0.11831912,0.08674759,0.067986414,0.11081154,-0.0084989965,0.039765887,-0.05816486,-0.043881327,0.047627382,-0.13430713,-0.05740824,-0.07333649,-0.03444453,-0.04989966,-0.091724865
-0.13756157,0.11862213,0.019210013,0.15539242,-0.06685192,-0.15780057,0.07303235,-0.003204034,0.06434655,0.08212435,-0.08069441,-0.012820345,0.11698454,0.022083195,-0.09528444,-0.05609263
0.050665017,0.032603193,0.12389081,0.05914488,-0.1423909,-0.06513235,0.03970082,-0.0030173985,0.008837864,-0.19469817,0.02990309,0.059053253,-0.113027506,-0.14627492,0.0912056,-0.0035252427
0.051159367,0.084929824,-0.11566748,0.10845013,0.07565521,0.108324334,-0.038784485,0.07305542,-0.024901027,0.050633397,0.06598357,0.013215779,-0.010454148,-0.097321756,0.03509573,-0.0325982
0.06156531,-0.09545377,0.07323405,-0.03441224,0.036057606,-0.07987215,0.04394137,0.13844562,-0.0975075,-0.17993087,-0.114448376,-0.04820671,-0.029038759,-0.08664014,0.13647,-0.0220789
0.05323182,-0.0560789,-0.112099014,-0.045516625,0.05111163,-0.14204808,0.09969256,-0.056752447,-0.047954656,-0.14803739,-0.11063307,-0.17555742,-0.18861909,0.0748776,-0.027720114,-0.078056686
0.0826464,-0.03087028,0.07443282,0.07186294,-0.07199631,0.011329616,-0.033004206,0.03285128,0.04116786,0.016309287,0.08854172,0.0068660905,-0.046429228,0.05059546,0.109688744,-0.01187774
-0.15418197,-0.08197841,0.06883724,0.0705769,0.07075332,0.17968614,0.1108977,0.0073892055,0.016197339,0.027937647,0.009617184,0.07724872,0.17610508,-0.045029238,0.029536955,-0.020384923
-0.10452244,0.0036156494,0.035486817,-0.18754923,-0.17921261,-0.08543746,-0.15513901,-0.077838376,0.03811419,-0.037112597,0.04706304,0.018751116,-0.18143041,0.0096497685,0.11403549,-0.030448448
0.10052134,-0.058885664,-0.032302257,0.030355904,-0.058995422,-0.1568089,-0.03997776,0.08332764,0.026624005,-0.08412349,-0.05774587,-0.15112936,-0.07247115,0.13822235,-0.027391443,0.027794965
0.00069176767,-0.11099306,0.004387433,-0.031065196,0.03931556,0.00088012585,0.027850961,0.013881263,0.01809969,-0.0020095936,-0.13918576,0.023599103,0.060898688,-0.09618248,-0.06523348,0.10015924
-0.11167674,0.030745143,0.010908458,-0.08473154,0.0760533,-0.153281,-0.024528716,-0.028802222,0.011693627,-0.1052234,-0.037240468,-0.1602735,-0.070814095,-0.067283615,-0.035346948,-0.051652342
-0.10128704,0.037304014,-0.04093291,-0.031722292,0.029001914,-0.0939777,0.003505066,0.03342306,0.0040906197,-0.052000564,0.032381497,0.025416981,0.04136918,-0.09664843,0.077493474,-0.17029819
-0.020542208,0.062961176,0.08104554,0.025020631,-0.08963493,0.06829746,0.05590217,0.03244557,-0.20192267,-0.10768589,-0.15199564,0.048622627,0.016257474,-0.09366267,-0.08976023,-0.00450657
-0.119906306,0.031605452,0.1802387,-0.23304008,-0.0043013087,-0.0823407,-0.0997942,-0.092304416,-0.11495888,0.0116965575,-0.034284014,0.073269434,-0.07292297,0.012477871,0.09790442,-0.08511395
-0.082565896,0.062087424,-0.122912824,-0.04593877,-0.027350843,-0.15422818,-0.037833937,0.00671956,-0.04631392,0.089130454,-0.08432318,-0.07041895,-0.0006373773,0.05204973,0.08660329,-0.06984983
0.09189497,-0.08484647,0.121310815,-0.10626311,-0.10004355,-0.101057395,0.011235164,0.077696145,0.06967593,0.0655366,-0.054445315,-0.10679639,0.11015897,0.052101333,0.060545918,0.065226935
0.020626497,-0.0730302,0.062481724,-0.04101927,0.038421635,-0.012420587,-0.12244835,-0.042794973,0.0036752135,-0.0081239585,0.018881759,0.0033794825,0.15415086,0.04392802,0.0477466,-0.04268961
-0.038407933,-0.051041406,-0.19302821,0.08970432,-0.027428988,-0.2393759,0.041703545,-0.11498568,-0.0011733576,-0.17341654,-0.086822726,0.0061915834,-0.08649637,-0.05036385,0.0639123,-0.02992164
-0.03815604,-0.14495198,0.107003756,0.10769937,-0.104847625,-0.070844285,-0.119612746,0.02574063,-0.1329627,-0.06431816,-0.17318037,-0.053546015,-0.0872437,0.057846654,-0.01008764,-0.032333616
0.090332285,0.040775895,0.09675434,-0.005054592,0.06407256,-0.06507481,-0.03996525,0.0027005104,-0.12312309,-0.15136752,-0.11422739,0.11621616,-0.14176503,-0.049184926,0.14919752,-0.08195341
0.024140775,-0.147725,0.031614102,-0.07305891,0.029861664,0.035186905,0.104345806,0.09591082,0.09216136,-0.10376704,-0.042487346,-0.18206348,-0.04587699,0.00755934,0.07153727,0.12811734
0.069887556,0.09867935,0.15314195,0.0031843726,-0.003580438,-0.009842555,0.010127559,-0.07800641,0.05552345,0.10670542,-0.022010207,0.025750874,-0.034491684,-0.13744253,-0.029628173,-0.071866706
-0.102292754,-0.027360871,0.08838915,0.04024895,-0.08434828,0.047209404,0.02679542,-0.08061281,-0.08753379,0.011702313,-0.013777378,0.003052614,0.0454127,0.028808566,-0.09978283,-0.11686141
-0.13159533,-0.054668218,-0.048636317,0.00097409054,-0.08998848,-0.1000574,-0.09589827,0.03516624,-0.043811627,-0.110673204,-0.13310443,-0.05950966,0.10394569,0.035382144,0.024367018,-0.14232634
-0.1391664,0.031381264,-0.20497489,-0.025945941,0.057218604,0.1761371,-0.05673685,-0.18373355,-0.079092115,0.14871567,0.04089653,0.075385675,0.046503745,-0.022171836,-0.09705591,-0.14994498
0.060894858,-0.013415934,-0.124967985,-0.16985556,-0.0228627,0.121704794,0.03743497,-0.07277706,0.076688,0.10381093,0.040850036,-0.076352805,0.01340553,0.061512366,0.19720533,-0.05949337
0.020911755,0.047725778,0.0062481225,0.07925736,-0.1037516,-0.12600787,0.060496386,0.10017519,0.109418176,-0.12885033,0.056506798,-0.08476354,0.034665406,0.035489056,-0.12612166,-0.02361784
0.08209004,-0.07212051,0.10286484,-0.095956646,-0.033607036,0.09455519,-0.02722784,-0.08050593,-0.088897176,0.1297072,0.095380746,0.1569107,-0.011177699,0.040835965,-0.036380377,-0.04827445
-0.010680694,0.025191385,-0.07227733,-0.108586006,-0.1876114,0.0017343359,-0.11827356,0.11032861,0.025000833,-0.047223847,0.043255802,-0.09402972,0.015026768,-0.0036549326,-0.115855,0.01420692
-0.1454342,0.024455065,0.14400466,-0.07046673,-0.005547476,-0.060252864,-0.07592983,0.020497555,-0.025755718,-0.022815779,-0.010004505,0.07231295,0.044245254,-0.13335732,-0.0722308,-0.011485762
-0.036520917,-0.02394883,-0.1252999,0.11196341,0.050039254,0.030479938,0.007333307,0.03253225,-0.01021273,0.02807852,-0.073602244,0.15669453,0.14915307,0.09785896,-0.048771955,-0.13754642
-0.028548926,-0.14719984,-0.05272328,-0.046085667,-0.07025589,0.03492096,-0.006201232,0.13136162,0.032468352,-0.12073249,-0.14235038,0.01039159,0.010069653,0.07171236,0.08389152,-0.0037935826
0.110711664,0.058733758,0.04497239,0.10842355,0.04227576,0.01507144,-0.07133143,0.091846146,-0.08397979,-0.0067910925,-0.022802776,0.004984575,-0.023705326,-0.007517327,-0.010740233,-0.14022146
0.09089811,0.03912349,0.0319539,0.060911715,-0.055272873,-0.24440365,0.077932425,0.043616187,-0.16156566,-0.095303155,0.012333325,-0.11210373,-0.03741601,-0.05065971,-0.07724475,-0.052684393
-0.10060868,-0.05592872,0.025743242,0.013677676,-0.11600694,-0.11296081,0.11811032,0.067193136,0.0359121,-0.054099027,-0.19693092,-0.16165961,-0.00785593,-0.016666714,0.09705795,0.12159146
-0.14647579,5.7140634e-05,-0.0916388,-0.023268834,-0.077797346,-0.14000627,0.049200784,-0.06256243,-0.07365807,-0.010700833,0.007643637,0.0069321417,-0.14610901,-0.06277995,0.16207913,0.07324828
-0.15205422,-0.064115584,-0.16278541,0.07253142,-0.124312714,0.041391216,0.026124513,0.03612677,-0.027923912,-0.13330291,0.008241595,-0.15014133,0.08767534,-0.0042942725,0.034835022,-0.104972936
0.08332291,-0.10962553,-0.06108977,0.16613832,-0.14567462,-0.015596412,-0.10065921,0.079279914,-0.07518601,-0.097542785,-0.15448202,0.037693437,-0.1142073,0.06233336,0.1738549,-0.09673066
0.06719239,0.018227702,0.00065405405,0.10223642,-0.05635338,-0.014855831,0.0005343246,0.07826972,0.020690115,-0.104700305,0.0270985,0.02192177,-0.16465709,0.08520061,0.04405863,-0.004437207
0.031153083,-0.06737936,0.14648648,-0.050013117,0.04089731,0.06530289,0.0044284705,0.066843085,0.012876962,0.004426971,-0.026334163,0.08895178,-0.03764635,0.05806298,0.0913332,-0.067069665
0.049873956,-0.018677458,0.10615914,-0.017924175,0.03301499,-0.03487406,0.0860658,-0.032811392,-0.041408334,0.06476803,-0.075183205,-0.086129665,-0.18885246,-0.09463477,-0.056844387,-0.116647884
-0.106184505,0.13131498,-0.13712747,-0.12816006,-0.117560096,0.13711575,0.07084279,-0.0072736116,-0.01974183,0.07989568,-0.13553455,0.0994721,-0.0019343558,0.1258782,0.14341904,0.038196087
-0.22632256,-0.010479205,-0.029628415,-0.1081271,-0.033682942,0.08302826,0.04549361,-0.019231023,-0.1277901,-0.030178435,0.028504578,0.0013132256,0.0016953741,-0.001971709,0.026545418,-0.04347106
0.14446379,0.064484,-0.050621554,0.05733366,0.007325317,0.022737928,0.05812972,0.11135104,0.10294975,-0.0064079436,0.020169752,0.045507785,-0.09250005,-0.010863685,0.14748003,-0.14861529
-0.04565785,-0.04052406,0.13236998,-0.057036873,0.039000735,0.12364225,-0.080125965,-0.092235655,0.06976771,-0.0888818,0.14062522,-0.035569474,0.04675382,0.09837174,-0.057487868,-0.092997715
0.13125005,0.017313896,0.0731499,0.10151789,0.045945685,0.08364864,-0.02601505,0.08995966,-0.05056115,0.0905986,0.12085476,-0.09211541,-0.028975468,-0.06992327,-0.020052474,0.014761987
0.114782274,-0.11944774,0.06570395,0.050669536,-0.16603832,-0.00528126,-0.021183047,-0.009766823,-0.08684581,-0.06418319,-0.08360887,-0.004374519,0.020055296,0.00057603966,0.10073966,0.012378866
-0.12337007,0.08035846,0.069813535,0.10406501,-0.16090488,0.0047635925,-0.061391074,0.085092835,-0.020361396,-0.09704666,-0.08699004,0.038692493,-0.049982935,-0.009818065,0.0031171998,-0.025626604
-0.043516923,-0.0064499034,-0.018168036,0.05911608,-0.122042075,0.024136543,0.124369025,-0.17565253,-0.22573479,0.026051685,-0.079292655,-0.1052187,0.027797632,0.06850584,0.048457976,0.047123484
-0.09951788,-0.036674812,-0.22320399,-0.007532616,-0.071462765,0.10685226,-0.054233696,0.09742161,0.033552837,0.03672957,0.059925754,0.00027222716,-0.010604282,0.04680331,0.1273216,-0.04532067
-0.099292226,0.027551044,-0.046736754,0.051617246,-0.026047392,0.064607404,-0.058801353,0.027763003,0.040601775,0.03418405,-0.00915679,-0.032577205,0.03200096,0.08861392,0.08466651,0.054655604
-0.030124849,-0.03549899,0.12940234,0.0767247,-0.14009966,-0.07241417,-0.045773912,-0.0798364,0.04211259,-0.083523706,-0.05690293,-0.17885372,-0.061295956,-0.0089909,0.06788792,0.023020484
-0.05198274,-0.1732593,0.08529598,0.067200646,-0.032863807,-0.024585389,0.08596938,0.035410017,-0.15433499,-0.099858455,-0.11153492,-0.07478918,-0.05901085,-0.116159625,0.0917091,0.034557667
-0.0030266335,-0.043486092,0.13045938,0.08822736,-0.07322898,-0.054798,-0.13231961,0.024391621,-0.16874613,-0.033417556,-0.19382687,-0.1609324,-0.0148848975,-0.08997674,-0.16828732,-0.14870875
-0.0032440082,-0.018047873,-0.052856367,-0.1342552,0.10532208,0.07526974,0.13994367,-0.15978147,0.032355323,-0.027519846,-0.0028282255,0.06881932,-0.106380805,0.020114167,-0.13110809,-0.11366996
-0.02537722,-0.07909639,-0.13939194,0.06270823,0.028423203,-0.1001907,-0.1162741,0.011910567,0.037621383,0.013879922,-0.05628164,-0.11133208,0.08525284,0.019775849,0.10148544,-0.093461655
0.115719706,-0.117539234,-0.0862242,0.11011472,0.042145003,-0.0981264,0.024110269,0.011173406,-0.113432266,-0.012817754,0.008491025,-0.053731535,-0.14937969,-0.13073064,-0.045584906,0.11251657
0.07293528,0.12402775,0.06428878,-0.12453695,0.011914599,0.055985376,-0.09780729,0.10852648,-0.024990309,0.054815333,0.069004506,-0.0062638423,-0.02206515,-0.12431292,0.06501105,0.017280106
-0.08983769,-0.07878498,0.10918142,-0.015636006,-0.01856567,-0.05398279,0.09860871,-0.08481585,-0.10012739,-0.15623905,-0.030738853,0.033608045,0.04896218,-0.009449428,-0.080925,-0.108895615
-0.10454731,0.014382386,0.10061535,-0.053446077,-0.0052013914,-0.055483874,0.083921485,0.0474898,0.035057668,0.014705924,-0.17825797,-0.15031223,-0.104540125,-0.022060122,-0.15988426,0.01673192
-0.14701185,0.023386125,-0.15741554,-0.065752916,0.023112768,-0.12937267,-0.052407872,-0.20637295,-0.15671282,-0.010072439,-0.18900007,-0.036050793,-0.019895097,0.14814419,-0.0049365093,-0.095178686
0.015533487,0.06407004,-0.24863085,0.05479841,-0.06025221,-0.099880375,-0.053742062,0.1403805,-0.041268423,0.041452818,-0.07732841,-0.034972265,-0.10023772,-0.100361325,0.034303207,-0.1391401
0.10477402,-0.03176702,0.00672104,0.03804256,-0.02393225,-0.0870989,0.08656472,0.022382153,-0.033981,-0.093920454,-0.14906669,0.030519465,-0.09113206,-0.08059311,0.13038543,-0.010276618
0.11542034,-0.03277859,0.0194852,0.06192,0.051593028,-0.064505756,0.0764444,-0.090306684,-0.0919552,0.1121277,-0.020322153,0.033690143,0.07083951,-0.08516483,-0.08621616,-0.10364665
-0.0742696,0.056329027,-0.013390398,0.02232407,-0.07505651,-0.053029947,-0.11794753,-0.11096942,-0.027851388,-0.136129,-0.041233324,0.04484139,-0.09349525,-0.065652914,-0.035661563,0.088083915
0.020418687,-0.012655066,-0.0072646854,-0.014712991,-0.16722904,-0.08086683,0.076531656,0.07371596,-0.093877696,-0.07215298,-0.0850367,-0.1315041,-0.2203353,0.073906355,0.00241098,0.027960354
-0.21215038,-0.052123465,-0.11255153,0.01820323,-0.017267253,-0.09970245,0.1529276,-0.22386795,-0.028645126,0.036309022,-0.10224269,0.0007825682,0.066923164,0.1262289,-0.11585364,0.028817575
0.09287782,0.051074374,-0.2135842,0.1873858,0.09445659,0.024945192,0.057318065,-0.024400817,-0.06742532,-0.015297537,0.13319884,0.04128724,0.01759447,-0.031754784,-0.12678066,-0.08235748
-0.05153755,0.055672456,-0.095142156,0.03419613,-0.040590525,-0.06036733,-0.08473372,0.06887248,0.095321104,-0.0029731393,0.09743832,0.03435165,-0.08749892,-0.1158073,0.12798174,-0.039061375
0.04566934,0.048712976,0.008402742,0.03889706,0.112214744,7.342499e-05,0.13147178,0.115008935,-0.07174716,0.15461044,0.08567912,0.03399442,-0.018839885,-0.032936346,0.06974417,-0.077237
0.0031927407,-0.0072912495,-0.08279397,-0.0676817,-0.14025581,-0.026806353,-0.08194497,0.047182627,-0.03225879,0.00022257408,0.087895185,0.05252921,-0.131977,-0.088629074,-0.007481618,-0.0905217
-0.031733382,-0.06070274,0.09747363,0.035990417,0.030439103,-0.010752197,-0.052417394,0.018520294,0.045093615,-0.106886655,-0.09439488,-0.12747034,0.110582426,0.093483254,0.03685887,0.08208788
-0.06463031,0.028314507,-0.055500425,0.08944607,0.0256175,0.16020228,0.007571557,-0.11370191,-0.077156544,0.11050115,-0.1004425,0.09013696,0.11921609,0.056975536,0.057661887,-0.11529018
0.109963894,-0.113533214,-0.09967966,-0.0011712848,0.01835364,-0.12444158,0.087428585,-0.013538007,-0.147822,-0.17416674,-0.17437182,-0.17317902,-0.055102333,-0.034102358,-0.15313613,0.0902996
-0.09794152,0.038131382,-0.02079922,-0.05729305,-0.07895658,0.008256155,-0.008079781,-0.061940383,0.030260427,-0.09917612,-0.099627554,-0.047825042,-0.08607011,-0.01917677,0.053077437,0.041549068
-0.102057554,0.00034563203,-0.08857783,-0.0563758,-0.18103185,-0.0073410557,0.046780605,0.0069398247,-0.09234078,-0.21187246,-0.013670902,-0.0584927,-0.084485956,0.10771948,0.0680162,0.08538264
-0.11715785,0.079459354,0.02212831,0.12085105,-0.010150566,0.061930053,0.01897126,0.060451407,-0.07007674,-0.12252883,-0.0137882065,0.0011570972,0.093209095,0.10325403,-0.10679303,0.12270642
0.012420415,-0.04622523,-0.09357334,-0.014032138,-0.12467427,-0.12692432,-0.040557317,-0.03394952,-0.1046208,-0.04826804,-0.096532166,0.073582694,0.04110493,-0.016105663,-0.03420191,0.13204211
0.0010357474,0.00061612873,-0.012819786,-0.07527511,0.09681228,-0.049344964,0.099735856,0.039958123,-0.01500097,0.12562446,-0.030959213,0.0112657,-0.0014129087,0.070120506,0.028462294,0.118192814
-0.09671006,0.08303492,-0.06030977,0.12834641,-0.07334882,-0.16617858,0.08910207,0.07903444,-0.0646254,0.077410445,0.09130327,-0.035810072,0.11967867,0.076684535,-0.10715228,0.03844088
0.08733704,0.08899293,0.050159127,-0.02474212,-0.032648135,-0.049453408,0.108688734,-0.049252294,0.006011808,-0.09410348,-0.014643595,0.03617607,0.10592596,0.011152504,0.05061358,-0.035899796
-0.07193603,-0.118589036,0.08631097,0.0468881,-0.053498387,-0.028289422,0.017803645,-0.06267472,-0.07178983,-0.13110954,-0.12100496,-0.14298147,0.0690348,0.03577723,-0.020975359,-0.061109688
0.01951215,0.010529948,0.033875935,0.02319316,-0.020699095,-0.20618859,0.012634123,-0.08909072,-0.09786347,-0.058094744,-0.07918653,-0.122854404,-0.108891614,0.05076,-0.07959663,0.03150439
0.12197404,0.009017404,-0.13245031,0.010118058,-0.13209298,-0.12562229,-0.08605265,-0.026204396,-0.0018832607,-0.19600073,0.06917485,-0.038514342,-0.070964195,-0.006647456,-0.07372499,-0.06691987
0.1609887,0.060502645,0.025963621,0.103020854,-0.12202029,0.0017104293,0.08152652,-0.023575269,-0.014183548,0.037430104,-0.100468025,-0.12484718,0.102703094,0.06643127,0.037829425,0.19190907
0.029001037,0.03781454,0.067991816,0.20404644,0.009717948,-0.06426538,-0.013361394,-0.0456928,-0.049172923,0.041524116,0.11893952,-0.096456416,0.15661624,0.008620587,0.006108643,-0.0024387639
-0.077950485,0.00048388066,-0.10169829,0.06809096,-0.13261434,-0.2077853,-0.09061403,0.03279556,-0.1573732,0.008708078,-0.16764516,-0.14065409,-0.049941402,-0.033846956,0.045014996,-0.02725871
0.121119626,0.10323616,0.06852933,-0.12497174,-0.105016835,0.0007618952,-0.08262013,-0.032944545,0.109298795,0.08334053,0.03337456,-0.03905108,-0.03398384,0.04466571,0.091228314,-0.08881207
0.094124615,-0.020581538,0.0020175653,-0.11669614,0.07284217,0.14843838,-0.029917523,0.08589192,0.045832835,-0.03312658,-0.0009246891,0.111359484,-0.08437909,0.061909493,0.05195409,0.054913297
0.12402917,-0.065435804,-0.11502801,0.010330439,0.034964774,0.09516871,-0.040674035,0.05220923,-0.06393796,0.0941983,0.11395909,0.10236373,-0.06060338,0.09017441,0.012131123,0.0771984
0.22810212,-0.12169444,0.025194544,0.061054915,-0.021694353,-0.12512456,0.028886171,0.04290582,0.08191272,-0.052814763,0.08727123,-0.11107466,-0.03313611,0.0006297963,0.13541292,0.021901337
0.018370397,-0.082138345,0.1678381,0.18625143,-0.008627233,-0.10225299,-0.079398245,-0.036941785,-0.010685916,-0.07041787,-0.082873076,-0.0970896,0.06935004,-0.15083009,0.010427999,-0.12654483
0.03534273,-0.11364698,-0.0053631435,-0.07756259,-0.16542149,-0.03593323,0.050771277,-0.05551243,-0.13008225,0.015717026,-0.11431954,-0.21008511,-0.14648858,-0.07432473,-0.09774483,-0.0024592376
-0.10107222,-0.07450316,-0.017846886,-0.08292067,-0.043580193,-0.00690422,0.100929074,0.14032361,0.082963444,-0.16089743,0.023664005,-0.115668654,-0.1306004,-0.0985421,0.14501022,0.10840175
-0.086201675,0.11678287,0.022117753,-0.10936256,0.08502771,-0.088086985,0.028189676,0.034506146,-0.00056883367,-0.087288775,-0.045910127,-0.0849844,-0.059660766,0.08932853,0.0485661,0.08700605
0.016257659,-0.10645918,0.04374902,0.02137143,0.05517498,0.11808722,-0.0032449085,0.10776106,0.015201467,0.16383314,0.0015897056,-0.0066450243,0.115555614,-0.051166184,0.10463026,0.081941076
0.0507009,-0.11316217,0.10565001,0.10091598,0.06707388,-0.043136723,-0.020184005,0.18682186,0.07892409,0.100171424,0.08831647,0.032658577,0.022844095,0.0939141,0.039742503,0.11364739
-0.021605387,-0.02505698,0.042304434,-0.029282596,-0.07851038,-0.06645629,-0.023042938,-0.060284894,-0.010447092,0.025267245,0.07156406,0.057062037,-0.053943273,0.0636877,-0.13570188,-0.1295003
0.11839056,0.0026548626,0.059314962,0.07920828,-0.07591195,-0.099281885,0.015868723,0.02462288,-0.09126306,-0.021229899,0.021685885,-0.05202465,-0.048403874,-0.12673499,0.024638344,-0.042839956
0.12630507,-0.10898614,0.07016245,0.05955563,-0.10622392,0.013996344,-0.11114695,-0.00020385264,0.11825165,-0.06600378,0.0008885553,0.13705637,0.030049892,-0.024909439,-0.036578253,0.05108524
0.060377344,0.016089996,-0.029038021,0.018514024,0.054580066,-0.19957021,0.010140875,0.03771702,-0.018675057,-0.081566826,-0.15923066,-0.08450041,0.008631575,0.06427844,0.02920883,0.009377862
-0.050490282,-0.13983153,0.011196985,-0.022900786,-0.06870343,-0.15436064,-0.12555088,0.014593346,0.13404547,-0.08364801,7.0787464e-05,-0.026134226,0.019087652,-0.1385809,-0.02174767,-0.0056584803
0.09599311,-0.08512711,-0.062321853,-0.15022506,-0.12668833,0.0020004448,0.010357994,0.0209611,-0.03560074,0.045069396,-0.07744676,0.05555499,-0.13471794,-0.07223512,0.024115983,0.08672435
0.062596135,-0.12163384,0.045957275,0.16138606,-0.18699494,-0.06769549,-0.14870447,-0.06590683,-0.049163148,-0.0188971,-0.0056448523,-0.14326292,0.021876888,0.034961876,0.07514682,-0.13949612
-0.014014521,0.050625626,0.0075320476,0.03874458,-0.03525485,-0.108989425,-0.012639951,0.09433092,-0.03227438,0.091537304,0.07355643,0.05066443,-0.11653503,-0.023994612,-0.0135633815,-0.008861979
-0.084705606,-0.0169682,0.068674184,-0.022480998,-0.044381354,-0.0044976166,-0.103884354,0.1155101,-0.11705578,0.027630102,-0.0110415695,-0.16206937,-0.15258068,-0.056551408,0.068260215,0.07116952
-0.11012596,-0.054658137,0.0066403113,0.056322552,-0.121502705,-0.056587543,0.07665136,-0.0033168613,0.031392798,-0.18773179,-0.17628862,-0.08374214,-0.15910666,-0.08849797,-0.07179744,0.007242201
0.10163715,0.030385226,0.03720346,-0.012534793,-0.14174856,-0.20930818,0.016512519,0.029101139,-0.08027501,-0.09108194,-0.1425251,-0.17532271,-0.018805997,-0.109110564,0.14313447,0.07088325
0.16871543,-0.11026104,-0.03787698,-0.05668403,0.049196277,0.16038255,-0.072392404,0.1057823,0.026151909,0.033015054,0.11769258,-0.05721498,-0.10472813,0.05791686,0.109061405,0.097069345
-0.04208883,0.06824644,-0.00048487485,0.04587084,-0.123823926,-0.07406269,-0.04845105,0.10336516,0.045549046,0.038871985,-0.07172832,0.12046746,0.03408534,-0.11137206,-0.07454873,-0.016779037
0.09887478,-0.16089168,0.044917874,-0.0063471943,-0.19089943,-0.20139998,0.02909338,0.09873627,-0.14049806,-0.016105007,-0.06470958,-0.059882663,-0.19204433,0.10828013,-0.0109529225,-0.0077616163
0.030352155,-0.032083616,0.055826984,0.085643426,-0.21051377,-0.02556,0.11381846,0.053337622,-0.09323636,-0.21062367,-0.05586177,-0.16817604,-0.13967973,0.003257924,0.09820481,0.06477803
0.060122535,0.023824235,0.100893654,0.08217071,-0.12261922,-0.109081045,0.050185725,0.122151725,-0.085023254,-0.043045774,0.078756265,0.021204636,0.040535815,0.052529376,-0.0020750586,-0.08120188
0.1322538,-0.059058145,0.09559781,0.04999744,-0.052713793,0.022627726,-0.079583146,-0.07784698,0.0325696,0.07251026,0.06754009,0.020012198,-0.110787675,0.039577316,0.13682252,-0.07007715
0.013782217,-0.07029939,0.17398232,0.06815031,-0.027301105,0.053175986,0.07172544,0.15316807,0.17245588,-0.034387115,0.14689152,0.012113149,-0.047548436,-0.10916953,0.04275487,0.04758778
-0.14975841,0.020511968,0.1939567,0.037755102,-0.01945452,0.029963836,-0.07749371,0.118156284,0.008421141,-0.01831548,-0.05150728,-0.029534986,0.13219412,-0.0074733216,-0.10341571,-0.079451956
-0.045057546,0.07197125,-0.09789721,-0.06500085,0.0769139,-0.13639593,0.056545224,0.027448699,0.028667783,0.08028321,-0.027328454,-0.092502266,-0.14554398,-0.10149208,-0.061649956,0.10084374
-0.04456315,-0.09721828,0.055707864,-0.033180177,-0.083885536,-0.21744959,0.07878729,-0.019685877,0.017263468,-0.060607053,0.05288163,-0.20929818,-0.16901796,-0.0554192,0.14199069,0.031810272
-0.122642055,-0.093946524,-0.10208759,-0.01499483,-0.0028494913,0.058463413,0.07466089,-0.038943823,-0.04153667,0.001951024,0.013203927,0.09309413,0.00783588,-0.10660164,0.017445192,-0.043351002
-0.0020740547,-0.15767589,0.17411709,-0.08873936,-0.17845826,-0.1507507,-0.123966865,-0.064429276,0.07016451,-0.06118903,-0.13179603,-0.09171216,-0.15434052,0.07907855,-0.063921824,0.04393405
0.0017834547,-0.06976344,0.102159604,0.058348276,-0.121094085,0.014802152,-0.10073697,0.22163232,0.02581963,0.05510862,-0.028228372,-0.09813257,0.055097163,0.09227418,0.14890109,0.1689665
-0.119818784,-0.032405198,0.15099767,-0.059111007,-0.18312773,-0.06571406,-0.13874783,0.08211864,-0.007830052,-0.13220096,-0.18329462,-0.20084514,-0.12341137,0.025203075,-0.043799404,-0.11399094
-0.027379023,0.061747767,-0.015877495,-0.055635702,-0.09850266,0.05969537,0.03987763,-0.043264993,0.022908296,0.072198555,-0.09957906,-0.12026414,-0.096702024,-0.0044094464,0.099064775,-0.006350429
0.07871047,0.09292227,-0.008376503,-0.100266896,-0.058350075,0.06898451,0.042349856,0.06912512,0.09847439,-0.08268632,0.08805821,-0.07306855,0.03851044,0.07860291,0.010653811,-0.0689506
-0.048753094,-0.11015144,0.0022868079,0.00086747843,0.012221666,-0.05777265,-0.09204327,-0.04782163,0.058433805,0.0064967014,-0.080631554,0.060173236,0.057050254,-0.10596932,-0.09255373,0.111914806
0.1040746,-0.17005044,0.16176726,0.033725917,-0.15651561,-0.049928438,0.033927493,0.02819005,-0.098116055,-0.025725003,-0.13071315,-0.14784075,0.011011461,-0.042213436,0.039219897,-0.09827895
0.21527034,0.029726027,0.048418365,-0.115449175,-0.019863928,-0.06425931,0.055322338,0.023231018,-0.03057323,-0.09795694,0.07234697,-0.10621949,-0.004802693,0.016586432,0.099322096,0.119397566
-0.031140866,0.0676803,-0.15869558,0.04703668,-0.14681251,-0.09154209,-0.020957565,0.049616784,0.052062403,-0.0037469517,-0.1661153,-0.058335092,-0.021142,0.0782949,0.041815743,0.114229806
0.08306248,0.0210852,0.12595311,-0.12110913,-0.13306874,0.08329441,0.089784786,-0.09710849,-0.08152572,-0.09169625,-0.0956089,-0.026648786,0.025608554,-0.024354026,0.09546948,0.05551361
0.010527024,0.045641106,-0.015574389,-0.13199028,0.071064554,0.014091522,0.016919965,0.0042809537,-0.10408363,0.10970907,-0.050207477,-0.07894164,-0.05292373,-0.033197295,0.04748031,0.065742366
-0.014818222,0.0022796122,-0.026289767,0.11708218,-0.07746396,0.0506765,0.05247923,-0.015794601,0.059040844,-0.018309727,0.061089996,0.031119477,0.017532174,-0.10399453,-0.09411891,0.01237231
0.10940651,-0.13063528,-0.14709334,-0.109353684,-0.09501803,0.030945348,0.12500978,0.025114061,-0.02655962,-0.11515455,0.07108529,-0.13369687,-0.00869999,-0.06854246,0.023002544,0.07573765
0.22773321,-0.028483488,-0.058620315,-0.11173752,-0.08327511,-0.18808839,-0.018416794,0.08941207,0.092428885,-0.06031029,-0.07624738,-0.052226957,-0.0023885719,0.04621127,0.14784719,0.016808227
-0.045198362,0.009391999,-0.11663373,-0.02204837,-0.046687044,-0.18635179,0.15898837,-0.10440673,-0.10832941,0.036725868,-0.008496653,-0.086705476,-0.07369731,0.083963215,-0.025490364,0.104914635
0.121299595,0.03690566,-0.07844771,-0.063925825,0.005622878,-0.0125588635,-0.07208971,0.07867467,0.044092752,0.004645169,0.11584172,-0.12658377,-0.09606643,0.05398541,-0.00023733142,0.08634673
0.09557594,0.07611187,0.07329023,0.0698537,-0.19227538,0.02564832,-0.069621496,-0.031406924,-0.031897403,-0.14932275,-0.08461162,-0.12506017,-0.053809404,-0.0683741,-0.026347194,-0.06553098
-0.04210012,0.13546725,0.0010429403,-0.007464778,-0.058845703,0.077316895,-0.006708088,-0.074961826,-0.035544865,0.19511537,-0.036614906,0.12012815,0.12368008,0.088154934,0.06429269,0.014615584
0.06949969,-0.0059092497,0.037297003,0.08979749,-0.007165834,-0.13742723,0.1475362,-0.08659862,0.036411036,-0.020295516,0.012891287,0.019625755,0.040701568,-0.08616415,-0.1205595,0.054357685
0.11310011,0.09380944,0.09124251,0.014124484,-0.10178129,-0.013124778,-0.100811414,0.17137535,0.08990066,-0.05651325,0.08915248,-0.12368831,-0.04469116,0.030765992,-0.014954989,0.0041814055
0.007258172,0.058958177,-0.093460195,-0.06300565,-0.0031560492,0.0023441073,0.10934505,0.05126559,-0.12071906,-0.13780767,-0.18331808,-0.08528285,-0.089157745,-0.015741738,-0.23630679,0.17549309
0.106876865,-0.001730233,0.045820743,0.043909002,0.119980015,0.13971491,0.031466305,0.13577719,0.072984055,0.12633695,-0.013501659,0.08286454,-0.047072798,-0.12086911,-0.07536212,-0.06539224
0.004713792,-0.05542017,0.07384671,0.03238262,-0.026436448,-0.10232376,0.10427647,0.09353837,0.09216045,-0.10250876,-0.09924871,-0.087032855,0.123978555,-0.07742927,0.02125104,0.12732178
-0.029257525,-0.13194619,0.016192395,0.10241654,-0.01065228,-0.1691023,0.05812299,0.011082621,0.002030757,-0.046645366,-0.027095612,-0.26334453,-0.10916371,0.053412877,0.025766078,0.029549329
-0.097425565,-0.016817225,-0.027072055,0.06288321,-0.058652125,0.05473025,-0.009588122,0.044633728,0.1365835,0.03190424,-0.049892694,-0.08606747,0.08170528,0.022268651,0.028980857,0.12770474
0.100775264,-0.06585491,0.012723305,0.06884971,0.12515317,0.054986563,0.046520833,0.050141424,0.046388034,-0.043876473,0.05537362,-0.016651927,-0.116834536,-0.04769618,-0.012754754,0.13269107
0.066010445,0.14004171,-0.007522228,-0.031467672,-0.11159074,-0.14199583,0.07599491,-0.1348555,-0.01238418,0.033045202,-0.09291292,-0.07928428,0.091237746,0.09876465,-0.058345266,-0.030619854
0.09650895,0.04894554,-0.09569036,-0.086875215,-0.055203512,-0.14801852,-0.11597222,-0.048466705,-0.08453931,-0.23221575,-0.0302759,-0.108238764,-0.047546443,-0.0345001,0.12388443,0.06441121
0.10838569,0.011214176,0.0073896525,-0.07855901,0.120341495,-0.04258601,0.05346607,0.10843748,0.1261518,0.0150473695,-0.106382966,0.03479369,0.030654708,0.054876555,0.114565134,0.027822647
0.010024508,-0.07086008,0.05823857,0.12275948,-0.0114335865,0.046595313,0.120616585,-0.051537666,-0.028324503,0.079227805,0.10039244,-0.057041623,-0.10400663,0.10786087,-0.098311014,-0.10565776
0.02063007,-0.033167895,-0.20283216,0.1488463,0.08095128,0.013717433,0.08843837,-0.10638168,0.044134386,-0.0058694114,-0.05543105,0.0117976405,0.057423037,-0.06625071,-0.14282982,-0.065757826
-0.0022933763,0.07303637,-0.093881555,0.092508286,-0.01627538,-0.02037345,0.08924935,0.0051547554,0.06007404,-0.12763149,-0.11725105,-0.18178393,-0.0061709755,0.008672022,0.062400002,0.050952975
-0.021130905,0.14920895,0.18262991,-0.11522706,-0.0777061,0.1022749,0.13485862,0.011961319,-0.10224621,0.04279398,-0.041527193,0.101148814,-0.07955379,-0.07040103,-0.19379865,-0.040536553
-0.05961266,0.08090567,0.0662166,-0.08565034,-0.097116016,-0.06499877,-0.031148272,-0.032665934,-0.022909367,0.04894043,0.0422527,0.17567389,0.13200139,0.051662777,-0.1095888,-0.034584276
-0.041459706,0.040250972,0.10077797,-0.08566855,-0.17067777,-0.015765382,0.12859942,-0.059802424,0.08782317,0.033252213,-0.0068906196,-0.13758722,0.040759277,0.07119276,-0.015356636,0.100135475
0.09784822,-0.10584777,-0.020596502,-0.106896825,-0.092346795,-0.04343683,-0.019432709,0.11196987,-0.017379392,-0.12843317,-0.061667126,-0.0077802693,-0.14014234,-0.051266447,0.09336584,-0.073531725
0.06899529,0.007867571,-0.06803638,0.010133172,-0.101564676,-0.009154119,0.02494113,-0.03970088,-0.09433174,0.09036121,0.08968337,-0.08517588,0.009313933,0.0033434962,-0.046616867,0.104039244
-0.055623405,0.061876822,-0.021523058,-0.05016442,0.029167268,-0.00869886,-0.033186343,-0.08138195,-0.084666476,-0.036532078,-0.03480525,-0.056407966,-0.02662951,-0.045737904,0.035485867,-0.12552257
0.11697426,0.09920021,0.10488089,-0.15733497,-0.052848067,-0.071641006,0.06413289,-0.165414,0.09959867,-0.07852214,-0.077666335,-0.013388194,-0.05002764,0.1033576,-0.011227259,0.04332742
-0.08276133,0.06246539,0.078175835,0.0722752,-0.081613824,-0.11249283,0.05168997,0.033290517,-0.109153755,0.015808374,0.06841427,0.020844374,-0.19113958,-0.113210484,-0.07448516,0.09280905
0.049268644,-0.14594771,-0.016108623,0.0067899358,-0.19902323,0.015459426,0.05643294,0.059773818,0.05395426,0.01048051,-0.023014488,-0.13983615,-0.1087438,-0.018234868,0.14251083,-0.06408325
-0.0013773502,-0.07618126,0.04892238,-0.02860772,-0.095051944,0.02576611,-0.031566955,0.1044509,0.08822606,0.069368154,0.056998264,-0.17358929,-0.005612746,-0.08312631,0.025043441,0.03387352
-0.093417086,0.010002459,-0.069854684,0.04545344,0.096951716,-0.033665497,-0.0065552318,-0.01146936,0.10989253,0.042036656,0.015186015,0.036639173,0.083291754,-0.09583949,-0.073763005,-0.10368435
0.047909185,0.026357297,0.1850244,-0.08728195,0.108235285,0.042846125,-0.050338585,0.077263705,-0.048439767,-0.09421436,-0.03427031,-0.110556506,-0.07540932,0.11086753,0.019668918,-0.042330362
0.030030278,-0.063545875,0.06328931,-0.18719247,-0.10354275,3.8747436e-05,-0.037446633,-0.13340195,0.01416108,-0.028795741,-0.03842221,-0.011388312,-0.12341555,-0.016562188,0.037125513,-0.066074125
0.10520837,-0.14340733,-0.11425999,0.032603376,-0.0718246,-0.036861904,0.04738123,0.10561688,-0.14340283,-0.082891524,-0.13689658,0.032897573,-0.0011373595,0.059480205,-0.087143615,-0.07383665
0.0018487676,0.07322533,-0.056490157,0.0008746034,0.051968686,-0.035574704,0.017190833,0.083571896,0.047615483,0.057787422,0.07353978,0.061783314,0.06767732,-0.040794756,0.040168818,0.12890375
-0.10943251,0.014179468,-0.063869014,0.0420385,-0.10876073,0.053345848,0.10387493,-0.017262,0.020882629,-0.042960778,-0.06601039,-0.087689675,-0.072192125,-0.06696905,0.016743999,-0.081689656
0.04384054,-0.13363254,-0.041865654,-0.11795473,0.01684309,0.12674828,-0.123573475,0.059840556,0.13707662,-0.0036158531,0.09117704,-0.017046286,-0.008457566,0.08762091,0.12903476,0.03947498
0.045109387,0.05494096,0.08689028,0.06699928,-0.0540203,-0.21338694,-0.090496935,-0.0140470965,0.03307758,0.027857453,-0.054514423,-0.18108359,-0.12725814,-0.0717693,-0.04050918,-0.05080124
0.11837213,0.0324638,0.12821981,-0.14293057,0.04320937,-0.085528456,0.067460924,-0.04557466,-0.041212615,0.00594101,-0.031002719,-0.14514658,-0.017726239,0.06750159,-0.06952093,-0.023108022
-0.056958534,-0.052585647,-0.006735788,-0.09474337,0.03343093,0.047433704,0.030645838,-0.04439467,0.026843566,0.050171025,-0.030122614,0.05121787,0.06143271,-0.037389494,0.07275406,-0.1023203
-0.04747233,-0.013171399,0.0370682,-0.10326806,0.00018510362,-0.08829936,0.09403024,-0.006366795,0.06453244,0.09330222,0.044795472,-0.042062435,-0.051481944,-0.1241341,0.12345043,0.09830031
0.0019201514,-0.15086333,0.056376524,-0.013377582,-0.1338099,0.010067157,-0.10648928,-0.039923586,-0.05720908,-0.01594941,-0.14201234,-0.1185627,-0.16750167,-0.055659454,-0.036056407,0.06903602
0.005799802,0.12995455,-0.012361002,-0.15296338,0.07775723,0.09035727,0.06566245,-0.048476603,-0.09103971,0.1513734,-0.010081731,0.1668362,-0.1262666,-0.09113228,0.025604824,-0.04793732
0.064976916,-0.020884335,0.013936817,0.1299237,0.096838266,-0.033261485,-0.028002033,-0.0028673287,-0.002561499,0.070264466,-0.07425804,0.0802717,-0.0009938605,-0.041406613,0.040178265,0.02603499
0.06688012,0.04597519,0.044788774,-0.0783095,-0.12947239,-0.17187965,0.12953658,-0.1885289,-0.10173721,-0.006528638,0.04288839,-0.04994986,-0.014763588,-0.006403937,-0.09666723,0.08526679
-0.02868677,0.03419376,0.08119187,-0.097330905,0.0054790685,-0.08491753,-0.05830987,0.06911689,-0.03597441,0.018394856,-0.05847129,-0.10854339,-0.03232873,-0.11046898,0.07057402,-0.04617557
-0.049912516,0.02322011,0.03435473,-0.008354406,-0.15740724,-0.14953187,0.08088211,-0.06601291,0.037523028,-0.08576146,-0.06520447,0.047980536,0.008134651,-0.048458774,-0.007868554,-0.07278548
0.022792878,-0.07692323,-0.029376516,-0.05577279,-0.0911817,-0.106394604,-0.045176122,0.06270317,-0.084546134,-0.022580026,-0.1389938,-0.17178991,-0.087705985,0.048408847,-0.1201867,-0.04228064
-0.07350395,-0.06830687,0.0037172644,0.0011003123,-0.14482008,0.07303571,-0.10052162,-0.028710725,0.0152699435,-0.078262694,0.062231082,0.040659413,0.060414348,0.08970989,0.08097584,0.05201293
-0.053074945,-0.014562179,0.15134792,0.029205665,0.040812884,0.06467096,-0.05129518,0.010839828,-0.03186588,0.10627503,0.09574985,-0.026121026,-0.068845,-0.05370767,-0.031629693,-0.035426445
-0.027653031,0.13460927,0.1894053,-0.1877506,-0.112981,-0.078253776,-0.015113349,-0.04346974,-0.07809464,0.017031195,-0.038953666,-0.13346589,-0.12404633,0.066325605,-0.17824294,-0.052545924
-0.0485741,-0.08464758,-0.107004136,-0.01368321,-0.021549648,0.10499891,0.0971338,-0.050916452,-0.07228044,-0.06669937,-0.05470012,0.09255447,0.09497413,0.0032679534,0.090129085,-0.11321083
-0.087420814,-0.077294804,-0.060626578,0.08996852,-0.0737082,0.03434085,0.10451015,0.12687272,-0.03601916,-0.19135423,-0.017172845,-0.06462136,-0.0066895536,-0.046852455,-0.051841687,-0.09763269
-0.013283037,0.07422733,0.09772459,0.07744978,-0.00555301,-0.06279302,0.0394111,-0.06932343,0.098027475,0.10523865,0.0029115598,0.08935076,-0.06983702,-0.06033019,0.0720415,0.005743023
0.030245595,0.022445688,-0.078312404,-0.1389483,-0.08183352,0.046273056,0.15692012,-0.099625885,0.026641518,-0.023443168,0.023189269,0.0771994,0.051814463,-0.00968312,0.04793373,-0.08252653
-0.14191273,-0.03687509,-0.00091619557,0.049625885,-0.093680695,-0.13465631,-0.12427378,0.061442982,-0.09775186,-0.09013614,0.053076092,0.057736833,-0.11935753,0.057032015,0.023394784,0.038194645
0.036294468,0.08801088,-0.0077729425,-0.051999085,0.010138358,-0.12535872,0.14584602,-0.17715213,0.11792943,-0.08252778,0.040877573,-0.09307635,-0.040168677,0.034769394,-0.010130971,0.050078683
0.083658926,0.0063965293,0.016064262,0.05332273,-0.14767897,-0.078411266,0.020472346,-0.05884199,-0.1306781,-0.079445004,-0.0758925,0.06292249,0.01771704,0.01641743,-0.09858999,-0.105201356
0.0062451023,-0.06485209,0.08461768,-0.015000836,-0.13558,0.0063342946,0.057657685,-0.085649334,-0.1144261,0.0035831586,-0.15376836,0.012539069,0.0050319517,-0.1154146,-0.0809948,-0.00013637097
0.022853602,-0.13465084,-0.033850823,-0.029202435,-0.08465776,-0.14066598,-0.11715965,0.07570765,0.025629675,-0.10173165,-0.02796893,-0.16357249,0.021664646,0.08739699,0.060069967,0.023617681
-0.047345154,-0.0028626455,-0.058401715,0.1521302,0.014207829,0.119711496,-0.11234039,-0.029979344,0.033198472,0.13983989,0.06054189,0.18235256,0.13185523,-0.032100182,0.034312923,0.008928802
-0.10439525,-0.04873825,-0.1852824,0.060638137,0.06999543,-0.005317121,0.0089391135,0.00094032,0.13546221,-0.026854774,0.12553507,0.07479625,-0.04890471,-0.06567078,-0.07448215,0.06950065
-0.039667867,0.055144638,0.09493899,-0.0901759,0.07015769,-0.05753189,-0.08044223,-0.11864087,0.022616826,-0.06962372,-0.00035836882,-0.1502685,-0.089220285,0.09115168,-0.06811038,-0.008673447
-0.012275347,-0.0610734,-0.053149242,0.054977138,-0.089831404,0.09825129,-0.05977464,0.07207813,-0.08751285,-0.121600255,0.09749082,0.1174391,-0.09662866,-0.06416926,-0.015457344,0.069006816
0.08105919,-0.08262638,-0.06361328,0.02831274,0.079129204,0.10817419,0.021094069,0.0894365,0.0052093985,-0.101900734,0.004005834,-0.0062317457,0.08341641,0.046947643,-0.071635365,0.057685886
0.03621206,0.06661752,0.11658503,0.002785972,-0.14074603,-0.022335365,0.072093934,-0.047492415,-0.013378263,-0.110358536,-0.17803355,-0.106596194,0.0042864056,0.07868203,-0.113828,0.07855582
-0.12303357,-0.026615167,-0.05302079,-0.05667245,-0.013613914,-0.035331182,0.15072137,0.11493284,0.04101486,-0.07769714,-0.051959362,-0.153902,-0.14417513,0.097276896,0.127721,-0.052235432
0.11621845,0.017362464,-0.016056813,0.06601898,-0.19059493,-0.011082637,-0.057421643,-0.011494977,-0.018345699,-0.069332235,0.020003276,-0.25084656,-0.24168685,-0.041379265,-0.11386866,0.035714164
-0.07941991,-0.00090653205,0.0963756,-0.03988744,0.022738684,0.019904727,0.07098886,-0.09162479,-0.079746105,0.010007299,0.057842,-0.06288607,-0.16629452,0.025824614,-0.034322992,0.051841088
0.013790706,-0.054693054,0.13568269,0.062884204,-0.053431354,-0.016431898,-0.066938385,0.070241846,-0.12864725,-0.19616471,0.03203997,-0.014206806,-0.20553254,0.059831686,0.0059094154,0.094854616
-0.06680055,-0.09872674,0.033232845,-0.08436569,-0.03908542,-0.035256516,0.06455751,0.095789015,-0.114582226,-0.14518805,-0.017476542,-0.22021817,-0.07342443,-0.113076836,-0.022519963,-0.028334746
-0.023155794,-0.010592725,-0.059021246,-0.057460003,-0.12946427,-0.007883296,-0.02444128,-0.06552899,-0.05361128,-0.13745877,-0.13896345,0.02419568,0.047496393,0.05752846,-0.019827023,-0.09749976
0.07186131,-0.05320226,-0.03816619,0.037881352,-0.14391959,0.056251302,-0.029156862,-0.07906266,-0.03947613,-0.0052793445,-0.06452903,0.08010374,-0.086846314,-0.06381555,0.04286164,0.14834175
0.026703639,0.03231502,-0.19472766,-0.0898822,-0.11279442,-0.018299378,-0.058295265,0.051491383,0.05631574,-0.13538733,-0.1548655,-0.10508925,0.011694525,-0.053962227,-0.054450676,-0.06847287
-0.036705364,0.0061218687,-0.07153826,0.015816621,-0.049779717,0.00019526678,-0.0058386284,0.026511932,0.076239415,-0.14976336,-0.14978255,-0.08000172,-0.17208077,-0.017290153,-0.14963536,0.112358674
0.028346725,0.0070942496,-0.08330316,0.12393045,0.10027164,0.004637124,-0.066264205,-0.014923812,0.13362823,0.06468348,-0.039470322,0.09180441,-0.04850469,0.012846434,0.0074756495,0.017407183
0.037760846,0.003801376,0.008670294,-0.04393319,-0.011606314,0.1337949,-0.081549376,-0.015604627,0.10796124,0.00988032,-0.06570762,0.038413547,0.06425751,0.07930523,0.03058544,-0.018120227
0.013666369,0.07285516,-0.11381005,0.013163562,0.06724486,-0.072891645,0.09555115,-0.032739732,0.08045659,-0.10535345,0.006788248,0.03565702,-0.038989205,-0.11921955,-0.05165802,-0.047283046
-0.09571959,0.08451519,-0.07762667,-0.029427346,0.122675695,0.16721171,0.0048616026,0.099036284,0.08779656,0.06598403,-0.094631664,-0.033580687,0.16214176,0.11258393,-0.04970327,0.14019607
-0.11391484,0.12664703,-0.0005599508,0.07836979,0.09833254,0.1465585,-0.007005985,-0.07351042,0.10007809,0.17010723,-0.008260396,0.038551133,-0.027394973,0.14203155,0.045010634,-0.083303034
0.069016546,-0.031984713,-0.1996722,-0.10491653,0.05474518,-0.071533985,0.16271622,-0.052355956,0.046532024,-0.040386237,0.12701626,0.043845765,0.15389477,0.055100895,0.008138076,0.13083535
0.026171686,-0.056664858,-0.06612761,-0.08214337,0.008057317,-0.12515293,0.030991416,-0.07896889,0.10143402,0.039606564,-0.039867174,-0.1119589,0.091746345,-0.039157495,-0.08899383,0.040538732
0.057839293,0.059055712,0.11103284,0.01598966,-0.13792834,0.00048217093,-0.03584312,0.11412826,0.084328756,-0.15928574,-0.03180685,-0.092464216,-0.11323465,-0.094964534,-0.08939353,-0.009377866
0.07281197,-0.022312116,-0.056050304,-0.017561516,-0.001180493,-0.0821102,-0.04316646,-0.061029162,0.052537814,-0.04239576,0.01064725,0.048677884,-0.104698226,0.044411525,0.024933344,-0.013818279
-0.1038359,-0.08115969,-0.044484537,0.086091734,-0.09791828,0.014444436,0.06518519,0.08367245,-0.01806977,0.00954995,-0.04621794,-0.09249353,-0.12207003,0.031004837,-0.081407115,-0.051116515
-0.090802155,0.06154933,-0.10333395,0.117883615,0.10290391,-0.081846684,-0.09531894,0.054123253,0.0162308,0.024512315,-0.06399133,-0.06641579,-0.075353764,0.08610414,-0.1352997,-0.010530583
-0.038906246,0.01591057,-0.1361259,-0.006194917,-0.07727767,0.0042135287,0.060374353,-0.0470811,0.08494973,-0.11911488,0.07973848,-0.19426754,-0.015589193,-0.010083728,-0.078224085,0.17471413
0.047351018,-0.14716904,0.04568697,0.061890025,-0.107338324,-0.0676673,0.016615069,0.039549462,0.04312574,-0.10965945,0.049563516,-0.07750424,-0.21504597,-0.10659205,-0.03253437,-0.074938916
0.06418723,-0.13742423,0.08783872,-0.11299219,0.031802017,-0.06874194,0.081251584,-0.015659135,-0.0071777306,-0.15052564,0.07931278,-0.120877385,0.10489483,0.036082275,0.0727368,0.059109308
0.10062474,-0.04086806,0.07628382,-0.011181094,0.0021391287,-0.1763456,-0.061350137,-0.07904442,-0.021496415,0.02431574,-0.15241931,0.029979633,-0.10887023,0.07582473,0.0061512045,-0.07575865
-0.13382265,0.09898451,0.041297313,-0.07731263,0.012583137,0.08032563,0.07266552,0.021756206,-0.103444666,-0.07601509,-0.11007174,-8.8267305e-05,0.007689277,0.05353997,0.11058815,-0.05333891
-0.010998412,0.10129716,-0.02484344,-0.11043696,0.019120326,-0.10228834,0.15727526,-0.08272924,0.12394155,0.13073367,0.026567398,-0.070968546,0.09398686,0.02135818,0.04229062,0.13781549
0.065700926,0.043286305,-0.023860121,0.12943512,0.002124059,-0.14531617,-0.0025189186,-0.030250615,-0.14122988,-0.07633656,-0.043528948,-0.07086129,-0.0511125,0.06108243,-0.03292175,0.13423127
-0.02444202,0.021467647,0.02839963,0.09110683,-0.2025373,-0.041556537,0.098439194,-0.023258457,-0.15816744,-0.03519372,-0.15671389,-0.16632521,-0.1071988,-0.028617961,0.117100686,0.053391375
0.036084667,-0.048374962,0.12081797,-0.095087685,-0.05374238,-0.07741324,0.08287176,0.12855203,0.032880418,-0.064712994,0.024434265,0.01908511,-0.16578534,-0.037721224,0.10098878,0.05172389
0.026449144,-0.025239255,-0.02550666,-0.058424838,0.10719042,-0.007186828,-0.087863885,-0.060101528,-0.07985996,-0.078328095,0.08661247,-0.036944836,-0.052550517,-0.022659592,0.11247933,0.007157101
-0.03501654,-0.019244943,0.15996674,-0.07929187,-0.06405671,-0.10031304,0.062358133,-0.032370154,-0.10918163,-0.16230917,-0.1289849,-0.16434532,-0.07438234,0.0343192,-0.035328936,0.09088977
0.0048780683,-0.0993069,-0.13937311,0.08631421,-0.058537424,-0.08694569,0.08538289,-0.08494594,0.036176465,-0.17519473,0.027748048,-0.022585982,0.07338574,-0.025512723,0.0070787426,0.08148426
-0.0206516,-0.072555274,-0.00098346,0.17042737,-0.082648374,-0.093068734,-0.05364699,-0.06401142,-0.099072345,0.1436833,0.006537486,-0.009292397,0.0075834473,-0.005426912,0.0027323253,0.1880316
-0.11975502,0.021132836,-0.07115145,-0.04529558,0.05797696,-0.13593085,0.111843586,0.08698792,-0.040011805,-0.1729791,-0.09042,-0.1297548,-0.015109227,-0.01922268,0.10809567,0.04871473
0.053269483,-0.031490617,-0.008491204,0.051924888,-0.105064444,-0.09416477,-0.021082224,0.09572079,0.022583097,0.031498633,0.08086611,-0.078939535,0.1045726,0.043218274,-0.09536102,0.13229066
-0.044970255,-0.06591112,0.01183799,-0.026382852,-0.00023423923,-0.0980944,-0.09358895,-0.0021954584,-0.15550685,-0.1958721,-0.12060223,-0.13346715,0.001092892,0.093376316,0.025222382,0.071299665
0.0648755,0.050093286,0.0601653,0.027664602,-0.05731194,-0.21713516,-0.021112045,0.011044252,-0.027242573,-0.07491479,-0.06871281,-0.11079503,0.014792228,0.04407681,-0.029282453,0.1489539
0.048942335,0.08420237,0.055591524,0.07610752,-0.084205754,-0.023458678,0.050474778,0.011668386,-0.11376078,0.0061513395,-0.17722128,0.019390192,-0.119192585,0.11942198,-0.06881975,-0.018355235
-0.00024149445,0.06110719,-0.06541812,-0.042473186,0.03704153,-0.07798703,0.1052301,-0.0007493591,-0.053735945,0.0028882797,-0.04068602,-0.048340965,0.1579606,0.12668897,-0.054829914,0.02643382
0.027970653,-0.07386341,0.09196549,0.0704587,0.055370104,0.05891969,0.08320774,-0.08613091,0.08210004,0.015245548,-0.11743114,-0.0071570138,0.07740515,0.10519201,0.0308973,0.090102226
-0.059736934,-0.052806158,0.029536085,-0.086886875,-0.15301481,-0.010211083,-0.071477324,0.07247295,-0.075575165,-0.21440597,-0.118724495,-0.082302384,-0.24755426,0.043429207,0.11406008,0.027407372
-0.07327633,0.0025583059,-0.0159468,0.07574979,-0.03169202,-0.0200215,0.10592723,-0.041983433,0.09870414,0.032162655,0.053334747,-0.08438846,0.0833346,-0.0022311658,-0.047807008,-0.113287725
0.020068787,-0.080172464,-0.06637734,0.062311076,0.060639855,-0.1887679,-0.08439443,-0.046663973,-0.04715283,-0.17462951,-0.19276479,0.01886352,-0.072314814,-0.04105177,-0.13024239,-0.09387636
0.047529098,0.06864493,0.09288408,0.049173195,-0.20797056,-0.21262847,0.0027416907,-0.018334996,-0.037141733,-0.07183879,-0.12186491,-0.02391615,-0.06980846,-0.11681753,0.00035651127,-0.119714946
-0.034062967,0.07842558,0.1211656,-0.016723284,-0.13288927,-0.063525066,0.028064324,0.112726495,0.059985436,-0.03647899,-0.036121964,-0.10223197,0.052065734,0.04030604,-0.12552468,0.09923194
-0.065403625,0.05981663,-0.07075791,0.10998595,-0.08988083,-0.093995444,0.0682399,-0.07310023,-0.03328179,0.024480646,-0.15507191,-0.023481308,-0.025094979,-0.044618573,0.049754117,0.04829966
-0.08596393,-0.03779851,0.14192677,0.09929787,0.063532524,-0.027438167,-0.10497389,0.06872321,0.06992602,-0.08147171,0.08969795,-0.071388595,0.080791585,0.013767453,-0.037047394,0.052885506
-0.014283478,-0.11299978,0.08556793,0.106103875,-0.11291874,-0.16251653,0.11616845,0.02091005,-0.019355897,-0.13649102,-0.15251444,-0.18365122,-0.116270185,0.032199506,-0.018967371,0.090646565
-0.112720355,-0.14620394,-0.08453024,0.13690187,-0.05456147,-0.01709189,-0.13290001,0.05867917,0.011027737,-0.11413562,-0.145007,-0.06739259,-0.041126724,0.055362776,-0.038338944,-0.058801338
-0.10664345,-0.06302658,-0.035929874,0.13039169,0.03664976,0.02366514,-0.010984919,0.07300056,-0.09062013,-0.07818282,0.065468,0.08838059,0.11236807,0.09419688,-0.067537814,0.073728316
-0.06677299,-0.059730586,0.07080796,0.13472421,-0.036025237,0.081243046,0.035516948,0.12602185,-0.07107055,-0.06673642,-0.10338072,-0.076722436,0.045455478,0.102387816,-0.07839807,0.028540429
-0.0129392715,0.003943956,0.06210066,-0.02890266,-0.024832433,-0.11298254,-0.034840275,-0.073740594,0.04921506,-0.09948679,-0.05312934,-0.08751914,-0.033740465,0.0974285,-0.11953874,0.07709888
0.10467562,0.035844453,0.028679678,-0.06293953,-0.08214142,0.04863038,-0.072724074,-0.092016175,-0.12111332,-0.023578,-0.11264216,-0.06404363,-0.12520286,-0.010365291,0.09484042,-0.030126465
-0.09621348,-0.09858257,0.021487195,-0.0911654,-0.06301004,-0.1406585,0.009996467,0.13146488,0.019752624,-0.13973844,0.084409654,-0.024896018,-0.1315639,-0.013506928,0.028913256,0.0012020667
-0.0575837,-0.10808809,-0.10824369,-0.08666687,-0.04872375,-0.010041302,0.011181877,-0.0074930363,0.023400389,0.028304534,0.040911194,-0.093474,-0.071339294,-0.041737583,0.11103734,-0.009113125
-0.12952808,-0.05373734,0.092896946,-0.074408524,-0.008036265,-0.100110196,-0.058117814,-0.1254802,0.02803813,0.08039911,-0.0933076,-0.012378727,-0.004771943,0.0040194876,-0.10171748,-0.047170922
-0.09687975,-0.088493325,0.06348513,-0.046743944,0.06218076,-0.029056545,0.040148646,0.10809085,-0.13535045,-0.047315624,-0.10818603,-0.061536774,0.108085416,-0.0746273,0.025519984,0.031256873
0.031849343,0.03547197,-0.11004364,-0.059508342,0.19560704,0.027891291,0.071833745,0.040733796,-0.025989074,0.0028060952,0.08531719,-0.00874315,0.12763405,-0.086128086,0.030351004,-0.10222141
-0.06419417,-0.019160932,0.005603538,-0.060783308,-0.027176956,-0.07433914,0.11334281,-0.08886711,0.008261606,-0.08342411,-0.15807095,-0.11234595,-0.097951666,0.112966985,-0.0664971,0.010053668
0.042657405,-0.026067458,0.0773227,0.027756296,-0.08327177,-0.05602247,0.00580413,-0.0024479618,-0.03672998,0.051019933,-0.099645525,0.03866545,-0.09246399,-0.065719366,-0.048651833,0.10302525
-0.046808425,-0.14742053,0.058977675,0.13135454,-0.040918242,-0.14443886,0.05587372,-0.06082993,0.08946014,-0.1648179,-0.041182254,-0.21116346,0.0044464148,-0.07684666,-0.0024191756,-0.06168812
0.09974593,0.06620102,-0.052723683,0.10158981,0.056043707,-0.003106134,-0.061018433,0.035383336,-0.00688799,-0.15482306,-0.08104073,0.09670389,-0.15698951,-0.10992974,-0.083746135,-0.010474762
-0.07504999,-0.19180438,0.098806165,0.053155687,0.017989885,-0.071048886,-0.08761193,0.07106704,-0.1699679,-0.18931346,-0.10115002,-0.028544353,-0.23419137,-0.010083857,0.08206245,-0.12343586
0.030660214,-0.110309236,-0.07299074,0.051479522,-0.1019052,0.018861327,0.02334637,-0.10258939,-0.10083661,-0.091639526,0.0076376987,-0.15938415,-0.0052629244,-0.07214475,0.06488256,-0.029310938
-0.0075269924,-0.08031104,0.012339836,-0.060074214,-0.04802712,-0.032889873,0.11624894,0.096606605,0.036526386,-0.16747755,-0.032543354,-0.042433564,-0.19878589,0.08668584,-0.04503672,0.06986408
-0.10154054,-0.012291353,-0.04276876,0.09960878,-0.080913536,0.021494541,0.088060796,-0.04269468,-0.11555881,-0.06352425,-0.0034349184,-0.1066522,-0.161491,0.059808124,0.078650855,-0.0034090388
-0.089968085,-0.116646804,-0.013144666,-0.01971821,-0.19772953,-0.03681572,-0.123298004,-0.028473938,-0.042322647,-0.0342761,0.007003486,-0.17420217,-0.06748931,-0.09064106,-0.032073323,-0.017897021
-0.036077853,-0.031015292,0.09297917,0.018384198,-0.14614901,-0.04068371,-0.052742336,-0.089487545,-0.16163123,-0.054972116,-0.15600835,-0.0071793455,0.018642362,0.04543867,0.16287561,-0.07323674
-0.104958616,-0.01113462,0.17610942,0.027880311,-0.045568254,-0.080316104,-0.16785735,0.17103814,-0.14984009,-0.05955853,0.05562213,0.03376903,0.018668907,-0.16040467,0.18769307,0.012011782
0.07000387,-0.07572624,-0.0019931474,-0.05180672,0.026428604,-0.1613563,0.11882546,0.10695961,0.06612142,-0.1693844,-0.11914685,-0.20554782,-0.16317506,0.13135578,0.030491395,-0.0033097942
-0.11166584,0.15151794,-0.09004426,0.059362542,-0.01579802,0.21492384,-0.046893127,-0.10879599,-0.034077436,0.04700572,0.10526548,0.20091842,0.19398592,-0.037237965,0.03780225,0.08685163
-0.07683996,-0.11289636,0.016963009,0.014681284,-0.08879848,0.023308573,-0.09247829,-0.016557543,0.008925748,0.033360183,-0.15104651,-0.18054466,-0.030554386,-0.010653915,0.042437192,0.00805806
0.051538806,0.014031357,-0.024295205,-0.053400025,0.094928704,0.0085185645,-0.05033868,-0.1177783,0.12708415,0.079858415,-0.024145408,0.08007063,0.06236198,0.07308627,0.09246824,-0.12474036
0.041433536,-0.0055200383,-0.04633981,0.0022491303,0.015523199,-0.1262598,-0.10423852,0.053202614,-0.14573929,-0.14840505,0.014087528,-0.10671428,-0.05380248,0.03734005,0.055267636,-0.04848108
-0.026828593,-0.13924867,0.20593013,0.010636323,-0.117534414,0.0029337362,-0.14431438,0.101589754,0.03255412,0.051383913,0.07772504,0.06647247,-0.05402171,-0.08300567,0.09557414,-0.0034419273
-0.035029773,-0.08959365,-0.0005705495,0.02501857,0.054188408,-0.03496789,0.1288419,0.04815363,0.12570792,0.03133526,0.07754324,0.10167029,0.05361449,0.03156936,-0.051029384,0.08787801
-0.041055247,-0.04186573,0.102133304,-0.042086843,0.022148559,0.052199006,0.08975261,0.13262777,-0.14228849,-0.02177983,0.013781903,0.054780293,0.040173836,0.08730758,0.015977718,0.02564363
0.081908174,0.13364744,-0.071750686,0.085509,0.09960881,0.019570822,0.024262354,0.019213175,-0.012891787,-0.036105342,0.018607842,0.07146789,0.17112143,0.0987021,-0.028514523,0.10293955
0.049186356,-0.12925512,-0.096289486,0.055030007,-0.082010604,-0.09466431,-0.13090427,-0.041496113,-0.041128393,-0.09802959,-0.01637033,-0.035469666,-0.068900526,-0.11527188,0.0221965,-0.073359296
-0.10323638,-0.10644117,-0.0042969133,-0.094311334,0.0099386675,-0.09173629,0.008642005,0.010842684,0.065821365,-0.08375018,-0.13194625,-0.040393557,0.0031559041,-0.013094011,-0.047393873,-0.06671017
0.0866359,0.022013523,0.056665696,0.025716174,-0.09983399,0.0056295856,-0.043814834,0.17581491,0.005028091,0.038797114,-0.109001085,0.045982234,-0.033156756,-0.0903447,0.1847594,-0.10301004
0.08680593,0.041724045,0.10294765,-0.0038210035,-0.08722202,0.0022905131,0.03845449,-0.011452052,-0.060090307,-0.05976137,-0.15486127,-0.14234455,-0.14241767,0.113208644,0.018891698,0.11648259
-0.008136987,0.011523719,-0.078604795,0.036786806,0.05389622,0.033693176,-0.047227237,0.01204141,-0.09162565,-0.009302073,0.011473621,-0.0755623,-0.09838113,-0.09782518,0.13230748,-0.05115007
0.11572108,-0.014461684,0.048584905,0.022832602,0.06357794,0.031059181,-0.062100474,0.042605527,-0.06428426,0.044847053,0.094153956,0.05452572,0.0019206451,0.06567,0.09956415,0.08616997
0.025104178,-0.03246703,0.047731634,-0.05695218,-0.031832322,-0.06672703,-0.043993194,-0.015875116,-0.06308883,-0.04768198,-0.09349417,-0.10981434,-0.16859749,-0.05251523,-0.019543359,-0.14851497
-0.08275975,-0.05024891,0.08472855,-0.023947472,0.054285765,0.08038576,-0.06753366,-0.059785258,-0.11455371,0.0047891103,-0.035408396,-0.042650584,-0.07290193,0.020945359,0.031230072,-0.06594165
0.08582723,-0.11870579,0.018684378,-0.0041871984,0.055002756,0.04064016,-0.09492689,0.029427659,0.036213916,-0.09148617,0.107607946,-0.059885193,-0.027699975,-0.04531146,0.091367744,-0.1776075
-0.091043636,-0.1151892,-0.1154092,0.03181672,-0.12975565,-0.116365686,-0.11211764,0.016286623,-0.050451685,-0.18816015,-0.15387732,-0.19333416,0.029916452,0.114035234,0.071539775,-0.0071564694
-0.11725429,0.069927245,-0.076754116,-0.073547825,-0.053021125,-0.09576728,0.13264787,-0.04569671,0.027059512,-0.031729568,-0.1439798,-0.014053578,0.040989242,0.11974709,-0.04269163,0.06403121
-0.029922774,0.011355067,-0.10674314,-0.07636956,-0.078620434,-0.0014061433,0.033577144,0.028294336,0.06422208,0.02619571,0.13328739,-0.05085015,0.057617392,-0.09294785,-0.03272669,0.095709935
0.07674701,-0.11197483,0.11419654,0.04644659,-0.09232203,-0.08245295,0.00699871,0.078088656,-0.0682648,0.027805056,0.041031267,-0.21544409,-0.022811864,-0.083671615,-0.1045335,0.04896338
-0.039389044,-0.11426606,0.17464389,0.081401214,-0.14517167,-0.0048073274,-0.038449388,-0.08054329,0.071050555,-0.026852768,0.05844287,0.0044784597,-0.17956442,0.084690325,-0.030234577,-0.0487004
0.09466961,-0.059384864,-0.029488953,0.08419962,0.03081167,0.086508565,-0.13178496,0.020618489,0.04430995,-0.111946605,0.079476655,-0.0052072103,-0.1179368,-0.10960556,0.0970015,-0.12432596
-0.08039739,-0.0747596,-0.03464555,-0.027051104,0.017459683,0.07212435,-0.044424247,-0.07342672,-0.06488611,0.05287047,0.01277325,-0.086808234,-0.038764693,0.02345408,0.044776425,0.08303164
0.048603963,-0.033956476,0.031519588,-0.05537509,-0.115893796,0.020539654,0.09015796,-0.040135846,0.031822525,0.038344637,-0.04873995,-0.024935275,0.0442233,-0.04274552,0.1303623,0.032603763
0.029994888,0.087821186,-0.09436389,0.04851189,-0.035179265,-0.00059016485,-0.021721736,-0.01569028,-0.1250529,-0.031312108,0.078432724,0.0038510775,-0.08872055,0.03534099,0.02250781,-0.0007889375
-0.018196099,-0.038097184,0.019829895,-0.067164406,0.07225576,-0.13787812,-0.10905432,0.023701847,-0.04410371,0.026060194,0.036156524,-0.11286983,0.013949897,-0.05584978,-0.0010746061,-0.043390132
-0.091837704,0.046272434,0.024488391,0.023205126,-0.044389833,0.022496,-0.073663265,0.078868,-0.03870014,-0.07354407,-0.016809227,0.08092922,-0.019106647,0.0153479315,0.0657957,0.08149558
-0.03702503,-0.15817863,0.15135199,-0.14674412,-0.028976502,-0.15576819,-0.027758416,0.17736778,-0.031373013,0.039639216,-0.090945035,0.03943264,-0.09150502,-0.16113503,-0.024123961,-0.12925874
0.029560465,-0.06774043,0.05814991,0.065933295,-0.10406002,-0.21296981,-0.12827224,0.070655614,-0.0464723,-0.0030725715,-0.097091004,-0.17763248,-0.095182575,-0.0735568,-0.061016068,0.123411424
-0.000232257,-0.030518709,0.010203606,0.05002588,0.027087616,-0.017707368,-0.098839566,-0.0998933,-0.09676678,-0.15104008,-0.059381146,0.024705447,-0.16652966,0.04101627,0.03343661,-0.051820636
0.08634323,-0.0081814295,0.061470013,-0.021628488,0.09576906,-0.110249676,-0.06285986,-0.01916764,-0.09397664,0.036289684,0.07949502,0.0036824732,-0.12416886,0.09148646,0.09575594,0.074618615
0.044835933,0.09811328,-0.10947823,-0.0984077,0.07503417,-0.014269969,0.03209781,-0.03210801,0.080565,0.06256612,0.13724913,0.029536586,0.094870634,0.03707901,-0.07357809,-0.15564287
-0.11294878,-0.08204002,0.09940294,0.054824103,0.017766112,-0.061665814,0.06724294,0.14230421,-0.13978924,-0.01963141,0.025246518,0.059578974,-0.17193574,-0.098876305,0.10439066,0.14537364
0.0036163083,-0.14851965,0.06279487,-0.15176608,-0.109978676,0.15338415,-0.12861483,-0.041876454,0.013291596,0.036567517,-0.08349844,0.053458318,0.070848614,0.039122302,0.09855747,0.017141374
0.1058639,0.00889547,0.092292175,-0.12171695,0.0645309,-0.14536713,0.020036872,-0.0030026028,0.05516172,0.04301129,-0.135758,-0.1133551,0.049646866,0.10460412,0.07486026,-0.12937382
0.015297641,-0.026319817,-0.09767231,0.0066564395,-0.08937632,-0.17953609,0.008300002,-0.07659881,0.039744616,-0.059688143,-0.08802232,-0.09532267,0.03778862,-0.12141897,-0.03136494,0.024066381
0.07634493,-0.018908588,-0.097007595,-0.058488593,-0.120604545,0.028361345,-0.073934875,0.04156982,-0.09465099,-0.005356139,-0.059195615,-0.1314086,-0.14292386,-0.048962682,-0.002469226,-0.021424733
0.06960437,0.098709784,-0.06406624,-0.05622201,0.110355854,-0.0026505429,0.04370594,-0.0019870366,-0.04050178,0.10784647,0.14646186,0.0706852,0.05420628,-0.1076157,-0.0881996,-0.14244244
0.055033155,-0.05782191,0.06082078,-0.106228724,0.002432291,-0.08152601,0.081199706,-0.092348576,-0.038364224,-0.0077704126,0.07503361,-0.090580076,-0.076271765,0.09802982,0.009833914,0.0873086
-0.094404265,-0.13932285,0.11824985,-0.010796396,-0.058249507,0.15279244,-0.12316717,0.02009785,0.12907064,-0.0156209795,0.10865567,0.055542406,-0.08279101,-0.038322963,0.18598457,-0.14255849
0.114352986,0.058127243,-0.062264547,-0.06324097,-0.030681176,-0.19409221,0.050575007,0.132176,0.0786883,-0.20906626,-0.07782899,-0.09013727,-0.18047185,0.021620123,0.08278006,0.10064145
-0.13043311,-0.08618859,-0.06607519,0.009034396,-0.13784884,-0.023150956,0.005786237,0.013216845,-0.01737937,-0.054138884,-0.03236916,0.01237427,0.08097467,0.10312246,0.08092427,-0.085158125
0.12501064,0.10382123,0.04227197,0.033263914,0.004888578,-0.07448426,-0.11284383,-0.040439587,0.030900469,-0.0047713965,0.009691094,0.08522988,0.05872092,-0.045893602,0.05338244,-0.08822234
-0.04372492,0.03310155,-0.020495284,-0.08662724,-0.06268274,-0.046039417,-0.05542326,-0.08830594,-0.016309546,0.16580227,0.013261762,0.06573478,-0.08479942,0.056928467,0.076745346,0.06824222
-0.029419467,0.016316963,0.10899475,-0.08570361,-0.004240347,-0.15893044,-0.037099034,0.071503825,-0.095861,-0.13260312,0.02147349,-0.13310365,0.017018005,-0.05804842,-0.10446237,0.0063619427
-0.09313755,-0.031558234,0.093074255,0.07838861,-0.06370001,0.0053963717,0.023190418,-0.03497384,0.028843729,0.035818588,-0.001337933,0.018327309,-0.18507469,-0.030623723,0.053631324,-0.19903569
0.024326997,-0.0494324,-0.020387774,-0.002745089,-0.15787841,-0.10842659,0.08506491,-0.0027266457,-0.05896464,-0.10524253,0.026637845,0.00078088406,0.069386736,-0.086798124,-0.08990995,-0.11428254
0.06030774,-0.10160639,-0.047181558,-0.11154674,-0.17298658,0.06253026,-0.10935055,0.080398686,-0.027443448,-0.07985742,-0.06603161,0.01775438,0.058178704,-0.018785994,0.0617891,0.054681774
0.022755966,-0.12852709,0.056548603,-0.013882742,-0.109984934,0.02167486,-0.021512076,0.021340018,0.07665812,-0.1627129,-0.12011267,-0.05185539,-0.14692529,0.06801636,0.021169053,-0.017849317
0.009639453,-0.092002556,0.055186342,0.016560826,-0.1862939,-0.14706215,0.026866116,0.0810942,0.046978008,0.016995208,-0.1084849,-0.081629075,-0.012209589,-0.100269504,-0.021206828,0.12286575
-0.04026753,0.054229323,-0.00088188774,0.09955998,0.08763457,-0.02815147,-0.06583811,0.064086,0.12605862,-0.019304663,-0.042404883,0.16540897,0.14267261,0.058566056,-0.122829676,-0.023062875
0.037798338,0.082376175,0.10249557,-0.07649628,0.10531735,-0.124080606,0.0050013075,-0.03987479,-0.040778883,0.0951989,0.07097443,-0.108507626,0.026528811,-0.01434554,-0.04640168,-0.15784058
0.0047722207,-0.15125279,0.12889124,-0.05551649,-0.07231231,-0.20044841,-0.029188156,0.11397861,0.055603053,-0.11929266,0.051026974,-0.22006229,-0.07379414,0.009075213,0.0799531,-0.110168934
0.10386853,-0.048608255,0.04851857,-0.04760318,-0.032388296,0.03209515,0.08946682,0.111106224,-0.14237191,-0.18927339,0.026748832,-0.0705068,-0.09424481,0.05872539,-0.098381445,0.108994424
0.119746596,0.072641686,0.008609285,0.047294002,-0.1004258,-0.042810667,-0.019602073,0.10124864,0.054928813,0.023144472,-0.16007411,-0.01034033,-0.13212368,-0.0018366996,0.11100145,-0.034297954
-0.034273643,-0.09464577,-0.023955937,0.03435308,-0.008461927,-0.0067971004,0.09906577,0.06016998,0.026836868,0.18570155,0.052126344,-0.075353876,-0.044219922,0.12638593,-0.1382705,0.081161425
0.039314926,-0.1412891,0.10815029,0.022128634,-0.09626407,-0.174176,0.13332115,0.06688504,0.054665163,-0.13770032,-0.092952505,-0.1380497,0.0077055944,0.0796546,-0.07676143,0.08004788
0.025228526,-0.002477214,-0.14422166,0.08078608,-0.00020636927,-0.11037869,-0.0470119,-0.09718344,0.09031096,-0.017839462,0.020830464,-0.051134102,0.08325156,-0.010614071,0.07657782,-0.10110532
0.055501327,-0.02495705,0.021138601,-0.05121846,-0.035123046,-0.0012482202,0.030844795,0.04707091,0.052678976,-0.13778101,-0.05269748,-0.00773468,-0.1544197,-0.09003636,0.11111691,0.09337649
0.06782154,-0.10381029,0.09777311,0.08374392,-0.10568846,0.036329404,-0.010163915,0.017957106,-0.13917676,-0.12339123,-0.030877296,0.07356643,-0.036766436,-0.0056251558,-0.017419403,-0.029080248
-0.0021291263,0.07807363,-0.0071043177,0.05250264,-0.030608835,0.11563255,0.052625533,-0.118097976,-0.07981218,-0.024814138,0.03838055,0.10751081,0.032155212,0.09177498,-0.0046497155,-0.07434654
-0.07349318,-0.085102804,-0.01102947,0.005865477,-0.1371244,-0.10762977,-0.101401076,0.08642875,-0.014598873,-0.15685968,-0.08352169,-0.17767859,-0.21447007,0.115093015,-0.08010146,-0.06073189
0.10670238,0.08544844,0.060369954,-0.045348868,-0.05674093,-0.1327701,0.027912075,-0.012435547,-0.090954095,-0.17967112,-0.06328612,-0.18098135,-0.11527557,0.01566846,-0.020937745,0.009262272
0.10439633,0.050929658,-0.14813542,-0.041878697,-0.04222088,-0.083832696,-0.0008939123,-0.09471985,-0.12146285,0.08660765,0.07615643,0.018668465,0.076674074,0.15160719,-0.0049143583,-0.039336007
-0.094496265,-0.11673429,0.07209573,-0.056602295,-0.040311944,-0.2146958,-0.032778047,-0.066168934,0.043432932,-0.08250677,-0.1742809,-0.0920571,-0.14051867,-0.013167058,0.07252404,-0.09855006
-0.08453662,-0.08559508,0.08678457,0.0036958756,0.08705058,-0.099797525,0.0737885,-0.013669665,-0.12910469,-0.02376189,-0.1275232,0.0050710295,0.056721225,-0.104383,0.119154565,0.08315323
0.11662021,-0.07939939,0.038725037,0.020443536,0.070910506,0.0091133965,-0.0059270062,0.10912358,0.07697396,0.008048337,-0.1589669,-0.08087587,0.012368864,0.11728054,-0.023080032,0.04592689
0.10530637,0.010772198,-0.00016864386,-0.05194338,-0.11118515,-0.056763615,0.04337521,0.062602416,-0.10205778,-0.1373964,-0.03696104,-0.16443498,-0.21071722,0.014627387,0.050768092,0.0838642
0.032428212,-0.09730352,-0.11363766,-0.10555309,-0.09748933,0.112096205,0.041930232,-0.052741893,-0.008276821,-0.053893127,-0.07044721,0.10138897,0.09580261,-0.002326913,0.0069777537,0.1151247
-0.05422306,0.03154812,-0.16891755,0.104533285,-0.06150889,-0.19850132,0.07088719,0.014219922,-0.0068556056,-0.017858725,-0.019074718,-0.21584906,0.045255568,-0.019643674,-0.16799171,-0.028169503
0.12552574,-0.076034985,-0.12833858,0.10325713,-0.0722336,-0.12680113,-0.018253872,-0.103699945,0.019002926,-0.053946186,-0.1558596,-0.047066394,-0.10014665,0.039863456,0.023696473,0.02921915
-0.014165043,0.071466625,0.03934929,-0.03068974,-0.093098976,0.104307674,0.0018521965,0.06237158,-0.11952949,0.109619506,-0.08171673,-0.028153338,0.046464123,-0.02692615,0.018723229,-0.059687767
-0.082755685,0.04511696,-0.120560616,-0.00017946851,0.03608854,-0.041630607,-0.08295706,-0.02369068,-0.11433641,-0.031884655,-0.007883995,-0.12959817,-0.17433298,0.11174899,0.10682783,-0.09958737
-0.045626856,-0.03470719,0.009143753,0.09372781,0.024674052,0.012437939,-0.08256869,0.08906923,-0.05644636,-0.10549806,-0.10901662,-0.14483187,-0.019023603,-0.048797596,0.024947695,-0.00488979
-0.011682909,0.03733876,0.11020937,0.007278507,-0.104748204,-0.07329842,-0.09645229,0.09362391,-0.06324578,-0.15888946,-0.047066968,0.043712866,-0.1776092,-0.04001885,-0.023328269,-0.09261087
0.04522374,-0.0773467,-0.035998225,-0.043988567,-0.102967836,-0.035254516,0.07333814,-0.12119233,0.052713238,-0.025076536,-0.080940746,-0.0989116,0.036660768,0.05246852,0.045196407,0.17482238
-0.037752777,0.06394674,-0.031118192,-0.08908167,0.013764632,-0.016281411,-0.048282716,-0.028554907,0.03994044,0.120554075,-0.10722164,0.13654236,0.04360091,0.06584103,-0.035807204,-0.036741752
0.09237795,-0.017512027,0.011733831,-0.11830668,-0.110207975,-0.09040266,0.06313623,0.02411969,-0.017547194,-0.16516282,-0.039744917,-0.050850287,-0.12732154,0.03162019,-0.052653488,0.067892395
-0.07968453,-0.0011963974,0.013269964,-0.09892762,0.010857599,0.028579373,0.044302993,-0.038366597,-0.0205743,0.030971726,0.08504324,-0.08416926,-0.05675907,0.09794121,-0.027039299,0.037812408
-0.08460572,-0.08281764,-0.009392735,-0.055903737,-0.12451131,0.027776498,-0.046510357,-0.10600677,0.042536747,-0.12520005,0.02975691,0.037695307,0.03647948,-0.07149639,0.09861169,0.025389053
0.07761382,0.06106257,0.01675548,0.039684344,-0.1905402,-0.10200442,-0.010815473,0.06283356,0.0071021435,-0.025975378,0.030254738,-0.006415999,-0.07661634,0.005583903,-0.028851476,0.094138496
-0.0451895,-0.028842067,-0.09501981,0.047389176,-0.19257748,-0.17256145,0.11002926,-0.04762629,-0.1063838,-0.090591095,-0.096474096,0.023901675,-0.11823144,0.08807161,-0.016536199,0.1528833
-0.070057124,-0.09081956,-0.12031314,0.03485172,-0.1615954,-0.13944568,0.008925003,-0.042098247,-0.091592476,0.0109407175,-0.09996303,-0.13605398,-0.11229254,-0.08269945,0.06795275,-0.019732488
0.034203723,-0.07849318,-0.034317147,0.09523485,-0.06292265,-0.028947517,0.08396129,0.023016518,-0.13429475,-0.21054742,-0.18386258,0.013846629,-0.10302273,0.10635116,-0.074526995,0.0635179
-0.085322805,-0.009089697,-0.099276036,-0.082581244,-0.023415161,-0.006595587,-0.06642006,0.01410078,0.14216684,0.17546985,0.078852676,-0.0364265,0.10466802,0.007213157,-0.053432412,0.025520746
0.04485072,-0.040117376,-0.01686395,0.103931725,-0.13524961,0.05645762,0.04017577,-0.09370809,-0.11151859,-0.15303743,-0.11710209,-0.013884315,-0.08860772,-0.11061678,0.12305461,0.067014255
-0.1206493,0.017137544,0.036293674,-0.0115408115,-0.13988616,-0.01415457,0.063943565,0.04816024,-0.08396694,-0.07367895,-0.05047008,0.008109505,0.0054545454,-0.04151078,-0.032682776,0.033345968
-0.013117779,0.0035152917,0.114437126,0.011734594,0.03734269,-0.027093958,-0.043297272,-0.1139319,0.04217516,-0.0052568107,0.093998246,0.09829576,0.19079338,0.065162845,0.022844104,0.010577862
-0.1286287,0.10392452,0.0050629317,-0.053391233,0.13120677,-0.0344866,-0.0643708,0.08027713,0.01716107,0.035297915,0.11623643,-0.03253136,-0.08199162,-0.049513083,0.02126457,0.11606893
0.06787818,-0.013182656,-0.086481646,-0.10327383,0.06658535,0.15403542,-0.08578828,0.04080666,0.083788626,-0.026583081,0.010916329,-0.008695549,0.049788505,-0.02990553,0.12726282,0.04353634
-0.11510711,-0.044957485,-0.0108064385,0.05308296,-0.14334705,-0.051184826,-0.11183284,0.010713856,-0.024702009,-0.13148746,0.076684915,-0.1425655,-0.11797441,0.06395705,0.06764491,-0.08631863
-0.04774228,0.030061014,-0.15948223,0.030778917,-0.1033208,-0.13261531,0.080380425,0.035088222,-0.071211524,-0.17763902,0.051391322,-0.08218159,0.02714443,0.129483,-0.13162537,0.09944826
-0.091442615,0.049662996,-0.05980778,0.10748803,0.10422716,0.049636066,0.031972818,-0.06398453,0.07781807,-0.11148304,-0.115659855,-0.048665006,0.022599276,-0.015715014,0.11605997,-0.046206508
0.018013926,-0.10406114,0.053757332,0.050668724,-0.023086136,0.025863588,-0.06248121,-0.04680537,0.031209761,-0.0203092,-0.0912038,-0.10948985,-0.056791607,-0.01521294,0.092186436,0.093465544
